<Nnet3> 
input-node name=ivector dim=100
input-node name=input dim=80
component-node name=tdnn1.affine component=lda.tdnn1.affine input=Append(Offset(input, -1), input, Offset(input, 1), ReplaceIndex(ivector, t, 0))
component-node name=tdnn1.relu component=tdnn1.relu input=tdnn1.affine
component-node name=tdnn1.batchnorm component=tdnn1.batchnorm input=tdnn1.relu
component-node name=tdnn1.dropout component=tdnn1.dropout input=tdnn1.batchnorm
component-node name=tdnn2l0 component=tdnn2l0 input=Append(Offset(tdnn1.dropout, -1), tdnn1.dropout)
component-node name=tdnn2l component=tdnn2l input=Append(Offset(tdnn2l0, -1), tdnn2l0)
component-node name=tdnn2.affine component=tdnn2.affine input=Append(tdnn2l, Offset(tdnn2l, 1))
component-node name=tdnn2.relu component=tdnn2.relu input=tdnn2.affine
component-node name=tdnn2.batchnorm component=tdnn2.batchnorm input=tdnn2.relu
component-node name=tdnn2.dropout component=tdnn2.dropout input=tdnn2.batchnorm
component-node name=tdnn3l component=tdnn3l input=Append(Offset(tdnn2.dropout, -1), tdnn2.dropout)
component-node name=tdnn3.affine component=tdnn3.affine input=Append(tdnn3l, Offset(tdnn3l, 1))
component-node name=tdnn3.relu component=tdnn3.relu input=tdnn3.affine
component-node name=tdnn3.batchnorm component=tdnn3.batchnorm input=tdnn3.relu
component-node name=tdnn3.dropout component=tdnn3.dropout input=tdnn3.batchnorm
component-node name=tdnn4l0 component=tdnn4l0 input=Append(Offset(tdnn3.dropout, -1), tdnn3.dropout)
component-node name=tdnn4l component=tdnn4l input=Append(tdnn4l0, Offset(tdnn4l0, 1))
component-node name=tdnn4.affine component=tdnn4.affine input=Append(tdnn4l, Offset(tdnn4l, 1))
component-node name=tdnn4.relu component=tdnn4.relu input=tdnn4.affine
component-node name=tdnn4.batchnorm component=tdnn4.batchnorm input=tdnn4.relu
component-node name=tdnn4.dropout component=tdnn4.dropout input=tdnn4.batchnorm
component-node name=tdnn5l component=tdnn5l input=tdnn4.dropout
component-node name=tdnn5.affine component=tdnn5.affine input=Append(tdnn5l, tdnn3l)
component-node name=tdnn5.relu component=tdnn5.relu input=tdnn5.affine
component-node name=tdnn5.batchnorm component=tdnn5.batchnorm input=tdnn5.relu
component-node name=tdnn5.dropout component=tdnn5.dropout input=tdnn5.batchnorm
component-node name=tdnn6l0 component=tdnn6l0 input=Append(Offset(tdnn5.dropout, -3), tdnn5.dropout)
component-node name=tdnn6l component=tdnn6l input=Append(Offset(tdnn6l0, -3), tdnn6l0)
component-node name=tdnn6.affine component=tdnn6.affine input=Append(tdnn6l, Offset(tdnn6l, 3))
component-node name=tdnn6.relu component=tdnn6.relu input=tdnn6.affine
component-node name=tdnn6.batchnorm component=tdnn6.batchnorm input=tdnn6.relu
component-node name=tdnn6.dropout component=tdnn6.dropout input=tdnn6.batchnorm
component-node name=tdnn7l0 component=tdnn7l0 input=Append(Offset(tdnn6.dropout, -3), tdnn6.dropout)
component-node name=tdnn7l component=tdnn7l input=Append(tdnn7l0, Offset(tdnn7l0, 3))
component-node name=tdnn7.affine component=tdnn7.affine input=Append(tdnn7l, Offset(tdnn7l, 3), tdnn6l, tdnn4l, tdnn2l)
component-node name=tdnn7.relu component=tdnn7.relu input=tdnn7.affine
component-node name=tdnn7.batchnorm component=tdnn7.batchnorm input=tdnn7.relu
component-node name=tdnn7.dropout component=tdnn7.dropout input=tdnn7.batchnorm
component-node name=tdnn8l0 component=tdnn8l0 input=Append(Offset(tdnn7.dropout, -3), tdnn7.dropout)
component-node name=tdnn8l component=tdnn8l input=Append(tdnn8l0, Offset(tdnn8l0, 3))
component-node name=tdnn8.affine component=tdnn8.affine input=Append(tdnn8l, Offset(tdnn8l, 3))
component-node name=tdnn8.relu component=tdnn8.relu input=tdnn8.affine
component-node name=tdnn8.batchnorm component=tdnn8.batchnorm input=tdnn8.relu
component-node name=tdnn8.dropout component=tdnn8.dropout input=tdnn8.batchnorm
component-node name=tdnn9l0 component=tdnn9l0 input=Append(Offset(tdnn8.dropout, -3), tdnn8.dropout)
component-node name=tdnn9l component=tdnn9l input=Append(Offset(tdnn9l0, -3), tdnn9l0)
component-node name=tdnn9.affine component=tdnn9.affine input=Append(tdnn9l, Offset(tdnn9l, 3), tdnn8l, tdnn6l, tdnn5l)
component-node name=tdnn9.relu component=tdnn9.relu input=tdnn9.affine
component-node name=tdnn9.batchnorm component=tdnn9.batchnorm input=tdnn9.relu
component-node name=tdnn9.dropout component=tdnn9.dropout input=tdnn9.batchnorm
component-node name=tdnn10l0 component=tdnn10l0 input=Append(Offset(tdnn9.dropout, -3), tdnn9.dropout)
component-node name=tdnn10l component=tdnn10l input=Append(tdnn10l0, Offset(tdnn10l0, 3))
component-node name=tdnn10.affine component=tdnn10.affine input=Append(tdnn10l, Offset(tdnn10l, 3))
component-node name=tdnn10.relu component=tdnn10.relu input=tdnn10.affine
component-node name=tdnn10.batchnorm component=tdnn10.batchnorm input=tdnn10.relu
component-node name=tdnn10.dropout component=tdnn10.dropout input=tdnn10.batchnorm
component-node name=tdnn11l0 component=tdnn11l0 input=Append(Offset(tdnn10.dropout, -3), tdnn10.dropout)
component-node name=tdnn11l component=tdnn11l input=Append(Offset(tdnn11l0, -3), tdnn11l0)
component-node name=tdnn11.affine component=tdnn11.affine input=Append(tdnn11l, Offset(tdnn11l, 3), tdnn10l, tdnn9l, tdnn7l)
component-node name=tdnn11.relu component=tdnn11.relu input=tdnn11.affine
component-node name=tdnn11.batchnorm component=tdnn11.batchnorm input=tdnn11.relu
component-node name=tdnn11.dropout component=tdnn11.dropout input=tdnn11.batchnorm
component-node name=prefinal-l component=prefinal-l input=tdnn11.dropout
component-node name=prefinal-chain.affine component=prefinal-chain.affine input=prefinal-l
component-node name=prefinal-chain.relu component=prefinal-chain.relu input=prefinal-chain.affine
component-node name=prefinal-chain.batchnorm component=prefinal-chain.batchnorm input=prefinal-chain.relu
component-node name=prefinal-chain-l component=prefinal-chain-l input=prefinal-chain.batchnorm
component-node name=prefinal-chain-batchnorm component=prefinal-chain-batchnorm input=prefinal-chain-l
component-node name=output.affine component=output.affine input=prefinal-chain-batchnorm
output-node name=output input=output.affine objective=linear
component-node name=prefinal-xent.affine component=prefinal-xent.affine input=prefinal-l
component-node name=prefinal-xent.relu component=prefinal-xent.relu input=prefinal-xent.affine
component-node name=prefinal-xent.batchnorm component=prefinal-xent.batchnorm input=prefinal-xent.relu
component-node name=prefinal-xent-l component=prefinal-xent-l input=prefinal-xent.batchnorm
component-node name=prefinal-xent-batchnorm component=prefinal-xent-batchnorm input=prefinal-xent-l
component-node name=output-xent.affine component=output-xent.affine input=prefinal-xent-batchnorm
component-node name=output-xent.log-softmax component=output-xent.log-softmax input=output-xent.affine
output-node name=output-xent input=output-xent.log-softmax objective=linear

<NumComponents> 76 
<ComponentName> tdnn1.relu <RectifiedLinearComponent> <Dim> 18 <ValueAvg>  [ 1.888961 1.552799 1.456397 1.808722 0.4133753 0.9218842 0 2.319363e-09 0 1.669375 1.523674 2.021256 2.957199e-06 0.2360868 9.918023e-10 0.107507 5.897995e-07 2.58902e-07 ]
<DerivAvg>  [ 0.9023656 0.8272819 0.9169835 0.9756645 0.4715714 0.7413791 0 9.247916e-08 0 0.9857405 0.9038091 0.9642482 6.732482e-05 0.4116142 9.247916e-08 0.1803021 2.533929e-05 1.377939e-05 ]
<Count> 2703312 <OderivRms>  [ 0.1776209 0.145567 0.1727219 0.1867683 0.1643987 0.2653663 3.516518 3.874007 3.375018 0.3445449 0.1640311 0.165382 5.150509 0.5230263 5.075378 0.2038393 2.402373 3.069114 ]
<OderivCount> 4147344 <NumDimsSelfRepaired> 2515 <NumDimsProcessed> 4527 <SelfRepairScale> 1e-05 </RectifiedLinearComponent> 
<ComponentName> tdnn1.batchnorm <BatchNormComponent> <Dim> 18 <BlockDim> 18 <Epsilon> 0.001 <TargetRms> 1 <TestMode> T <Count> 47372.34 <StatsMean>  [ 1.879217 1.59707 1.488286 1.82344 0.4390514 0.9377022 0 3.020325e-08 0 1.655441 1.52353 2.012059 4.605829e-06 0.2494294 4.69435e-43 0.1071908 6.096708e-07 1.033217e-06 ]
<StatsVar>  [ 1.838642 1.734763 1.246512 0.8783252 0.4348081 0.9178779 0 5.275216e-10 0 0.6232746 1.154681 1.126569 3.064027e-07 0.1660527 4.203895e-45 0.1104149 3.857221e-08 3.650294e-08 ]
</BatchNormComponent> 
<ComponentName> tdnn1.dropout <GeneralDropoutComponent> <Dim> 18 <BlockDim> 18 <TimePeriod> 0 <DropoutProportion> 0 <TestMode> <Continuous> </GeneralDropoutComponent> 
<ComponentName> tdnn2l0 <LinearComponent> <MaxChange> 0.75 <L2Regularize> 0.00015 <LearningRate> 0.001763691 <Params>  [
  -2.201418 -1.136567 0.2475068 -0.472764 0.5541768 -0.02347657 -0.0608516 0.02522703 0.1487911 -0.3804208 -0.6025964 0.0395347 -0.3167391 0.2461644 -0.1834667 -0.04961925 0.215746 -0.03746919 -0.7548996 -1.863605 -0.5822372 -0.9134697 -0.7051755 0.7568761 0.01119705 0.3549708 0.6606292 0.03957349 0.2696884 -0.3803433 -0.9075833 -0.3273436 -0.8907037 0.6808724 -0.4838634 -0.2682956 
  1.303229 -1.695541 0.5206259 -0.5306786 -0.6763147 0.7893833 -0.3892473 0.363486 -0.8561389 -0.85202 0.7201212 -0.4243538 0.2387494 0.5066375 0.2330417 0.8051076 0.1788168 -0.8977028 0.538803 -0.914552 0.261944 -0.5681108 0.4334882 0.9547846 -0.5519664 -1.046483 0.6962833 -0.5692188 -0.002948309 -0.5427979 0.7976086 0.6792032 0.01356113 -0.09784053 0.4888571 -0.1841593 
  -0.2045474 -1.058926 -0.8812445 0.739145 -1.181618 0.6208876 -0.728858 -0.1294065 0.739211 -0.0593596 0.8867828 -0.5984343 -1.088972 -0.8024975 -0.4342164 0.5077423 0.1205409 1.13878 -0.9497459 0.1167219 -0.9689226 1.343557 -0.06863238 0.8919802 1.058682 0.06133769 -0.2256969 -0.1854649 0.0804598 0.05759161 0.5998497 -0.3254903 -0.1506958 -0.7674477 -0.03538438 -0.4412242 
  0.5538656 -0.7710908 0.3771805 1.56776 0.7677841 0.7702085 0.9530346 -0.8282555 0.2843816 1.184989 -0.3953952 -0.8498068 -0.05738676 0.633201 -0.4981337 -0.1978048 0.5314571 -0.6819369 -0.2070671 0.4366913 -0.348867 -0.06823617 -0.431629 0.7636801 0.4599957 -0.8109777 0.276736 0.1652537 0.003442744 -0.6863843 -0.8903407 -0.4859836 1.459342 0.3228784 -0.3025094 1.012606 
  -1.441115 0.9915234 -0.6667444 0.3309207 -0.05944996 -0.2622285 0.6472586 0.2460023 -0.2834629 0.08499087 -0.9187346 -0.2146756 0.2491998 -0.3840459 0.7919776 -0.04232288 0.1335397 0.360462 1.054844 0.3399914 -0.3254639 0.3331726 0.4545315 1.117143 0.5644364 -2.09678 0.3347118 -1.066419 -0.3422323 -0.3527881 0.169709 1.254748 -0.2392359 -0.2172857 -0.1644913 -0.266046 
  0.7850611 -0.009537247 -1.396047 -0.8103557 -0.584671 -0.1004277 0.2736869 -0.2719187 -0.1152694 2.238672 -0.01158791 -0.6115744 0.9640757 -0.6280991 -0.1893613 0.1943085 -1.102808 0.2571931 -0.3050782 -0.1025099 -0.312294 -1.5448 0.2252392 0.6777748 0.06641346 0.1785804 -0.2234618 0.1693824 0.9517224 -0.29383 -0.1305322 0.1725957 -0.980557 0.07938536 0.02418537 0.04308421 
  -0.3186019 -1.567228 0.08895484 -0.4073279 0.5755146 -1.75403 -0.625326 0.03895213 -0.1367295 0.08203997 -1.011432 -0.5228193 -0.6430843 -0.2323125 0.1150578 -0.03495969 0.4967223 0.170478 -1.006615 1.239747 0.8816349 -1.050127 -0.08545829 -0.7535609 0.2588941 -1.096027 -0.5199556 0.3003837 0.4687366 -0.05022206 0.8492095 0.0571829 0.4392916 -0.7561676 0.0750147 -0.3149288 
  -1.212146 0.5660151 0.6885303 0.5698439 -1.543427 -0.7721965 0.4192097 -0.1421925 -0.3096172 -0.2978454 1.567819 -0.896625 0.8403227 0.2902505 0.5380464 0.6959037 -0.1557397 -0.2180257 -0.4356465 0.3187126 -0.001706645 -0.00114292 -1.020676 -0.9185156 0.1274093 -0.5114601 0.5556745 0.3529664 1.439314 -0.3094605 0.2167807 -0.08658915 0.01225736 0.5071565 0.2965435 0.9026724 
  -0.6675195 -0.4366459 0.05629195 0.3753524 -0.2838868 0.06204265 -0.8536759 0.9091984 0.142693 1.766713 -0.1797456 1.115478 -0.6471305 -1.286848 -0.07366581 0.07174601 0.3125221 -0.3963583 1.311912 -0.6356456 -0.2242258 0.2869755 -0.887298 -0.4695992 -0.8181484 0.2432515 0.6744025 0.6814051 0.3063273 -0.3944667 0.5378262 0.6840672 1.050169 -0.201728 0.8714278 0.2842693 
  -0.3353355 0.3176721 2.025127 0.5419923 -0.3518803 0.7958783 -0.3895037 0.05783402 -0.2061315 0.5982861 -0.856933 -0.9395469 0.4912874 -0.9969583 0.3075348 0.1376071 -0.3689733 0.3160001 -0.07802848 -0.1042436 1.619158 0.2722192 0.4883021 0.8442161 0.1645494 0.02328245 0.27404 1.378877 -0.668604 0.3027228 0.3453144 -0.7335427 -0.9999781 -0.3895713 0.01456603 -0.05475474 
  0.3823467 -0.2038992 -0.8099821 1.472671 1.000175 -0.5390463 0.0421273 -0.3397148 -0.3616366 0.3768595 1.088833 0.07739338 -0.2741606 0.0547937 0.3893459 0.4793661 0.8878584 -0.1521603 0.4971398 -1.245869 0.7086852 0.1069212 0.745865 -0.5745473 0.3826502 -0.5056813 0.2720507 1.003621 0.7714254 1.447178 -0.5319818 0.5842073 -0.8242106 -0.2874147 -0.9151454 -0.5912615 
  -0.01809396 0.7008488 0.5847923 0.07482515 0.5048268 1.290511 0.3195656 0.8389872 0.3523027 0.4417231 0.6574259 1.45271 -0.7420245 0.3777186 -1.053912 -0.763338 -0.2658252 -0.175051 -0.8455928 0.6548226 0.02264875 -0.7127694 0.07970455 -0.1923579 0.2844795 -1.354129 0.9905794 -0.3295893 0.9716913 0.3513086 0.9885225 -0.6365231 -0.8447038 0.02468817 0.1183249 -0.5507686 ]
<OrthonormalConstraint> -1 <UseNaturalGradient> T <RankInOut> 18 6 <Alpha> 4 <NumSamplesHistory> 2000 <UpdatePeriod> 4 </LinearComponent> 
<ComponentName> tdnn2l <LinearComponent> <MaxChange> 0.75 <L2Regularize> 0.00015 <LearningRate> 0.001763691 <Params>  [
  0.3161874 -1.036069 0.7570622 0.6118571 0.2477644 0.9402853 -0.8042551 0.8832112 0.5205953 -0.04782294 -0.03212776 1.249768 -0.8465832 0.5485738 0.5764388 1.188598 -1.382149 0.7886214 -1.449919 -0.3622358 1.170699 0.1324792 0.9171034 1.423663 
  -1.515816 -0.8184754 -0.5681162 0.3223108 0.3527818 1.191171 0.1354922 -1.854956 0.7586795 -0.8127704 -0.6771618 -1.254792 -0.2451477 -0.9374296 1.453024 1.345357 0.4943945 -0.4407787 0.3590073 -0.3541838 0.2698075 0.7668493 -0.181535 0.3438182 
  -0.02110555 0.8442167 0.07228905 0.7878426 -0.2356861 1.420265 0.4702958 -0.07027633 -0.7420964 0.7054176 0.3761401 0.07055303 -3.167488 -0.1496003 -0.8020484 0.7023419 0.2179567 0.009211433 0.6290281 -0.1601398 -0.6965143 -0.8562922 -0.3604052 -0.4775471 
  -0.5171983 -0.598611 -0.5084621 1.323267 0.8516761 -0.4277773 0.8282246 -1.078007 0.6604965 1.434433 1.001667 -1.236382 -0.09897411 0.8397676 -0.7376755 -1.120025 -1.468028 0.4263591 0.5964668 0.5510142 0.1035613 0.1840955 1.347258 0.5158198 
  1.485804 -2.169601 1.362083 -0.2196438 0.2773777 -0.9019393 1.273402 0.1845159 0.3312566 0.06374011 0.3038227 -0.1682845 -0.3148151 -0.6724855 -0.4368133 0.962921 1.109438 -0.08731996 1.195076 -0.3684351 0.8925359 -0.09079479 0.6971236 -0.8390185 
  -0.08709241 -0.3958644 -1.687852 -0.8781255 -0.5378808 1.401701 0.22332 0.5517583 1.318834 -0.01466227 -0.1747861 0.2274746 -0.06385221 -0.7629164 -1.044243 -1.216148 0.2173355 1.725691 0.312055 -0.4026466 1.645412 0.00472786 -0.5082107 -0.6056297 
  1.467128 1.108136 -0.5410548 -0.2332362 -0.1112343 -0.9183874 0.6113279 -2.064244 0.6640944 0.06663325 -0.1821191 0.9048754 -0.5983415 0.5427395 0.8552285 -0.4474635 0.05928719 0.2100469 -0.7104782 -2.258665 0.1625708 0.00810192 0.4538637 -0.2506788 
  -1.2254 -1.347092 -0.4043994 -0.807283 2.139857 -0.9788328 -0.6249139 -0.4354927 -1.594556 0.4245571 -0.2196436 0.7291887 -0.6427223 0.4603641 0.4518141 -0.2363963 -0.2087129 1.028406 -0.1580066 -0.3672756 0.1873939 -0.4323758 -1.07458 -0.9928324 
  -1.725152 -0.1767793 0.07877094 0.4995514 -0.6949027 -0.8869997 -1.183032 -0.312606 0.5014127 -0.2000424 1.859141 1.294912 -0.3968678 -1.216562 -0.8726575 -0.2025467 0.6145364 -0.8501853 -0.7390681 -0.4224475 0.1514853 0.6940475 0.9908932 -0.9377841 
  0.3589629 -1.221775 0.218244 -0.108355 0.7542614 2.12101 -0.2721147 -0.7449565 0.1723263 -1.067375 0.6929203 0.6719749 0.7985606 1.318886 -0.49512 -1.02857 0.8790272 -0.7615948 -0.1854974 -0.3304899 -1.222816 -1.271083 0.5676545 -0.1432755 
  0.005022253 -0.8800416 -1.226439 -1.597124 -0.6819739 -0.3642586 0.3946345 0.3360427 -1.185871 -0.1371508 0.5429026 0.1269047 -0.8422736 -1.017703 0.6481377 -0.8950582 -0.2992231 -1.104572 0.5349296 -0.2841235 -0.1093458 -0.6401898 0.8197835 2.21269 
  -0.7340165 0.9247079 1.407139 -0.5104159 -0.07902463 -0.2603665 0.4086338 0.02609061 0.6813906 -1.78687 1.121383 -0.2392022 -0.4333881 -0.1073619 1.568873 -0.6584682 -0.980293 0.8535928 0.7734265 0.6057514 0.6070995 -1.62662 0.2623143 -0.6601983 ]
<OrthonormalConstraint> -1 <UseNaturalGradient> T <RankInOut> 12 6 <Alpha> 4 <NumSamplesHistory> 2000 <UpdatePeriod> 4 </LinearComponent> 
<ComponentName> tdnn2.affine <NaturalGradientAffineComponent> <MaxChange> 0.75 <L2Regularize> 0.00015 <LearningRate> 0.001763691 <LinearParams>  [
  -0.00526591 2.010881 2.188593 1.497809 -2.513204 0.6518908 -0.9916592 -0.5729113 -0.3618174 0.1278253 0.4675952 0.8413946 0.6964211 0.8944654 -1.070138 0.6540506 0.3545271 -0.2774405 0.1291449 -0.3583904 -2.684124 -0.5807492 2.847929 -0.009936786 
  0.4072668 0.7048545 0.7062204 1.226986 0.7728745 -0.6606845 2.130533 -0.7366804 0.5546963 0.7312944 0.5295474 -0.006770054 0.160578 -0.3477782 -1.572208 0.2373409 0.7172761 -0.1852357 1.676628 -0.8733581 -0.5798962 -0.4179316 0.4075097 1.639254 
  0.1359728 0.5706185 0.09465937 0.6694276 -0.6691966 0.2082651 -1.526347 -0.08376749 -0.2691939 0.5155649 1.069068 0.4436271 -0.5774683 0.8252697 -0.6671049 0.4342784 -1.557419 -0.02204723 0.2499062 1.557567 -0.09923757 0.03952274 0.4520072 0.7813641 
  1.261573 -1.047006 0.2218129 0.2453248 -0.8504158 -0.7861607 1.093571 0.360145 -0.4847762 -0.6412494 0.8831642 -1.116499 0.550031 0.06813359 -0.1022779 -1.944003 1.098746 0.7528545 -0.3911312 -0.5571259 0.06247338 -0.1260632 0.2135651 -0.5571494 
  1.065383 -0.5707239 -0.2542228 -0.297127 0.6403767 -2.591498 -1.011719 -0.7331935 -0.5741669 1.203959 1.473444 -0.5516943 1.652538 -0.286708 0.2278506 0.656381 0.4588884 -2.732591 -0.02594414 -1.346494 -0.7096658 0.796021 1.127649 -0.5538124 
  2.745532 -1.029231 0.1508249 1.266231 1.988489 -0.753614 0.2186974 0.09391507 -1.319523 0.06967311 0.3837898 0.8502983 0.1688573 -2.359525 0.2676415 1.162425 0.8977063 0.772498 0.7615516 2.05563 0.1436373 -1.110781 -0.1397964 -0.2751224 
  -0.04128609 0.5742666 -0.8118598 -0.5209521 -0.05009631 0.4360572 -0.3189725 -0.2940962 0.674063 0.7634131 -0.2230913 0.03239138 0.3963862 -0.5334548 0.05106849 0.7865574 -0.8468419 -0.8879447 0.2385344 0.2883568 0.5866163 -0.4173179 -0.6615733 -0.1972735 
  0.3837316 0.593275 0.02740282 -0.2213613 0.5772413 -1.254268 0.07890233 2.250618 -1.042645 -2.338375 -0.3782448 0.06691602 0.674864 -1.415943 -0.3949431 0.713084 0.04469892 0.7751205 0.5723584 0.3935889 0.3780726 -0.1714786 0.7098279 -0.1009917 
  1.127676 -1.187102 0.08212238 -1.539113 -0.395889 0.5849832 -0.9854014 2.440307 -1.141566 -1.130272 0.7756637 -0.1456646 1.6191 0.6820568 1.159573 -0.3513043 1.194886 0.6197699 0.1265659 0.7759385 0.1021081 -0.1852504 -0.1978396 -0.7274252 
  0.3039912 1.68712 0.7061988 0.6765641 1.796972 1.313981 -0.7000724 -0.04952057 0.8260171 1.095093 -2.758357 1.093366 -1.87482 -0.634367 0.06555651 0.5369436 -1.079026 -1.164067 0.1015903 0.9602506 0.08014603 0.4836715 0.2253181 1.431874 
  0.006948796 0.1826922 -0.9655105 -0.01838238 1.309752 -0.2450804 -1.33642 0.8846899 1.704879 0.4237763 -0.8654683 0.008787662 0.7443272 0.7554209 -1.071589 1.223182 -1.355573 -0.8662781 0.1986511 -0.7905568 -1.580251 0.8518915 -0.9216538 -1.070569 
  0.7569496 -0.3869561 1.511068 -0.06713412 0.8273637 0.1491966 0.5116552 1.278805 0.07022018 -1.207959 -0.4797418 1.543758 0.03343945 -1.883498 -0.488812 -0.05579281 0.1111709 -0.5301137 1.281102 0.3849686 -0.415121 -0.5631303 0.3753538 1.018088 
  -0.5321302 0.9325981 -0.5202829 -0.5224319 -1.310158 2.023259 -0.08625217 -2.057007 -0.4827202 0.6145086 1.232406 0.1120096 -0.3458748 1.39924 0.363282 -0.9683673 -1.298039 0.5399151 0.8440311 -0.6849377 0.1616282 1.068053 0.6322009 1.056514 
  -0.6981126 -1.338555 -0.5019277 -1.064863 -2.174745 1.373517 -1.738118 -1.371217 1.147531 -1.52315 -1.064174 -0.1333038 -0.4796548 -0.5658329 -0.2858537 -0.6973406 -0.470744 0.4988576 -1.997653 -1.146512 0.7358651 -0.4589697 -1.169629 -0.005044675 
  1.084095 0.7493937 -0.2014212 -1.30701 -0.6698905 -0.9221404 1.382269 0.07698776 -1.032102 -0.3280318 -0.7621344 -0.4659603 0.8257552 1.8287 0.7106947 0.2464268 -0.873401 -0.08762579 0.4811951 -1.922359 -0.4972124 0.174651 -0.4280708 -0.3374183 
  0.6291947 -0.6741647 -0.2530471 -0.08899328 -0.2522664 -2.530166 -0.2702163 0.08386401 0.0689239 0.4377948 1.256002 0.4231743 0.5288352 -0.2179061 -0.6211746 0.05360916 1.639165 -0.2923118 -0.4635882 0.5340148 0.1252901 -0.4720575 1.180539 -0.194031 
  0.6154301 1.4115 -0.7232605 1.110632 1.557502 0.1576814 -2.121513 -2.505178 -2.458821 2.492829 2.207743 -1.743718 -0.00740983 0.978098 0.267854 0.9225712 0.3473972 -0.4438361 -1.102003 -0.9514157 -0.9736741 2.79897 1.595429 0.3354754 
  -0.8912081 -0.4916077 0.5448421 0.246146 1.118021 0.3353188 0.2293269 0.3527055 -0.3518834 -0.7950482 0.6687034 0.6096131 0.9132097 -1.403264 0.4275114 0.7067119 0.3853354 -0.9017847 1.529812 -0.109764 -0.9568256 -2.691844 -0.2880629 -0.5299505 ]
<BiasParams>  [ 0.6203648 0.1951985 1.708606 0.2492551 0.7241564 -0.5138982 -1.441616 1.400716 0.3327024 1.488713 2.223233 1.239287 0.9363825 -0.3640327 -0.08201838 0.8959253 -0.08118216 0.4437768 ]
<RankIn> 12 <RankOut> 9 <UpdatePeriod> 4 <NumSamplesHistory> 2000 <Alpha> 4 </NaturalGradientAffineComponent> 
<ComponentName> tdnn2.relu <RectifiedLinearComponent> <Dim> 18 <ValueAvg>  [ 41.55582 35.76596 26.30655 20.72636 44.78971 28.18618 13.22738 27.74793 27.80688 37.77812 28.99324 21.33171 57.51442 46.54635 32.89098 33.0821 66.83078 26.81673 ]
<DerivAvg>  [ 0.5304977 0.4968349 0.5345812 0.4207749 0.4966171 0.4880947 0.4758486 0.4882441 0.4573891 0.5501126 0.4874751 0.4940029 0.5188841 0.4700927 0.4777127 0.5090305 0.4750919 0.4597843 ]
<Count> 2882448 <OderivRms>  [ 0.002127302 0.001685404 0.003188615 0.002867553 0.001233193 0.001628165 0.002670243 0.002903749 0.001435316 0.003645397 0.002419614 0.002668512 0.001927805 0.001271182 0.003305976 0.003262667 0.001233989 0.003422205 ]
<OderivCount> 3950064 <NumDimsSelfRepaired> 0 <NumDimsProcessed> 4072.5 <SelfRepairScale> 1e-05 </RectifiedLinearComponent> 
<ComponentName> tdnn2.batchnorm <BatchNormComponent> <Dim> 18 <BlockDim> 18 <Epsilon> 0.001 <TargetRms> 1 <TestMode> T <Count> 46604.34 <StatsMean>  [ 42.59758 35.60316 27.14841 21.44463 46.71636 28.90303 13.13475 28.68345 28.1983 38.54089 29.42101 22.80992 59.11636 47.66646 33.49964 33.98216 67.39441 27.45766 ]
<StatsVar>  [ 3079.287 2492.529 1393.207 1212.537 4553.566 1805.157 402.2374 1697.644 2249.975 2516.599 2009.109 1008.109 5827.943 7310.169 3127.947 2502.874 9598.27 1796.885 ]
</BatchNormComponent> 
<ComponentName> tdnn2.dropout <GeneralDropoutComponent> <Dim> 18 <BlockDim> 18 <TimePeriod> 0 <DropoutProportion> 0 <TestMode> <Continuous> </GeneralDropoutComponent> 
<ComponentName> tdnn3l <LinearComponent> <MaxChange> 0.75 <L2Regularize> 0.00015 <LearningRate> 0.001763691 <Params>  [
  -0.4842623 -0.07228851 0.8102255 0.8746678 -0.9793435 0.370949 0.4574501 1.347417 0.006464425 0.3939243 -0.1874255 0.478277 0.7385207 -0.3888779 -0.840253 -0.2419332 -0.2007069 0.5510476 -0.2035233 0.6139609 0.3003138 0.7637218 -0.3862418 -0.5226356 0.4259707 0.3456904 -0.455764 0.05212237 0.1483376 -2.03164 -0.8094241 -0.5593455 -0.2822416 -0.02725257 -1.142832 -0.2881035 
  0.4632477 0.3596422 0.2700828 0.4576174 -0.3958653 0.5231676 -0.3736284 0.1625318 -0.1264549 -0.2622693 0.5669325 0.4747316 -1.843781 -0.07475749 -0.585907 -0.08315522 -1.541395 -1.042447 1.009081 0.2881347 -0.7801425 0.1285822 0.6693377 0.6026156 0.1577739 0.6726905 -0.06888974 -0.6648567 1.504211 -0.0409978 -0.2867249 0.1553445 -0.4321325 -0.184198 -0.1286712 0.6646385 
  -0.4767546 -0.03263976 -1.08237 0.06228172 -0.7953495 -0.2503499 -0.4064303 0.6023889 -0.02090094 -0.8558363 -0.04912522 0.5036794 0.5316846 -0.03238802 0.1545794 -0.582069 -0.1967173 0.6741452 0.8347894 0.2170411 -0.56556 0.5180622 0.6477258 -0.598013 -0.6351625 -1.318482 -0.9816706 -0.4090596 0.8930505 -0.2978565 0.9968138 0.6157786 1.072685 -0.8380262 0.8611535 -0.7793249 
  0.5681987 1.729183 0.5602398 0.003281554 0.1462125 0.3758238 -0.1540362 0.010487 0.314002 -1.198851 -0.1538718 -0.490122 -0.2241711 -1.475595 -0.3488537 0.9676745 0.7170814 0.3589805 0.5113077 0.478607 0.0501655 -0.4981284 0.2234712 -0.2992133 -0.3629086 -0.1240818 0.3075342 -0.5094326 -0.519365 -0.4572935 -0.3866418 -1.355922 -0.3030786 -0.540329 1.314617 -0.3604928 
  -0.07004335 0.5405696 0.7527802 -0.9645065 0.1912573 0.3465799 0.137984 -0.6276799 -1.286394 0.8579158 -0.2776414 1.531139 0.5510848 0.4012027 -1.288942 0.1028088 0.9980627 -0.891538 -0.1594771 -0.5976506 -0.2789889 -0.3004245 0.219528 0.2447421 -0.1703656 -0.2986843 -0.7086709 -1.069448 -0.3178505 -0.7927759 0.3989471 0.3404706 0.3189454 -0.1889355 0.5226547 0.8021836 
  0.219289 -0.5265321 -0.8076916 0.6978269 0.2218619 0.8325662 -0.8757234 0.6590277 -0.6545961 -0.549018 0.6444848 0.5995411 -0.4401116 0.5012615 0.6038641 0.3231353 1.360687 0.893736 -0.1552396 0.7388668 0.08455366 1.062637 0.2406352 1.271747 -0.1077811 0.4189472 -0.1378101 -0.1720044 -0.6052442 -0.4438309 0.7342369 -0.02781538 -0.9544885 0.8708631 0.4745148 0.6777657 
  0.1542304 0.1412758 0.1250449 0.4358067 1.42988 -1.167967 0.03911407 1.031789 0.1148249 1.269527 0.4541486 -0.1106393 -0.2171963 0.7607037 -0.06683328 0.04117112 0.08683335 1.215833 0.7165768 -0.5283439 -0.6808389 0.297475 0.5331731 -0.7597473 -0.9709018 0.6943204 0.4444508 -0.3028554 -0.04412226 -0.2323014 -1.175281 0.08677322 0.733908 0.05532898 0.7625165 0.6607727 
  -1.967315 -0.4417243 -0.2219534 -0.04326751 1.223138 -0.3220264 0.4700235 0.3987174 -0.7531734 -0.5878618 0.2598711 -0.3749418 -0.7782851 -0.7587041 0.494705 0.1142634 -0.695119 -0.5363178 -0.6544448 -0.4611593 1.167674 0.1014975 -0.6501917 -0.3466619 -0.218291 0.4264098 0.1463643 -1.442881 0.03374681 -0.7284722 0.4474753 0.3084161 -0.2778726 -0.2643877 0.5128626 -0.1986686 
  -0.7429145 1.543556 0.06628835 -0.1173023 -0.5616652 0.1890458 0.681721 0.2008165 0.03393312 -0.1151702 -0.04348639 0.9460899 -0.6676793 0.3290912 0.7453257 -0.2561572 -0.4204727 0.9912872 1.132308 -1.52972 -0.01082266 -0.1544121 -0.6212897 1.316455 -0.2164627 -0.1141534 0.08176747 -0.1431316 -1.082358 0.1624885 -0.06939743 0.07371133 0.1322877 0.3853343 -0.8337407 -0.8064767 
  0.5324062 0.82471 0.7284228 0.1329527 -0.01697506 -0.9514752 -0.09523528 1.218151 -0.1516439 -0.3710781 -0.5430848 0.7993801 0.3238275 0.7820922 -0.4669853 0.3892649 -0.8131328 -0.2419373 -0.03051643 0.6656263 0.494716 -0.5596082 -0.5582249 -0.4831263 0.226301 0.2780947 0.45489 0.7356141 -0.1463889 0.2250685 0.9012501 1.467648 -1.042166 0.8118877 1.11646 -0.6043811 
  -1.451863 -0.2832808 -0.2347391 -0.3403713 -0.3390372 0.5287502 -0.5016682 0.4858757 0.09071997 1.301253 0.6227618 0.09097435 -0.6111872 0.07080092 -0.749995 1.534431 0.290442 -0.1591293 -0.07656563 -0.03714818 0.32553 -0.5584071 -0.07900207 0.8727287 -0.4999886 -0.3624773 0.2640628 1.683484 0.8492827 -0.06417506 -0.1042668 -0.3745954 0.2646602 -0.3187383 0.7452341 -0.8619061 
  -0.778198 0.1574582 0.2836853 0.9550568 0.3108556 -0.06194696 -0.4813125 -0.408227 -0.4118253 -2.167675 -0.8260563 0.1873255 0.2884617 1.022796 -0.7766169 0.938596 0.1629476 0.2041287 -1.132143 -0.9244625 -0.770218 0.3090709 0.1817728 0.1036681 -0.07683855 0.5942789 0.1118166 0.5150178 0.453799 0.3431404 -0.8035513 0.1582646 0.6015785 -0.3299692 -0.4286782 0.01076344 ]
<OrthonormalConstraint> -1 <UseNaturalGradient> T <RankInOut> 18 6 <Alpha> 4 <NumSamplesHistory> 2000 <UpdatePeriod> 4 </LinearComponent> 
<ComponentName> tdnn3.affine <NaturalGradientAffineComponent> <MaxChange> 0.75 <L2Regularize> 0.00015 <LearningRate> 0.001763691 <LinearParams>  [
  -0.4416397 0.9254112 -0.9498479 -0.4725228 0.2916959 0.9056584 0.06310988 0.5094956 0.3965397 -0.4467351 -1.431313 -0.05665763 0.4421954 -1.130604 1.03604 0.3943779 -0.7114955 -0.7299358 -0.1763815 -0.3498955 -0.2490714 0.3843727 1.133736 0.4918728 
  0.3857214 -0.2081728 0.2903412 0.08357295 -1.147938 -1.018831 0.1776801 0.2960669 -0.602779 -0.7761388 1.403642 0.5842793 -0.794399 0.3252504 0.5642826 -0.4687666 1.801142 0.2202569 0.3365256 -1.025918 0.2763054 -0.2900382 1.05261 -1.403473 
  -0.3928092 -0.356142 0.06201116 1.00782 2.423576 -0.3796948 -0.4262989 -0.8301743 -0.5592324 -0.6240996 0.08498146 0.7557862 1.029303 0.4941454 0.05490132 0.3125145 -0.9412764 -0.8890036 0.8388873 0.06576674 0.5651112 -0.4351942 0.4563136 -0.8561474 
  -0.4665534 0.2423849 -1.070368 -0.1012006 -0.1921391 0.440904 0.08427625 -0.9699702 -0.8527687 -0.9872503 1.244299 0.5957382 0.4630603 0.0800462 -0.00724051 -0.6725717 -1.276404 0.4377187 -0.5917164 0.6407976 0.6383713 -0.2904492 -0.6853334 -1.007662 
  -0.3462125 -0.1149064 -1.088043 -0.899663 0.0372915 -0.9701207 -0.9841628 0.8668589 0.5833886 -1.040692 0.5087906 -0.3795074 0.06226286 0.1491189 0.09430507 -0.2522745 1.281765 -0.7384658 -0.320823 1.022449 0.7545337 0.6185231 -0.3582032 -1.11184 
  -0.3783514 0.6068854 0.4344812 0.7774371 0.7397833 -0.3758207 0.4882358 -0.2281096 1.781445 1.508029 0.5016356 0.1399934 0.2029116 -0.2648216 0.5381564 -0.927886 -0.2223253 0.1132414 0.4162489 0.7166932 0.4770761 -0.5226523 0.1565165 0.04677472 
  -0.7240749 -1.222482 0.1741089 -0.1381243 0.3103739 -0.6447747 -0.9337841 0.5621597 -0.8921722 -0.7486996 0.1374369 -1.412066 -1.000561 -0.6244807 0.1145742 -0.319491 0.3153424 0.2238548 0.7116008 1.065245 -0.5071271 0.2855068 0.4167042 1.022363 
  -0.1433736 -0.008574174 0.6777019 0.4260479 -1.019 1.142936 -0.4057559 0.5077191 -0.7949254 0.2091477 -0.9240215 1.013722 0.4053367 -1.099955 -1.468857 -0.8565415 -1.43983 0.09592522 -0.8443111 -1.344771 -0.5296866 -0.3268224 0.7970797 0.6549338 
  0.1486978 -0.7765313 -0.4107381 0.609418 -0.6933307 -0.03414497 -0.4403644 -1.631377 -1.629522 -0.6918021 -1.656382 -0.1897065 -0.2571322 -0.151677 0.06815559 -0.5322963 0.8919915 1.001496 0.6745985 -0.04528678 -0.47399 -0.6710258 1.091323 0.5281448 
  0.6838346 -0.2645766 0.3753068 0.7535807 -0.6665114 -0.07975982 -1.159546 0.3105541 0.3674905 0.8256985 -0.7750438 1.806604 0.1887535 0.3465588 -0.07920808 -0.3664892 -0.6069816 0.6096725 -0.4660622 -0.1926552 0.6738203 0.459304 1.295734 -0.1323417 
  0.6498821 1.264073 0.7331757 -0.4732009 -0.3766562 -0.980189 -0.4917999 1.373338 0.3865299 0.9200695 -0.09046002 -1.066773 -0.1649184 0.3328927 1.633217 0.2320306 0.7777098 0.4382829 0.4772494 -0.09728289 -0.7493786 0.7265792 -1.340186 -0.4586579 
  0.9778672 0.09960036 -0.4464428 0.2817061 1.371775 -1.090955 0.02199531 -0.543092 -1.579893 1.433861 0.6170417 0.780538 -0.2901467 0.2462811 0.9151335 -0.1258512 -0.7022086 -0.3654629 0.3219182 -0.01807405 0.9446533 -1.982942 -0.6217061 0.7515774 
  -0.9558496 -0.7929581 0.7355053 -0.1247091 -0.7365338 1.810794 -0.8920658 0.9335797 -0.05077574 -0.6288999 -0.03624088 -0.9145694 0.7672964 -1.007853 -0.9431654 -0.9039562 0.3058498 -1.205511 0.04531303 -1.138898 -0.06703883 0.291494 -0.5729612 -0.106724 
  -0.6169405 -0.06967245 -0.2037013 0.7231128 -0.7617812 -0.2201526 0.1557681 -0.4775825 -0.1695756 -1.402697 0.2363349 0.4916513 -0.803495 -0.989391 0.6626793 0.5009961 -0.2590324 1.495757 -0.8837209 0.8728794 0.249544 0.411792 -0.3348361 -0.080974 
  0.04038682 -0.2994664 -0.7262738 1.682309 -0.2566794 -1.010875 -0.4488306 0.2764103 -0.9040172 -0.05838931 0.5214207 -0.7969164 0.008760633 -0.08564539 0.1710175 0.6708356 0.04626245 0.1775994 0.03087131 -0.318238 0.2358664 -0.2165549 -0.2857374 0.1106703 
  -1.669687 0.8537147 -0.4896899 -1.470372 0.04169194 -0.8041569 -0.5382206 -0.7914072 -0.4703371 -0.3848928 0.09460816 -0.5126626 0.4096144 0.6018701 0.1189482 -0.9573628 0.1781612 0.9896055 -0.6938906 0.1908004 -0.1672101 0.1069265 -0.1536104 0.6276652 
  0.4233485 0.7035989 -0.1604296 -0.6898719 -0.3805395 -0.339204 0.2239236 -0.2087908 0.2700636 -0.5966473 -0.03042478 -0.9166695 0.2076286 0.4005042 0.1569813 0.6892748 -0.4908346 0.5027164 -0.0967415 -0.3752604 -1.217074 -0.1575727 -0.0554198 0.05444694 
  0.1111575 1.248693 -0.7348219 0.3253177 -0.2284916 0.3484758 0.9550196 1.086603 0.03941755 0.3770256 1.34482 -0.488084 -1.203861 -1.38411 0.762698 0.119103 0.5979773 0.28172 -0.6311646 0.3146711 -0.2464199 -0.2754444 -0.1481293 0.1095849 ]
<BiasParams>  [ -0.6070233 -0.2825502 -0.3224437 -0.5849454 -0.03831344 -3.346956 2.024232 -0.4865796 -1.080323 0.2453898 0.3928384 0.2028617 0.2422777 0.9480613 2.429337 1.118799 0.5036766 -1.748609 ]
<RankIn> 12 <RankOut> 9 <UpdatePeriod> 4 <NumSamplesHistory> 2000 <Alpha> 4 </NaturalGradientAffineComponent> 
<ComponentName> tdnn3.relu <RectifiedLinearComponent> <Dim> 18 <ValueAvg>  [ 2.752118 6.977818 4.738249 5.810532 8.126732 1.782622 6.181752 6.209521 3.976805 4.497767 5.611301 5.580607 4.972187 5.85239 7.626824 5.951371 4.90156 3.574303 ]
<DerivAvg>  [ 0.4303456 0.4560101 0.526534 0.5087726 0.5006289 0.2810701 0.5921571 0.4480208 0.4619599 0.5050124 0.5056503 0.527921 0.4952123 0.5389507 0.5465191 0.4773858 0.5547419 0.3762065 ]
<Count> 2670496 <OderivRms>  [ 0.01948351 0.007319119 0.007607364 0.009270334 0.005343462 0.009199644 0.006231961 0.004438366 0.008939508 0.006652948 0.006230134 0.01015308 0.007354056 0.009097365 0.008021471 0.005646749 0.006101641 0.007482199 ]
<OderivCount> 4080096 <NumDimsSelfRepaired> 0 <NumDimsProcessed> 3964.5 <SelfRepairScale> 1e-05 </RectifiedLinearComponent> 
<ComponentName> tdnn3.batchnorm <BatchNormComponent> <Dim> 18 <BlockDim> 18 <Epsilon> 0.001 <TargetRms> 1 <TestMode> T <Count> 46092.34 <StatsMean>  [ 2.836812 7.038247 4.828589 5.850392 8.188478 1.926014 6.185982 6.192746 3.843245 4.554239 5.638753 5.625284 5.063274 5.863366 7.750061 5.991329 4.98345 3.56611 ]
<StatsVar>  [ 26.46373 148.4259 42.52956 72.24218 129.9618 17.90059 57.02596 108.3274 37.89738 56.43943 77.51772 73.56491 56.82349 71.94284 103.4601 96.71014 39.45295 46.32553 ]
</BatchNormComponent> 
<ComponentName> tdnn3.dropout <GeneralDropoutComponent> <Dim> 18 <BlockDim> 18 <TimePeriod> 0 <DropoutProportion> 0 <TestMode> <Continuous> </GeneralDropoutComponent> 
<ComponentName> tdnn4l0 <LinearComponent> <MaxChange> 0.75 <L2Regularize> 0.00015 <LearningRate> 0.001763691 <Params>  [
  0.4161445 -0.7760733 0.6794945 0.8148063 0.2123809 -0.7618192 0.1698705 -0.01642826 -0.1949077 -0.4164636 -0.6636677 -1.172223 -0.1947134 0.8181975 -0.0221626 1.377781 -0.006738408 -0.0465188 -0.961448 -0.4577362 0.04767542 -0.8820086 0.5188819 -0.2020674 0.1486481 -0.3812965 -0.2460264 -0.2187389 0.8138644 -0.3235498 0.07809585 -0.6535228 0.08841491 0.2529299 -0.698441 -0.02272826 
  -0.5051535 -0.1828597 -0.5038233 -0.2524897 -0.3077582 -0.2399545 -0.3451156 0.8239842 -0.6600411 -0.1609159 -0.376655 -0.6195987 0.05401143 -0.5516766 -1.415182 0.4275788 -0.1343537 0.6349963 -0.3094587 -0.2382693 0.3115992 -0.5519328 -1.067228 0.003470507 -0.4241872 -0.05907243 0.07127069 -0.1866876 -0.9405967 -0.1101457 -0.1290608 0.1659831 1.303108 -1.145703 0.06085442 0.3521408 
  0.1048737 -0.07456888 0.8585881 -0.3614564 0.5878641 -0.4975381 0.7267761 0.5557609 0.9341515 0.8138343 0.2449896 -0.293892 -0.1220966 -0.1690448 -0.9529978 -0.5969847 -0.2556425 0.1951329 -0.3089638 -0.07045532 0.2824996 0.408957 -0.1117321 -0.2664036 0.6603296 -0.4496397 1.12101 -0.625971 1.208333 -0.260584 -0.4769024 0.2774324 0.3286552 -0.1989389 1.013708 -0.569097 
  0.3807396 0.2689596 -0.469057 -0.04796055 0.9075152 -0.5697179 0.7745838 -0.6808608 0.2767562 -0.3870865 1.100836 0.5321587 0.5292668 -0.6265347 -0.9552088 0.5690967 0.4849189 -0.8348075 -0.07334565 -0.9883108 -0.1041471 0.4775146 0.2015559 -0.391293 0.5243933 -0.279118 -0.2236823 -0.2267455 -0.303478 0.5377508 0.4274769 0.2992922 0.611699 0.3079908 -0.7862123 0.7744985 
  -0.0987175 -0.1366487 0.06189174 -0.07489599 -0.4804811 -0.2235324 0.6360382 -0.5636673 -0.8154752 -0.911315 -0.1375008 0.4121751 0.1691392 0.7721676 -1.147207 -0.5903122 -0.3751868 0.97501 1.270213 -0.01139698 0.04343329 0.5204319 0.6581838 -0.04814234 0.01912044 -0.03173377 0.2957926 -0.0977576 0.5309729 -1.010159 0.1953761 0.08720557 -0.4479441 -0.624957 -0.9943025 -0.03710784 
  -0.154066 -0.2144679 1.026024 -0.1410774 0.07440308 -0.6127573 -0.01367956 -0.4647811 0.2324875 0.2196027 0.2277448 0.7379184 -0.004899602 0.5103642 -0.08348832 0.440694 0.06203418 0.1023583 0.5616127 0.809883 0.7246081 -0.9655935 -1.152249 -0.2926293 0.6031008 -0.1926563 -0.02235288 0.3699301 -0.4141054 -0.703707 0.7413234 0.06306727 -0.4432516 0.3458617 0.68426 1.461111 
  0.5710076 0.5704107 0.02882186 0.3117369 0.2911117 0.2564912 -1.218029 1.442309 -0.5992858 0.3366802 0.5926177 0.7439823 0.721275 0.5510427 -0.3724002 0.06783541 -0.4912769 0.1173092 -0.4563523 0.0647991 0.6577743 -0.1029658 0.9257836 0.3857283 -0.182766 0.7480336 0.3815561 0.003035758 0.8376064 0.2111194 0.3731885 0.2490227 0.1576997 0.2221496 -0.1372985 0.9691589 
  1.461701 1.661136 0.05586087 -0.6847807 -0.7672431 -0.08085722 -0.1618241 -0.4750467 -0.1641178 0.644605 -0.4899212 -0.8804325 0.1230894 -0.05666244 -0.08492135 -0.8002536 -0.1837113 -0.2796344 0.06624787 0.3476393 -0.5192997 -0.7157657 0.1450583 -0.07206611 0.6206484 -0.3859754 -0.3462503 -0.4088499 -0.06604997 -0.3596094 0.7563731 -0.09604959 0.6498268 0.05529746 -0.3060102 0.1047767 
  0.4704867 -0.7391392 -0.2809019 0.3494863 0.06517661 0.3883128 -0.1823589 0.2899894 0.8317841 -0.5261407 0.9581997 -0.03300779 0.644497 0.8581002 0.8694369 -0.5807478 1.046796 -0.009016525 0.06139217 -0.3810863 -0.6418328 -0.7877299 -0.06156651 0.2653148 0.02367048 -0.3645667 0.5337685 0.04404085 -0.06474961 -0.6591241 0.7085724 0.523878 0.6043625 -1.286164 0.1025047 -0.238232 
  0.5015312 0.1159694 1.079984 -0.3588382 0.1542674 0.1446192 0.4790174 -0.6656391 0.2281394 0.2732751 0.1681647 0.234968 0.352747 0.06298086 0.3520287 0.9149782 0.02204796 0.05152801 0.4051453 0.8953521 -0.3769081 0.3233388 0.0270511 0.6054078 -0.7403887 1.017648 0.7361852 0.4828438 -0.07991791 -0.02268303 -0.8549306 -0.6737686 1.540362 -0.3364775 -0.5052547 0.04459302 
  0.09834257 0.5187692 -0.7074188 0.4618374 0.5227768 -0.450446 0.05627856 0.7988006 0.52048 -0.06407669 1.179603 -0.8664529 -0.6183991 -0.6089894 -0.3145278 -0.001361174 -0.108822 -0.3379576 0.6477344 0.5948566 -0.1815901 -0.7027035 0.09652445 -0.572831 0.02241603 0.9910327 0.3273003 0.2771743 -0.3182273 -0.8501726 -0.4129713 -0.9979547 -0.9242856 -0.1861992 -0.4870369 -0.1249307 
  -1.562866 1.090295 0.3725695 0.1571038 0.6458068 0.5195011 -0.1907858 -0.3557001 -1.169707 0.03117301 0.3011893 0.06913447 -0.7409894 0.3052819 0.4631047 0.0160293 0.1947643 -0.802002 0.2784589 -0.7144482 0.4338874 -0.6532839 0.1708948 0.2676083 0.5130399 -0.2194462 0.8160594 -0.2645373 -0.05945823 -0.6943227 -0.1489742 0.1355752 0.7485627 0.2733924 -0.1098567 -0.5191129 ]
<OrthonormalConstraint> -1 <UseNaturalGradient> T <RankInOut> 18 6 <Alpha> 4 <NumSamplesHistory> 2000 <UpdatePeriod> 4 </LinearComponent> 
<ComponentName> tdnn4l <LinearComponent> <MaxChange> 0.75 <L2Regularize> 0.00015 <LearningRate> 0.001763691 <Params>  [
  1.267134 0.607097 0.1554484 0.6443428 0.5208906 -0.601277 0.09942514 0.9080283 -0.9795867 -0.2375509 1.387002 -0.3877639 -0.1135755 0.7192189 0.3038687 0.684261 0.7275499 0.06586537 0.3472698 -0.4514817 -0.2638841 -0.5158464 -0.7121968 0.1261047 
  -0.3240383 0.3420132 0.5601329 0.7121903 0.4827632 -0.2750383 -1.816044 -0.879116 0.3221099 -0.2222418 0.4039596 0.252839 0.3993713 0.5118176 0.2451068 -0.4503221 0.2795174 1.217674 -0.2673932 1.228227 -0.01670205 -0.2829928 -0.2619654 -0.06532979 
  -0.596663 -0.7028078 -0.06136356 0.3581599 0.05869085 -0.3876469 0.2123035 -0.3575269 1.212566 -0.1649479 -0.1398034 -0.440711 0.1236512 0.4645604 0.485024 0.6668528 0.3147608 -0.9160973 -1.283976 -0.4188532 0.5224438 -1.056393 -1.28885 0.03396751 
  0.5515465 0.09805584 -0.5992696 -0.4797187 1.200709 0.9591846 -0.09093197 -1.057864 -0.4839764 0.1894904 -0.4027897 0.1867816 -0.7672246 0.6445318 0.06446604 0.5095823 -0.4398953 0.3127517 -0.3550946 -0.5044462 -0.1098847 0.03410697 -0.345707 -1.681116 
  -0.4046707 -0.5364133 0.1745843 0.7957129 -0.06880071 -0.1149247 0.6416909 0.3866342 0.03968002 0.7207818 -0.0379813 0.349166 -0.6697711 -0.3327886 0.03624619 -0.530529 0.3834805 1.65394 0.4222393 -0.8090719 1.5949 -0.2450906 -0.2816119 -0.4023981 
  -0.6116478 0.1246959 -1.170895 0.07189063 -0.3443796 -0.03359694 0.308645 0.4303492 -0.3260897 0.4014745 -0.009423493 1.017967 0.6943371 0.1393097 -1.073128 0.6140313 0.6677412 0.6258401 -0.6585979 0.1823934 -0.8275753 -1.345043 0.6105886 -0.2998677 
  -0.6895172 0.7547709 -0.5438045 0.222648 0.7080052 -0.8616175 1.033665 -0.9032122 0.2131615 -0.5941369 0.29684 -0.0367202 0.1516159 -0.3337516 0.3406993 0.7433376 0.6233939 -0.452703 0.9980668 0.8885925 0.8249397 0.2021924 0.7100297 -0.6036348 
  0.9633622 0.4706795 -0.2453394 0.6181438 0.04108904 -0.1703806 0.4595535 -0.7355165 -0.527914 0.06950232 -1.618729 0.1594672 1.262781 0.860895 -0.4557813 -0.1114795 -0.319773 0.08145466 0.3079365 -0.08768515 0.7317401 -0.07697004 -0.3944865 0.9840963 
  -0.2765928 0.1994986 0.2982318 0.7207094 -0.005396288 -1.069168 -0.00366703 -0.02128913 -1.129133 -0.2748968 -0.3216474 -0.1033384 -0.7186108 0.5873331 0.008180033 -1.041597 0.02504635 -0.7084317 -1.445022 -0.3102888 0.2619909 0.1113236 1.245211 -0.4044555 
  0.2961074 -0.4122504 -0.2233 1.154651 -0.6666101 -0.6046355 -0.9185755 -0.9777158 -0.09879836 -0.1448178 -0.309203 0.6000948 -0.2481893 -1.085279 -0.1294421 0.01643009 0.211648 -0.6998501 1.034263 -1.068057 -0.817636 -0.3121635 -0.2195057 -0.4775897 
  0.3847869 0.2221122 1.139623 0.2908085 0.3304109 0.782064 0.5240659 -0.7968063 -0.01065657 0.2209928 0.693051 1.169626 0.535641 -0.7404062 0.962863 0.5818611 -0.2340263 0.03344683 -0.7784313 -0.6344976 0.06347917 -0.2982979 0.9416478 0.7173509 
  0.3160224 -0.4251136 -0.2877736 -0.6274216 -0.7499631 -0.1314629 -0.3248303 -0.2554012 0.1598734 0.4501364 0.8825326 1.812052 -0.4077081 1.25883 -0.2070931 -0.1104703 0.3501922 -0.8665634 0.2661899 0.2240705 0.8820075 0.5830935 -0.1645299 0.1642981 ]
<OrthonormalConstraint> -1 <UseNaturalGradient> T <RankInOut> 12 6 <Alpha> 4 <NumSamplesHistory> 2000 <UpdatePeriod> 4 </LinearComponent> 
<ComponentName> tdnn4.affine <NaturalGradientAffineComponent> <MaxChange> 0.75 <L2Regularize> 0.00015 <LearningRate> 0.001763691 <LinearParams>  [
  0.8869693 0.7687938 -0.1852524 -0.3595344 -0.4309894 0.1295775 0.2343896 0.312562 0.005007363 0.1089097 0.5929719 0.09932111 0.181649 0.2783639 0.2123286 -1.069581 -0.7871062 0.4148276 0.7872669 0.5565695 -0.4594651 0.2889245 0.0081321 0.3040918 
  -0.3310057 -0.3152338 -0.994949 0.2240549 0.4045329 0.2561533 0.4988418 0.5233321 0.575224 0.1194304 -0.299422 -0.251953 0.3643327 0.02211169 -0.1895969 -0.6839387 0.2770455 -0.4095868 0.4383378 -0.1902747 0.350373 -0.1836546 0.4747059 0.6224524 
  -0.1389286 0.307066 0.07329369 -0.05515922 0.02202357 -0.02388933 0.2442987 0.3418852 0.10789 -0.3589497 -0.5544378 -0.5879343 -0.2315109 0.1917963 0.1059681 -0.03355886 0.4578886 -0.3703208 0.03962705 -0.06970825 -0.4134826 0.2619679 0.03316186 -0.5119086 
  -0.2159595 -0.05611367 -0.5009258 -0.3571158 -0.1000977 0.125159 -0.4539179 0.03171611 0.4191481 -0.1658815 -0.3528513 0.03108415 0.2539542 0.1108078 0.3546587 -0.3544613 -1.244341 -0.0622686 -0.1273283 0.07572817 0.2586709 0.4795606 -0.1969456 -0.6382847 
  0.3298745 -0.3073313 -0.0663947 -0.4433146 0.0804309 0.05278514 0.9826992 -0.5354297 0.2687548 0.006474643 0.5547184 0.2045623 -0.2620031 -0.3043341 0.620968 -0.6446097 0.06910088 -0.1318046 0.3638094 0.5070097 -0.7164371 0.8987977 0.218343 0.5373504 
  0.1214857 0.2088228 -0.2386323 -0.08959964 0.01124885 0.0895769 -0.276021 0.04143429 0.178606 -0.483451 0.02294155 0.2123233 -0.3558019 0.3005716 -0.7701197 -0.2739954 -0.09009144 0.2194313 -0.7305248 -0.4694366 0.06040383 -0.505033 -0.03306241 -0.2259192 
  -0.06137592 -0.04945472 -0.4058413 -0.5185059 0.1484801 -0.185426 0.5401562 -0.6568095 -0.1458258 -0.8692767 0.0775779 -0.251336 -0.4541285 0.03040396 -0.5049529 -0.2806222 0.1163905 -0.08315486 0.3764118 -0.1559215 0.4686568 0.3866435 -0.3359739 -0.2024799 
  0.9693834 0.296308 -0.6235499 -0.04478575 0.008271281 0.03544242 -0.4617561 0.05482998 0.3851664 -0.1329399 0.4635634 -0.6620426 -0.09224865 -0.4988916 0.2665212 0.08256182 0.2870661 0.2678079 -0.1355977 -0.7968722 -0.7888448 0.3337632 0.4890062 -1.270191 
  1.060755 -1.777093 -0.09712149 -1.322467 0.9176128 0.2420112 -0.8799698 0.8653884 0.3707631 -0.7951501 -0.1655832 -0.9494891 -0.5335114 0.8977443 0.4405431 1.193002 -0.1577799 -0.002270566 0.3055288 -0.5565691 0.4403503 0.2918427 0.3672874 0.7802893 
  0.3541515 0.6744601 0.7878641 0.01829375 0.2312694 -0.2839107 0.5806732 -0.07128897 0.4749971 1.006244 -0.4159406 -0.2524526 -0.9145246 0.6773285 -1.955675 -1.07145 0.3543178 -0.2661057 0.08854958 1.213181 0.6084011 -0.3300493 -0.1289417 -0.8707665 
  0.1542066 0.1288237 0.2465207 -0.289985 0.005752542 -0.1481114 0.3070995 -0.6081077 -0.3180684 0.6426714 -0.08568957 0.4559736 0.08201701 0.6119059 0.504912 0.4077935 0.06554773 -0.1796855 -0.7785355 -0.2139819 -0.1993103 -0.6073809 0.1236927 0.386025 
  -0.01374121 -0.03414294 0.6115888 -0.0875205 0.09047771 0.7633774 -0.09672436 0.1228893 0.2033637 0.3826363 -0.5714349 0.4135679 0.06809116 -0.1904589 1.098868 0.2090676 0.501228 -0.1256653 -0.1066558 -0.1105707 0.3571416 0.2208763 -0.4524935 -0.2066658 
  -1.408848 1.296057 -0.2697553 -0.1593845 0.4267973 0.4306901 0.7565587 0.696263 0.5329258 0.7352901 0.6884468 0.3123239 0.04071134 -0.2365448 -0.08727979 0.7728523 -0.9677117 0.3886546 0.3865623 -0.9352967 -1.128018 -0.3365937 -0.1849134 0.1819652 
  -0.4714494 -0.4848727 -0.4274859 0.7276707 -0.02148547 0.3674104 -0.5285623 0.2636875 -0.08016115 -0.100744 -0.2004068 0.1199739 -0.1839885 -0.07644194 0.2412106 0.109015 0.08717658 -0.2279995 0.001928883 -0.09598586 -0.3164698 0.1132019 0.07592231 -0.2363708 
  0.3388107 0.3535031 0.6736779 -0.0338136 0.200662 0.218749 0.1682983 0.1645376 0.3078616 -0.4079485 -0.4780774 0.3621694 0.6985637 0.1944762 0.07386068 0.5971318 0.6840066 0.6642649 -0.1583168 1.021197 -0.5191821 -0.1198875 -0.4447989 0.1089593 
  0.3769793 -0.2499396 -0.3990748 0.8888745 -1.109937 -0.1202081 -1.007185 -0.543048 -0.5761186 -0.6293768 0.9789017 1.261266 0.4169369 -0.0769617 0.7118924 -0.52816 1.056261 -0.1252097 0.4936806 -0.08463947 -0.03467452 0.7741836 -1.247185 -0.5923925 
  1.192626 0.3462012 -0.2019057 -0.2164123 -0.4250239 0.0964393 0.5636969 0.6354776 -0.08114322 0.7229719 0.1676937 0.8253098 0.3154365 -0.1601105 0.398782 0.04084266 0.1335171 -0.587647 -0.1171337 0.03195088 -0.309736 -0.3062189 0.334255 0.9740493 
  -1.068195 0.3908595 0.02659321 0.3528146 -0.2874239 -0.3324904 0.6199413 -0.6171021 -0.8010768 -0.1842556 -1.454148 -1.209166 0.9576275 -0.9460464 0.2949711 -0.5649714 -0.5633198 -0.0483934 -0.7602354 0.591521 0.5120888 -0.2270082 1.408967 0.523375 ]
<BiasParams>  [ 0.3423401 2.254715 -0.3563129 0.4314763 0.05588865 2.576439 0.2934182 0.122599 -0.1584349 -0.1555743 -0.1496848 -0.706491 -1.064877 0.7009177 -1.285477 0.4385548 -0.5105394 0.2565857 ]
<RankIn> 12 <RankOut> 9 <UpdatePeriod> 4 <NumSamplesHistory> 2000 <Alpha> 4 </NaturalGradientAffineComponent> 
<ComponentName> tdnn4.relu <RectifiedLinearComponent> <Dim> 18 <ValueAvg>  [ 14.81927 9.864213 6.77467 10.44574 12.49707 8.965164 9.49929 9.605604 11.78377 8.362926 7.026258 8.068747 10.78428 6.36213 9.516385 7.881943 11.01497 11.56558 ]
<DerivAvg>  [ 0.5010555 0.5196258 0.4311168 0.5834263 0.4457047 0.5521427 0.4024208 0.4562437 0.5325052 0.4792922 0.4938771 0.484238 0.4763889 0.4555854 0.4719712 0.5179371 0.4505465 0.5001434 ]
<Count> 923920 <OderivRms>  [ 0.002935886 0.00441885 0.004529286 0.003021817 0.002046777 0.00351895 0.004559429 0.003679068 0.007092461 0.006787383 0.00598516 0.003645908 0.007185949 0.003638658 0.003694503 0.009015054 0.002491246 0.007079903 ]
<OderivCount> 1321728 <NumDimsSelfRepaired> 0 <NumDimsProcessed> 4405.5 <SelfRepairScale> 1e-05 </RectifiedLinearComponent> 
<ComponentName> tdnn4.batchnorm <BatchNormComponent> <Dim> 18 <BlockDim> 18 <Epsilon> 0.001 <TargetRms> 1 <TestMode> T <Count> 15278.78 <StatsMean>  [ 14.99189 10.11951 6.650744 10.35593 12.89929 9.205551 9.680964 9.641715 12.27331 8.402646 7.033408 8.235108 11.08822 6.469247 9.800818 8.098121 11.3667 11.92366 ]
<StatsVar>  [ 417.7578 252.345 140.339 156.5336 480.5109 159.2723 359.6035 246.8016 404.2573 302.9369 138.7397 155.0166 490.6722 112.5021 266.7609 244.7121 315.1566 499.2206 ]
</BatchNormComponent> 
<ComponentName> tdnn4.dropout <GeneralDropoutComponent> <Dim> 18 <BlockDim> 18 <TimePeriod> 0 <DropoutProportion> 0 <TestMode> <Continuous> </GeneralDropoutComponent> 
<ComponentName> tdnn5l <LinearComponent> <MaxChange> 0.75 <L2Regularize> 0.00015 <LearningRate> 0.001763691 <Params>  [
  0.70171 -0.7181413 0.2345453 0.2452635 -0.295477 1.782539 0.9676083 -0.9815566 -0.1582749 -0.09260076 -0.6155362 -0.8806607 0.1324026 -0.1870312 -0.6524516 -0.4399096 -0.07496655 0.4123591 
  -1.038142 0.5914442 0.3022646 -0.1586382 0.2150497 -0.2172689 0.3586022 -1.200043 0.5580971 0.5763925 -1.467749 0.6472006 0.3682175 0.6659743 0.3808315 0.3972442 -0.7099705 0.707327 
  1.26289 -0.958501 0.9126562 -0.8966931 -0.2867483 -0.2936508 -0.5697305 0.2002944 -0.3403434 0.6200637 -0.4745913 -0.1828771 0.7148524 1.068649 0.9789198 0.1965995 0.4656748 0.0840956 
  1.058204 -0.5809971 -0.1901909 0.06266681 1.713083 -1.047473 0.1634292 -0.730521 0.5325701 -0.921995 0.1467098 0.1110023 0.1089278 0.07368108 -0.1209639 -0.7434343 -0.6435241 0.231512 
  0.6647967 -0.01030317 -1.293782 0.5929659 0.3464646 0.06394264 0.5975505 0.6908298 0.5657397 0.6530113 0.262849 -0.3582398 0.6491127 0.03359892 0.1389053 1.496855 0.04412043 1.122955 
  -0.9031977 -1.30446 -0.5212561 -0.4262013 -0.2564574 -0.5845503 0.0707543 -0.7044458 0.5442196 0.7535174 0.5729017 -0.3431523 0.9946036 0.1366364 -1.072196 0.1442372 0.1819634 -0.9529651 
  -0.3025588 -0.5434184 1.612601 0.8270075 0.02465196 -0.8541605 0.8356283 0.0906341 0.1797627 -0.3982899 -0.2431182 -0.1695218 0.2143647 -1.275927 0.2109975 0.8023031 0.7534002 0.07075232 
  -0.3319094 0.07270746 0.2359892 0.4395478 -0.5530386 -0.6687629 0.4147843 1.434305 0.2714533 -0.5643125 -0.7239357 -0.6123209 0.4112304 1.138627 -1.060931 -0.8729156 -0.1912555 0.5348326 
  -0.7259263 -1.28382 -0.7837242 1.292964 0.1055344 0.08182839 -1.151589 -0.2354472 -0.6058521 -0.7330894 -0.7768362 -0.2182804 -0.4896354 0.462901 0.5000457 0.3733506 0.2614729 0.08939603 
  1.035299 0.01550198 -0.3722438 0.7708287 -0.5231076 -0.5537881 0.4519064 -0.3086643 -0.6499131 0.5212622 -0.5881937 1.668269 -0.3793588 0.2149702 -1.022193 0.0753452 0.6437722 -0.4059899 
  0.1000806 0.08158478 0.5748127 0.3610979 -0.2425368 0.4756285 -1.619235 -0.2814443 0.9030184 -0.08576096 0.5089438 0.7647994 0.7033281 -0.3330735 -0.7599374 -0.2833432 0.5560148 1.264468 
  0.1669655 -0.9097666 -0.5089982 -0.5053665 -0.4678774 0.1469838 -0.2407731 0.9728174 0.5179713 0.1122518 -1.107786 0.7394431 0.2234791 -1.484329 0.2495252 -0.3850202 -1.079812 -0.1533884 ]
<OrthonormalConstraint> -1 <UseNaturalGradient> T <RankInOut> 9 6 <Alpha> 4 <NumSamplesHistory> 2000 <UpdatePeriod> 4 </LinearComponent> 
<ComponentName> tdnn5.affine <NaturalGradientAffineComponent> <MaxChange> 0.75 <L2Regularize> 0.00015 <LearningRate> 0.001763691 <LinearParams>  [
  -0.503456 -0.4134722 -0.3234392 0.917658 -0.4957723 0.1417755 0.04090117 -0.6845707 1.019889 -0.1310874 0.3573989 0.8433325 0.4563062 -0.06056761 0.107207 -0.6019436 0.5218381 0.9631457 -0.1588569 0.7399811 -0.3577634 -0.1546301 -0.4470604 0.9498208 
  0.2000757 0.5352957 0.3261462 0.576699 0.8362739 -0.3285584 0.753786 0.3193324 -0.8817314 -0.06399892 -0.04345379 -1.105127 -1.44696 -1.35792 0.7314531 0.1922761 -1.322783 -0.1800157 -0.5297073 0.1312369 0.07234523 -0.2645778 0.4017575 -0.04177239 
  -1.432145 0.3246413 0.5101786 -1.134344 -0.1300689 0.5500388 -0.771053 0.4386184 0.1339938 0.08795537 0.5040288 0.324909 0.5581107 0.1646165 -0.3241833 -0.08451596 1.146136 -0.8741148 0.6265708 -0.8760029 0.004242086 -0.5515573 0.3030543 0.3389012 
  -0.7657595 -0.12883 0.02655201 0.1249757 0.2361305 0.3349817 -0.03489764 -0.7237927 -0.2252105 -0.3088994 1.042316 0.01219382 -0.8290262 -0.5421022 -0.1743489 0.1757363 0.64362 0.2280697 -0.3244655 0.2484808 0.0001029242 1.34802 0.4882292 -1.27307 
  1.257798 0.8419751 -0.3441668 -0.6355573 0.0703287 0.4126152 -0.08946906 0.2117179 -0.5559202 -0.3160167 -0.3480639 0.2810184 -1.066824 0.09815834 0.4528285 -0.4224807 -0.8213211 0.7177156 -0.01561033 1.379915 0.1747437 0.1860244 -1.058786 0.01073636 
  -0.05509316 -0.4554761 -2.280436e-05 -0.008696604 -0.3954642 0.429407 0.2451639 0.3736323 1.000205 1.058368 0.9071332 -0.245313 0.06445629 -0.7797787 -0.6485554 -0.2159198 0.9000896 -1.36033 -0.8943212 0.1410786 -0.08952358 0.7584608 0.7565243 -0.03541536 
  -0.3307042 -0.9042117 -0.090441 -0.6729264 0.746684 0.321475 -0.3516297 0.49951 0.7086694 0.1134734 -0.08852305 0.9752766 -0.992336 0.4284291 -0.3188765 -0.6705129 -0.5013497 -0.07636797 0.200255 -0.7584522 -0.06531931 -0.7311803 0.359524 -0.3786142 
  -0.06969236 0.1459049 0.1804678 0.7856606 -0.3375959 0.453313 -0.08666456 0.2866066 0.250662 0.4876521 -0.6026339 0.300671 0.3970547 0.3352278 0.6066592 -0.1858791 -0.09700733 0.7158821 -0.8640138 -0.8992102 0.3202595 -0.7527443 -0.628076 -0.1249323 
  0.3866123 -0.1785528 0.2350982 0.08810534 0.4745445 0.5007789 -0.4897231 -0.4723521 0.734008 -0.4712467 -0.8718983 0.4410316 -1.992275 0.331789 0.3248658 1.274085 1.09892 0.7182929 0.8769118 0.2406301 -0.4532189 -0.05444825 0.7958598 1.200784 
  0.08231482 -0.7694119 -0.4064283 0.2158004 -1.402288 -0.4414452 -0.3171558 0.01314965 0.4301865 0.2898061 -0.8582737 -0.03698295 -0.01608524 0.06729003 0.005109229 0.0002258755 -0.05224659 0.0234722 -0.003931801 0.0595619 -0.06093874 -0.07527163 -0.08214819 0.0429086 
  0.1431724 -0.2252734 0.5491387 -0.09761774 -0.2960474 -0.3883681 -0.00375101 -0.5884646 1.234261 -0.2132228 -0.1706356 0.3204597 -0.1898699 0.03149902 -0.9585612 1.724804 -1.262869 -1.019222 -0.4072946 -0.5393547 -0.9119702 0.06847441 0.02732576 -1.316517 
  -0.9452243 0.6888085 -0.2038714 -0.2228712 -0.1234855 0.2912357 -0.1328432 0.3856894 0.07665887 1.254993 -0.03885201 0.2793494 0.0886447 -0.008519815 -0.2890521 -0.004275653 -0.3394002 -0.651488 0.1500132 0.567407 -0.2808735 -1.165176 0.5818619 0.9739471 
  0.01893919 0.2180468 1.401443 -0.1324625 -1.095672 -0.7078674 -0.05534314 -0.1507517 1.197885 -0.7829239 0.3209804 0.3181087 0.02152039 -0.6928784 0.1673658 0.08529439 0.1912011 0.2434453 -0.983802 0.3502476 0.2998963 0.2293234 -0.2172759 -0.05413764 
  -0.2734231 -1.22588 1.135595 0.3538552 -0.2147678 -0.922863 0.284645 -0.2727214 -0.6336616 -0.4460017 -0.4584293 1.09896 -1.337363 -0.8493149 1.324911 -1.939374 0.6017457 0.3060715 0.2324675 -0.1116625 -0.2061062 0.6341294 -0.8112912 0.1115985 
  -0.657312 -1.61182 -0.3827172 0.2158587 -0.9185892 -0.6567916 -0.6087202 -0.906256 -0.4390828 -0.004546502 0.8827263 -1.42178 -0.9602604 1.214073 0.7112255 0.4353288 -0.8399925 -0.711 0.06650744 0.245862 0.708447 -0.02653948 0.6643601 -1.373443 
  -0.8357551 0.4207576 0.7001938 -1.068187 -0.4136943 0.2748217 0.6880449 0.06057796 -0.561896 -0.6326263 0.2921269 0.3642214 -0.2327348 0.4732897 0.7892689 -0.4242934 -1.103497 0.2442337 0.3127257 0.5145292 0.661604 -0.842715 0.1218815 -0.6012522 
  -0.02540816 0.5031108 0.0282871 0.299006 0.5702983 0.4482511 0.3969636 0.6894699 -0.658633 0.6688558 0.5747191 0.09499076 0.8109691 0.06162736 -1.429424 -0.789757 -0.6872187 -0.04807336 -0.6064434 0.8049714 -0.09449219 1.060014 0.8702922 -0.9454404 
  -0.3582307 0.9137179 -0.1055852 0.01033598 -0.36799 0.2165407 -0.5119832 0.3539372 0.788668 -0.2228353 0.6717359 0.357292 0.9136701 -0.2437449 -0.2268821 0.08899765 0.5765163 -0.02995861 -0.2309867 0.5884644 -0.2065075 0.1537834 -0.9387854 0.4802553 ]
<BiasParams>  [ -0.2712287 -0.7581125 0.312619 1.851763 0.4525703 1.681941 2.681654 -2.24826 0.6249813 -4.846376 2.125539 -0.7263113 -0.850144 0.3100189 1.319375 0.008178597 2.00744 3.891828 ]
<RankIn> 12 <RankOut> 9 <UpdatePeriod> 4 <NumSamplesHistory> 2000 <Alpha> 4 </NaturalGradientAffineComponent> 
<ComponentName> tdnn5.relu <RectifiedLinearComponent> <Dim> 18 <ValueAvg>  [ 5.194458 4.227764 3.740594 10.00541 6.305768 8.97736 5.292306 2.364063 8.203601 0.4190971 8.169396 7.658292 5.366843 8.225869 6.951973 5.934603 7.369781 6.47077 ]
<DerivAvg>  [ 0.4622039 0.4262907 0.4837717 0.5224373 0.463711 0.5740801 0.6068169 0.3932727 0.4406542 0.1509922 0.5389549 0.524065 0.451309 0.4369455 0.4914713 0.4524992 0.53018 0.6518817 ]
<Count> 925680 <OderivRms>  [ 0.009810906 0.008067216 0.009321622 0.01116849 0.009245928 0.0122168 0.01218785 0.01196773 0.009733869 0.1249468 0.01034586 0.01103026 0.01457678 0.008561571 0.008574155 0.009846282 0.009823963 0.01214207 ]
<OderivCount> 1359680 <NumDimsSelfRepaired> 0 <NumDimsProcessed> 3946.5 <SelfRepairScale> 1e-05 </RectifiedLinearComponent> 
<ComponentName> tdnn5.batchnorm <BatchNormComponent> <Dim> 18 <BlockDim> 18 <Epsilon> 0.001 <TargetRms> 1 <TestMode> T <Count> 15278.78 <StatsMean>  [ 5.342857 4.42385 3.828108 10.09912 6.312038 9.069365 5.28069 2.433315 8.323874 0.3726066 8.338513 7.706396 5.444957 8.301912 6.987699 6.09587 7.418799 6.501657 ]
<StatsVar>  [ 60.5788 73.43685 47.82069 167.5718 95.43796 111.2335 48.93555 19.20416 203.6328 1.044497 128.2265 92.99702 75.9291 202.022 117.9031 107.0461 111.5715 48.82938 ]
</BatchNormComponent> 
<ComponentName> tdnn5.dropout <GeneralDropoutComponent> <Dim> 18 <BlockDim> 18 <TimePeriod> 0 <DropoutProportion> 0 <TestMode> <Continuous> </GeneralDropoutComponent> 
<ComponentName> tdnn6l0 <LinearComponent> <MaxChange> 0.75 <L2Regularize> 0.00015 <LearningRate> 0.001763691 <Params>  [
  -0.6628841 0.06059913 0.03740052 -0.4585684 -0.2742205 -0.4980192 -0.5985912 0.6139686 0.8840562 -0.3897056 0.9091502 0.3893392 1.196041 -1.231623 -0.3197975 0.5285229 -0.7372392 -0.04139563 0.3477547 0.4955384 -0.0573267 0.2846317 -0.1441945 0.6070187 -0.4425197 0.2065126 -0.4650317 0.2342862 0.09674138 -0.4729735 -0.2304778 -1.086308 -0.3229882 -0.07538267 0.6474898 0.296373 
  -0.4177299 0.3052964 -0.1364292 1.494062 -0.6870961 -0.07547153 -0.554023 0.05450957 0.6073091 0.5304595 -0.5965906 -0.3616268 0.1349767 -0.4340038 0.4639073 0.3008224 0.3936118 -0.4081189 0.09539311 -0.1372271 -0.4182935 -0.03805966 -1.363636 -0.3366438 -0.1287165 -0.02803387 0.1601246 -0.5301598 -1.093807 0.09095591 0.05037704 -0.7232252 -0.02301663 0.465942 -0.744096 -0.8119135 
  -0.8676306 0.3556941 -0.01647104 0.4303289 -0.1949493 0.1865411 -0.2074524 0.1187152 -1.310208 -0.1773373 0.4899781 -0.4044042 0.6147692 -0.5281296 -0.08189976 0.2887352 0.9134421 -0.120959 0.4450719 0.267491 -0.611587 -0.9362581 0.5920221 0.0554543 -0.3835509 -0.4969926 -0.6384597 -0.5068688 -0.6668349 0.2147245 -0.6763824 1.041196 -0.1937487 -0.7656433 -0.08595355 0.5787718 
  0.06296174 0.001106882 -0.03830659 0.1543332 0.2519654 -0.8026159 0.1909152 0.1965267 -0.1191803 0.6865424 -1.815719 0.1563788 0.3722327 0.8021306 -0.155907 0.542197 0.161256 -0.2901058 -0.03972226 0.1487762 0.08399301 -0.5316253 0.2162666 0.6081346 -0.08428181 -0.4113435 -0.9460384 0.7574965 0.09846988 0.2830365 -0.2903073 -0.6727285 -0.3736519 -0.8977698 0.9033444 -0.6005988 
  0.7160246 -0.4501716 -0.3545513 -0.5940982 -0.691716 -0.1224174 0.03139765 0.01982669 0.8299128 0.5685294 0.2858891 -1.035162 0.5999705 -0.07611611 0.4479683 -0.5384845 0.1913796 -0.4598188 -0.457187 0.269354 -0.3844683 0.4068061 -0.1312026 0.8365878 0.1128438 -0.4121251 -0.7445436 0.7613952 -0.567616 -0.04124576 1.156118 0.9493672 0.2606736 -0.6191041 -0.5205179 0.2007337 
  0.1584842 -0.1052898 0.4436474 0.3505867 -0.05292509 -0.05782153 0.01075597 -0.3410607 0.7503812 1.007807 0.3176004 0.06777294 -0.8531576 0.006913438 0.0970282 0.1265337 0.2007414 -1.108148 0.3899845 0.5285604 0.2792759 0.6196015 0.634856 -1.137875 -0.3573386 -0.2270965 -0.09353977 0.4965152 -0.3419868 -1.381798 -0.9450139 0.44928 -0.5129579 -0.1149244 0.4462071 0.3021239 
  0.1263071 0.1853159 0.0001262196 0.6720418 -0.1445073 0.009873196 -0.3860916 -0.2521281 0.3030793 -0.648802 -0.4652276 -0.767032 0.5142166 0.9333577 0.5012484 -0.6410809 -0.6579485 0.52406 -0.2983781 -0.3514995 -0.07516061 0.0367269 -0.5196975 -0.4696994 -0.9431587 0.2153036 -0.4997301 -0.5358683 0.7804889 -0.919535 -0.507525 -0.1556907 0.6879098 -0.8928674 0.009510301 1.091646 
  -0.01689872 -0.4734699 -0.5370904 0.1526441 -1.075072 0.9328679 0.8549734 0.1373649 -0.4263681 0.5374243 -0.07517029 -0.6550721 0.6480293 -0.03746117 -0.09177266 -0.3778653 -0.09342011 0.01697148 0.6768186 -0.05114358 0.5970845 -0.192733 -0.08576468 -0.5017321 -0.3853428 -0.2316324 0.4352449 1.221287 0.04994781 0.8757389 -0.4355917 -0.7489275 0.2339915 0.7739041 0.416162 0.9207414 
  -0.4262459 0.789829 0.5145125 0.7324869 -0.06536262 1.052557 0.1504113 -0.2229364 0.241253 -0.7173492 0.5833337 0.8679793 0.3051291 0.5004861 0.1032862 -0.8854926 0.1887391 -0.9077408 -0.2143216 0.06673417 1.071192 0.08293627 -0.4597836 0.285259 0.4962681 0.02010855 -0.7406092 0.1700061 -0.3980367 0.3312662 0.3222159 0.2311086 0.5255319 -0.1874376 1.08421 -0.4323851 
  0.3459842 0.1299418 -0.248765 -0.06201575 -0.6920134 0.8216043 0.40156 -0.2070752 0.01399861 0.2573127 0.002319082 -0.4820778 0.4725809 0.8255256 -0.7304223 0.6456368 -0.4569122 0.1397084 0.1632515 0.5781119 0.5590681 1.123822 0.5744032 0.2652631 0.6151444 -0.217526 -0.1881634 -1.719113 -0.3143134 0.1416125 -0.05310169 -0.4509002 -0.8228167 -0.3680876 -0.234446 -0.0479102 
  -1.342033 0.2993559 -0.8581552 -0.5336229 -0.4783329 -0.5754999 -0.1209173 -0.1172186 -0.8656891 -0.3676069 -0.5796237 -0.1616385 -0.4922054 0.2039043 0.9153488 -0.45459 0.2340847 -0.4643124 0.1834108 0.2763181 0.3178492 1.542488 -0.07998274 0.8327842 -0.7612182 0.126157 0.6255423 -0.02509538 0.1096047 -0.1593203 -0.00898864 0.2691909 -0.2083825 0.1820205 0.2672133 -0.1577322 
  -0.3375234 -0.2370521 -0.0496307 1.482683 -0.0279692 -0.4999289 0.06745467 0.4905587 0.4108237 -0.6541066 0.5655008 -0.6340382 -0.3092623 0.4491343 0.3443457 -0.07739814 -0.1228219 -0.5181161 0.1245765 -0.2498023 0.5757091 -0.7352075 1.158327 0.7129381 0.3199747 0.121273 0.8626723 0.383234 0.3944974 -0.08750528 0.6861422 -0.4270554 -0.970727 -0.3757408 -0.5110711 0.2765379 ]
<OrthonormalConstraint> -1 <UseNaturalGradient> T <RankInOut> 18 6 <Alpha> 4 <NumSamplesHistory> 2000 <UpdatePeriod> 4 </LinearComponent> 
<ComponentName> tdnn6l <LinearComponent> <MaxChange> 0.75 <L2Regularize> 0.00015 <LearningRate> 0.001763691 <Params>  [
  -0.7786851 -0.5131091 0.01817522 -0.5194507 -0.1605265 0.3833239 0.1954452 0.7635357 0.2099627 -1.270544 1.761208 0.1682387 -0.02467895 -0.1432324 -0.3077451 -0.8823007 0.8179744 0.8049029 -1.009512 0.8543428 0.3125434 -0.4494654 -0.06553979 0.0829931 
  -1.435382 -0.4584877 -1.009539 0.8966385 0.172436 0.3249649 -0.8530072 0.492476 0.7330777 0.3079234 -0.264199 -0.360542 -0.6716464 -0.8265085 0.1787411 -0.3906087 0.1896798 0.2959204 -0.06407487 -0.5287966 -0.5542403 1.223935 0.7583976 -0.9265916 
  -0.3388435 0.6096262 -1.958801 -0.05137856 1.567191 -0.6152117 0.4509352 -0.6152149 -0.4679188 -0.6867018 0.8073825 0.296345 0.0404883 -0.1201715 -0.09792191 -0.08908562 0.1663334 -0.6823939 0.7523139 -0.4928069 0.1376074 -0.1464545 -0.6453402 0.04249585 
  -0.8686278 -0.3384887 0.4713137 -0.2958745 -0.3408366 -1.007468 0.2413518 -1.66038 -0.9227096 -0.5176057 -0.4544024 -0.7946717 -1.203406 0.5532702 -0.4936966 -0.7773335 0.0226814 0.1854144 -0.4643501 -0.634634 0.1481236 -0.2962733 0.7438194 -0.09360309 
  -0.2149316 -0.06561674 -0.01631873 0.6918867 -0.01537473 -1.485935 -1.580317 -0.01727258 0.2947384 -0.03885198 -0.6422765 0.1621878 1.246926 0.2547742 -0.8874446 -0.7592192 0.3618075 -0.5902339 -0.7740291 0.562287 -0.19217 -0.1735982 -0.8744887 0.1085878 
  -0.03860188 -0.424369 -0.7325328 -1.208952 -0.1189458 0.6181132 -1.001326 -0.6831501 -0.4424161 1.161712 0.2990716 0.2740288 0.2564926 -0.3740557 -1.209053 0.726028 0.6088094 0.7536986 -0.1726181 -0.4615812 -0.5936112 -0.08162715 0.2437868 1.185463 
  -0.9675289 0.8561186 -0.1589984 0.5798251 -0.1278291 -0.6524358 1.18822 0.1520104 1.041458 1.545752 0.4574717 -0.001034583 -0.5725687 0.07309003 -0.07626379 0.3201215 -0.2262512 -0.2651887 -0.909707 0.2224977 -0.5780488 -1.070444 -0.0067949 0.6831056 
  -0.2149478 -0.6839647 -0.1685825 1.936578 -0.2677601 0.6652869 0.6710848 -0.3667996 -1.062223 0.140167 0.2318567 0.1468103 1.316237 0.04387847 -0.3975365 0.06347786 0.4278543 -0.08644463 0.4345469 0.218971 -0.03089144 -0.7836018 1.195867 -0.06828923 
  0.5995945 -0.8975717 -0.3058676 0.4211718 -0.2850506 -0.4914113 -1.013861 -0.3672531 0.7771855 0.2608048 1.21493 -1.031886 -0.7021097 1.163685 0.8146598 0.5080803 0.6513404 -0.4181859 0.9139656 0.5344388 0.2286047 -0.1876611 0.2880294 0.4314783 
  -0.4496129 -0.5935356 0.2752517 -0.266272 -0.5325369 0.5025134 0.4662178 -0.8563667 0.06408839 0.7112659 0.6436713 1.072451 0.2509346 0.665793 0.3535813 -1.533115 -0.5356559 -0.7117886 0.5633891 0.2685077 -0.8093162 1.21504 -0.5729772 0.3335816 
  1.081459 -1.27225 0.2674688 0.1701274 1.179697 -0.6555324 0.4354728 -0.2924458 0.3294181 0.9360228 0.1529036 1.22249 -0.4825939 -0.4922203 -0.1822334 -0.1298291 0.4118536 -0.06970114 -0.8824199 -0.08133106 1.192618 0.4105798 0.4659958 -0.4872048 
  -0.2763615 0.3584433 0.6485521 0.2480059 0.794309 0.2434038 -0.2185695 -0.6877313 -0.4350702 -0.0150914 -0.3088713 0.5787796 -1.067034 -0.2130709 -0.3591455 0.6957664 0.6965318 0.3272307 0.5613862 1.98401 -0.9971815 -0.05279084 -0.453988 -0.7999745 ]
<OrthonormalConstraint> -1 <UseNaturalGradient> T <RankInOut> 12 6 <Alpha> 4 <NumSamplesHistory> 2000 <UpdatePeriod> 4 </LinearComponent> 
<ComponentName> tdnn6.affine <NaturalGradientAffineComponent> <MaxChange> 0.75 <L2Regularize> 0.00015 <LearningRate> 0.001763691 <LinearParams>  [
  -0.1057043 -0.7258861 0.616495 -0.07102291 -0.6282101 -0.4017136 -0.3840461 0.4336119 0.9321883 -0.3743729 0.4249642 0.537392 -0.269597 -0.04340437 -0.08243152 0.1052847 -0.4210485 0.6492817 0.7774156 0.0419964 0.2383964 0.2994744 -0.2344735 0.05100877 
  0.3956204 -0.08034293 -0.20084 -0.4475719 -0.2221258 0.8874385 0.4839827 -0.1164566 -0.675824 -0.3615295 -0.6747262 -0.4913865 0.2961071 -0.1430803 -1.222088 -0.009109772 -0.1800853 0.001393613 0.8507544 0.4608266 -0.1378078 0.5842686 -0.5558369 0.9127646 
  0.1038102 -0.4477127 0.7244776 -0.4807529 -0.3504622 -0.3638213 -0.003402333 0.3743417 -0.4561765 -0.3381717 0.2477485 0.4554997 -1.51737 0.6082027 -0.09666708 -0.8559607 -0.1120872 -0.001518511 -0.02731261 -1.408624 -0.06751385 -0.4501469 -0.2356834 -0.4455426 
  1.393687 1.850354 -0.006163468 0.8030037 0.8261381 0.1258525 0.5995637 0.2933111 0.5991997 0.4582915 -0.3837088 0.4592018 -0.03471366 -0.5657661 0.5703888 -0.6951073 0.6450634 -0.2977551 -0.4693798 1.392882 0.1101866 1.479541 -0.0822925 -0.6358731 
  -0.3889607 0.4453861 0.02367888 0.8661333 0.7853045 -0.8180057 -0.850106 1.098653 -0.2263132 -0.2092692 0.02488641 -0.2558209 1.252589 -0.8943232 0.3802877 -0.1822389 -0.2690839 -1.228483 0.06117964 0.9334116 -0.3113165 0.3667678 0.0978148 -1.035752 
  -0.4057856 0.01452751 0.3788882 -0.1770491 -0.22129 -0.7035905 -0.9633591 -0.04270185 -0.5195965 -0.1944018 0.2014905 0.01703093 0.8345678 0.5145038 -0.4748674 -0.4652805 0.6844684 0.05944038 -0.4699801 0.3424855 -0.02578136 -0.3319295 -0.3003912 0.3267776 
  0.02953764 -0.01924976 -0.2945926 0.9074978 -0.0720101 0.009091685 -0.0991214 0.9329794 -0.8675379 -0.4767702 -0.5757226 0.08602199 -1.081774 -0.1501264 -1.124852 -0.3697068 -0.7831204 0.3614385 0.1477191 0.6820861 -0.3247332 -0.7294732 0.504061 0.5819726 
  0.1823258 0.9062437 0.987427 -0.6432868 0.4437657 -0.2345784 -1.13539 0.6454839 -1.347219 0.1356888 0.3469824 0.3916299 -0.482156 0.2697864 -0.293557 0.811536 -0.4328665 0.1348072 0.4731148 0.3368544 1.071638 -0.09910876 -0.3632619 -1.1758 
  -0.8354915 0.6440558 -1.060092 -1.344354 -0.1516807 0.2879471 1.25499 -0.8828045 -0.03116754 -0.6916596 0.048543 -0.9079567 -0.0778394 -0.7878313 1.131396 0.4524958 -0.8758749 0.140939 -0.4452609 0.06780456 -0.704783 -0.4506611 -0.4763045 0.2295228 
  -0.5793025 0.5095658 0.2219715 -0.1826089 -0.2388155 0.0807588 -0.5792832 -0.0483282 0.1122777 -0.09265735 0.06264208 -0.2149473 0.3250676 0.358308 0.2980055 0.4136829 0.3410442 -0.2007654 -0.7702829 -0.5394056 -0.2799816 -0.2697363 0.003017672 -0.4729584 
  0.292067 -1.049602 0.09460592 0.309712 -0.4667853 0.1143361 -0.007183824 0.7223316 -0.2123823 -0.5983658 -0.8755226 0.4847547 0.1155895 0.3320344 -0.8704519 -0.3446136 0.4542557 0.7661963 0.02542679 -0.1482375 0.2064706 0.5435213 -0.6566727 0.09721499 
  -1.047799 -0.771427 -0.7432537 -0.02033604 -0.04007819 -1.250307 0.7996661 -0.6037002 -0.8820101 0.02405444 1.076355 0.2362505 1.121875 0.1301377 0.3875324 0.2853825 0.2214672 0.7325348 0.1312835 0.07047321 -0.1881226 0.07502494 -0.6474028 0.4147348 
  -0.8187099 0.6255344 0.8129154 -1.186216 -0.6014069 0.419283 0.4900309 0.7838942 -0.3626485 0.06460373 0.4631764 0.6069719 -0.1560105 0.3342027 0.1209095 -0.3729841 0.4180636 -0.296827 0.4696339 0.002115725 -0.3969951 -0.06797078 -0.5098643 0.8592618 
  -0.540058 -0.5812927 0.1377449 0.1317303 0.56336 -0.4089666 0.2489211 0.2765971 -0.4773684 -0.6350502 0.2373246 -0.920586 0.1172596 0.1280674 -0.2708854 0.479956 -0.997779 0.7950826 -0.9675758 -1.013982 0.42295 -0.0165168 0.2957575 1.138516 
  0.7745269 -0.5197695 0.4516367 -0.2647951 0.07367603 1.269618 0.902539 -0.1737827 0.1691247 0.09819441 -0.4312906 0.3381813 0.2003605 0.08158301 -0.1012472 0.6020303 0.8365715 0.8291683 -0.04978035 -0.0185751 0.07956212 0.7802098 -0.002477517 0.4087489 
  -0.5438132 0.6938198 0.09695553 0.2706997 -1.074291 -0.4975615 -1.001602 0.004162869 0.8915757 0.2323489 0.6116465 0.1057752 -0.188848 0.6204417 0.0006961554 -0.1893784 -0.6970888 0.006047915 0.3305937 -0.3255873 -0.2698 0.0003414259 -0.2166758 1.102097 
  0.5477573 -0.623095 0.9097718 -0.1425016 -0.553363 0.09691643 0.09571824 -0.861074 -0.3771293 0.4757526 0.6632783 -0.4156753 0.7706879 -0.6104189 -0.55421 0.09440959 0.6292235 -0.7037383 0.4386688 -0.7652716 -0.08711226 -0.6261047 -0.1020726 0.698285 
  0.1648523 0.7777182 -0.8924147 -0.02678885 -0.07432964 0.2728922 -0.3829205 0.2040426 -0.6363256 -0.05247001 0.4282741 0.9142478 0.08828126 -0.4885103 -0.2308775 -0.7643635 0.607555 -0.5630426 -0.02262257 -0.4849263 -0.573923 -0.1539281 -0.6804351 0.4021108 
  0.1659782 -0.7415509 1.464321 -0.3209168 0.3966608 0.1015672 -0.6541486 0.3587289 -0.6610889 -0.04719157 -0.4991909 -0.4251277 -0.02409554 -0.5306256 -0.0005985661 -1.004582 0.66751 -0.1584219 -0.2336599 -0.08668236 -0.1907248 -0.2512563 -0.5370723 0.4867147 
  -0.3527781 -0.1301243 -0.4212682 -0.3278957 0.2380096 -0.2862041 0.1105138 0.3841656 0.5953832 -0.5395298 -0.216679 -0.1758848 0.2173986 -0.5765092 -0.01910085 0.02652052 0.4037537 0.8932745 0.4023913 -0.02715112 0.526364 0.06459322 0.1391088 0.281993 
  -0.1702292 0.8489543 0.6080199 -0.08051787 -0.5472552 -0.06616616 -0.4788031 1.18473 0.3092977 -0.08776137 0.5253173 0.6050037 0.5005718 -0.3997543 -0.5939572 -0.3103183 0.7623686 -0.7444186 0.3483381 -0.01013711 -0.6049556 0.6926714 -0.1810055 -0.4288915 
  0.9385014 -0.4928837 -0.2101017 -0.0790735 -0.03158365 -0.4135705 -0.4038541 -0.0760849 0.7614087 0.6497538 0.1983076 -0.3360069 0.5232568 -0.03425069 -0.08484471 -0.06279202 -0.004895088 -0.5878966 -0.8722469 0.03911772 -0.04603045 0.08443314 0.04929026 0.1090361 
  -0.5737635 -0.1729041 -0.2079432 1.409486 0.4304771 0.1458969 -1.091027 -0.2185196 -0.5124788 -0.4850633 -0.6559097 -0.6482786 0.05479643 0.9742033 0.879966 0.05628434 0.2547378 0.269387 -0.3649449 1.016513 1.058018 -0.3595443 0.9439905 -0.9903177 
  0.45518 1.093777 -0.4531879 0.6338058 0.207328 -0.7831703 -0.3567524 0.1001321 0.4401282 -0.4388561 0.5200495 -0.1816758 0.1147634 -0.7299706 0.8937855 1.014097 0.02302136 0.2222333 0.01058687 0.5951464 -0.06668534 0.7609349 -0.9412001 -0.1043 ]
<BiasParams>  [ 0.08299756 -0.04231769 -0.818786 -0.1351254 0.06690922 -0.1158473 -0.1586926 -0.1711842 -0.2830769 -1.837733 -0.4873808 -0.1239546 1.565823 -0.2435846 -0.9454857 -0.4754743 1.754347 0.03427016 -0.637071 -2.641293 0.1967643 0.2271663 -0.06042987 0.07168537 ]
<RankIn> 12 <RankOut> 12 <UpdatePeriod> 4 <NumSamplesHistory> 2000 <Alpha> 4 </NaturalGradientAffineComponent> 
<ComponentName> tdnn6.relu <RectifiedLinearComponent> <Dim> 24 <ValueAvg>  [ 13.75025 12.53241 14.39106 17.41983 19.06609 11.72925 17.27611 15.0989 11.14442 5.607975 11.98684 12.60874 18.00588 9.373258 14.19414 13.4636 18.71686 16.73603 20.44444 6.681623 11.21897 12.29196 23.27172 16.8295 ]
<DerivAvg>  [ 0.5280078 0.4297296 0.5251145 0.464421 0.4599954 0.4889305 0.4145215 0.4520183 0.4202791 0.4503731 0.4135272 0.5033285 0.4848616 0.468517 0.4477935 0.440749 0.4999869 0.3979754 0.4613648 0.4022532 0.5312189 0.4452664 0.4612987 0.4523385 ]
<Count> 877568 <OderivRms>  [ 0.004045863 0.003139614 0.003118638 0.002185843 0.002094121 0.004676634 0.003797128 0.002847211 0.004568301 0.007139766 0.004303709 0.003635626 0.004038559 0.003951001 0.002889434 0.002140939 0.002807317 0.004032745 0.002900911 0.004585858 0.003548036 0.003974463 0.002871056 0.002769131 ]
<OderivCount> 1294944 <NumDimsSelfRepaired> 0 <NumDimsProcessed> 5766 <SelfRepairScale> 1e-05 </RectifiedLinearComponent> 
<ComponentName> tdnn6.batchnorm <BatchNormComponent> <Dim> 24 <BlockDim> 24 <Epsilon> 0.001 <TargetRms> 1 <TestMode> T <Count> 14510.78 <StatsMean>  [ 13.99404 12.92924 14.84158 17.81826 19.5223 12.06087 17.79007 15.2458 11.50374 5.44218 12.36857 12.77566 18.22023 9.521896 14.46741 13.577 18.96762 17.10859 20.71699 6.745594 11.35088 12.56702 23.30082 17.36431 ]
<StatsVar>  [ 339.6902 418.4721 561.7402 880.154 1003.404 434.7772 773.571 738.0203 507.1434 76.57236 471.067 457.4009 686.5253 274.47 601.6282 558.7205 791.7551 949.2427 1010.133 145.6322 308.176 392.2288 1449.185 935.9128 ]
</BatchNormComponent> 
<ComponentName> tdnn6.dropout <GeneralDropoutComponent> <Dim> 24 <BlockDim> 24 <TimePeriod> 0 <DropoutProportion> 0 <TestMode> <Continuous> </GeneralDropoutComponent> 
<ComponentName> tdnn7l0 <LinearComponent> <MaxChange> 0.75 <L2Regularize> 0.00015 <LearningRate> 0.001763691 <Params>  [
  0.8551345 -0.6196982 -0.4072989 -0.1300738 0.09990971 0.1411351 0.6987005 -0.06744013 1.102549 -0.1866856 0.5433886 1.068124 0.9864413 -0.4501425 -0.7223042 -0.08350385 -0.08140191 0.5820594 0.587709 -0.04197671 0.5890434 -0.2936772 0.3029789 0.0355994 0.8529763 0.06328797 -0.2897417 -0.2761943 -0.2863961 -0.2964828 1.290977 0.2171147 0.4599491 -0.2890916 0.3357681 -0.3310509 0.4319183 -0.428445 -0.1103501 0.1800489 -0.3683952 -0.273095 0.2160131 0.4694216 -0.3944368 -0.4980139 0.744046 -0.2077699 
  -0.4627156 0.3868825 0.1617382 0.2179976 0.5566503 -0.09381725 -0.2136151 -0.4580464 1.116376 0.628957 -0.09651129 0.09153625 -0.5390134 0.05552936 -0.9667855 0.4933525 -0.09472764 0.7158883 -0.8968377 0.07207616 0.2841079 -0.7890857 0.1089074 -1.04237 0.03269914 -0.1433211 -0.0716347 0.9338608 -0.295134 -0.541202 -0.7587149 -0.8279734 0.1294258 -0.3301808 -0.5802293 0.1557432 -0.4550054 0.06452455 0.3516471 -0.6267376 0.04729921 -0.5857348 0.2666051 -0.4341971 0.0192577 -0.2847997 0.9215059 -0.2538539 
  0.2942541 -0.1352994 -0.8408895 0.08425977 -0.3037677 0.374221 -1.109932 0.148561 -0.07856025 -0.006362908 -0.3879745 -0.08097143 0.8494323 -0.3498171 0.4583131 -0.4016294 0.477579 -0.1117889 0.07109153 0.6768045 -0.6218356 -1.578088 -0.6656932 0.3578152 0.04607371 0.06665203 0.4138237 -0.2210103 -0.4902067 -0.2252985 -0.6703997 0.2075399 0.7603964 0.5243708 -0.6843705 -0.3557855 -0.2676785 -0.5413818 0.321589 -0.5345945 0.05635159 0.5502497 -0.7380973 0.2316856 -0.3622979 -0.6256945 0.278816 -0.2709502 
  -0.02645801 -0.1275075 -0.001181576 0.490479 -0.7435244 -0.02277039 0.7063917 0.1745969 -1.478657 -0.09658711 -0.4522269 -0.003820922 1.138636 0.5111164 -0.2979212 0.4559901 -0.8384621 0.1531873 -0.3417456 -0.06823809 0.1210037 -1.091271 0.2560187 -0.449153 0.3257107 -0.3487355 -0.914278 0.2513627 -0.3764577 0.02569637 0.494431 -0.4339748 -1.060468 -0.08629771 -0.8517619 -0.3205709 -0.02028725 0.620086 -0.2226911 0.02183918 0.2090862 0.3391133 -0.1676477 0.01851649 -0.3098988 0.4053415 0.1837934 0.3689578 
  -0.9938574 0.3242994 0.264284 0.1521329 0.2303629 0.9909219 0.07334954 -0.4756651 0.5519674 -0.8492623 -0.1536793 -0.06150615 -0.6283935 -0.07804538 -0.1462414 -0.5723782 -0.2404016 -0.767446 1.031578 -0.5339206 0.6522897 -1.051189 0.04886465 0.2004576 -0.309365 0.9152325 -0.5662991 0.3493212 -0.2153748 0.7162502 0.2465431 -0.355001 0.1554383 -0.3200011 -0.02824974 0.1784363 0.5217839 0.07506015 -0.08924253 -0.2746552 -0.04596732 1.197003 0.3200209 -0.4221519 -0.2588019 -0.330677 -0.1231644 0.5029508 
  0.3608539 -0.1603738 0.2275684 0.08586869 1.131815 -0.2712683 -0.3048036 0.3113952 -0.5869768 0.0469136 1.212731 -0.2500644 -0.6288875 -0.1632936 0.06280439 -0.04329994 -0.6810376 -1.489054 0.4109285 0.3629696 0.4727219 -0.3879481 0.765832 0.8304863 0.3581886 -0.3506242 -0.01691951 -0.1369981 -0.04327933 -0.09620902 -0.5888668 0.187661 -0.3761374 -0.2237741 -0.7071736 -0.1665626 0.2130092 -0.1219385 -0.09510074 -0.1406715 -0.5585392 -0.8474762 -0.3789757 0.08643261 -0.4300445 0.2925391 0.9866112 0.02777062 
  -0.3387497 -1.064921 -0.02887339 0.1506354 0.3882836 0.6335573 -1.281667 0.5051618 -0.7903296 0.2343115 -0.2520993 0.614729 -0.1116027 0.01016426 -0.5832562 0.4256877 0.2237991 0.01648272 0.1824915 -0.005464327 -0.2434793 0.2714226 0.3291406 -0.754796 0.1061575 -0.4525795 0.1533186 0.1931579 0.1434438 0.4401057 -0.1257312 0.4862714 -0.0709883 -1.124966 0.2761827 -0.1967707 0.4819471 -0.4844778 -1.438402 -0.8372216 0.5252907 0.1600228 0.5430689 0.1454428 -0.08302252 -0.3805951 -0.3327374 -0.321402 
  0.533668 0.04515411 0.2326363 0.07809269 0.2856165 -0.3502572 -1.03662 -0.5885183 0.2475704 0.2865065 -0.3151556 -0.4158122 0.4672592 0.242517 0.726411 0.1974153 0.9872304 0.3647996 -0.5025411 -0.4883096 0.9015231 0.4441788 0.5913742 -0.04511342 0.6004595 0.5683361 -0.1170013 -0.6466452 0.7121881 0.6391648 0.09791972 -0.6376379 -0.4092171 0.06884209 -0.1512182 -0.2972708 0.7614474 -0.1263219 -0.1362616 -0.04855558 0.4969746 0.8004329 -0.6279067 -0.2860834 0.1234792 0.3560109 1.215454 0.3093641 
  0.1865143 -0.2209496 -1.064018 -0.6611302 0.2250094 0.331133 0.5761769 -0.6891198 -0.5235491 -0.1599639 -0.5303851 -0.4399102 -1.142727 -1.323115 -0.2311442 0.2038611 0.1600387 -0.02406529 -0.04207904 0.2772692 -0.1206861 0.09867568 -0.3615993 -0.8902295 0.03333024 -0.2036988 -0.851778 -0.3130238 0.7044426 1.040098 0.3623971 0.2061389 0.3231809 -0.1237864 -0.4971728 -0.5567285 -0.8809627 -0.2813276 -0.01660319 0.2416506 -0.250731 -0.0982386 -0.4080363 0.381178 0.2381576 0.2087606 0.494242 0.2567124 
  0.6368076 -0.4554002 -0.2779731 0.9303659 -0.4051407 0.03376344 0.264991 0.9530087 0.0594543 -0.3122972 -1.034404 0.7618175 -0.9105498 0.1818573 0.2259943 -0.111625 0.6209655 -0.2108051 0.1553608 -0.2169273 -0.2462951 -0.269245 1.266938 0.3516967 -0.07401667 0.1632798 0.6653963 0.8182766 0.1542412 0.3383904 0.7269195 0.4104599 0.1476193 0.4737804 -0.3255856 0.6382706 -0.6634864 -0.04337774 0.4812851 -0.19585 0.5413415 -0.2259252 0.2920471 -0.3708147 0.2449659 0.5082492 0.7358861 0.08167774 
  -0.6517544 -0.4049772 0.1262983 -0.08707742 -0.1654877 -1.049612 0.01926976 0.1417446 0.220121 -0.7408025 -0.6877098 0.8154327 -0.4413363 0.4171378 -0.07999543 -0.06201375 -0.5467816 -0.09597339 -0.8770999 0.3619437 0.8435217 -0.06183879 0.2466705 -0.1788277 -0.6510036 -0.00650826 -0.06792563 -0.368431 0.116613 -0.4237529 -0.266141 1.012337 0.8968289 -0.1098987 -0.2063158 0.08511494 0.3291185 0.7303451 -0.7115775 0.5867227 -0.5126057 0.7450855 -1.06833 0.2980986 0.2607584 -0.188748 0.3578505 -0.5121969 
  0.2619998 -0.03637814 0.08951429 0.2940116 0.1621698 -0.6803085 -0.2300829 -0.4979802 0.01240892 -0.589205 -0.7571873 0.06994475 0.3512115 -0.1031311 -0.352226 0.3155899 0.3779532 -0.7542404 0.4370553 -0.4939049 0.2135572 -0.232016 -0.7100463 0.05457409 0.6190201 0.4587266 0.316825 -0.3424494 1.012174 -1.444355 0.1877875 0.155596 -0.2280777 -0.8954381 -0.1459255 0.34658 -1.031649 -0.01146912 -0.4162417 -0.2191935 -0.1039604 -0.5252447 -0.2768848 -0.6318939 0.0805065 -0.3045568 -0.5482353 1.086126 ]
<OrthonormalConstraint> -1 <UseNaturalGradient> T <RankInOut> 20 6 <Alpha> 4 <NumSamplesHistory> 2000 <UpdatePeriod> 4 </LinearComponent> 
<ComponentName> tdnn7l <LinearComponent> <MaxChange> 0.75 <L2Regularize> 0.00015 <LearningRate> 0.001763691 <Params>  [
  0.1537027 1.513751 0.09293307 0.03882916 -0.1921595 -0.8173727 0.3260026 -0.2216137 0.7589996 -0.3538271 0.4480833 -0.2571183 0.09549552 -0.4700121 -0.03829957 -0.1958148 0.4803926 0.1817755 -0.3324724 -0.6037397 1.131472 -1.399663 -0.9435943 0.7232819 
  -1.693567 0.7055718 -1.000156 -1.291532 -0.1720766 -0.0782929 -0.8555586 0.7166792 -0.3900505 -0.09556217 0.1428161 0.3353299 -0.613048 0.2705476 -0.5878477 0.1972586 0.7275695 -0.09362914 -0.1442982 0.4061602 -0.4031399 0.09709948 -0.1194138 0.6660004 
  0.3608184 0.5474574 -0.8259605 1.661943 0.6123915 -0.06989662 -0.372009 0.6202971 0.3194351 0.4899198 0.7074395 0.9207946 -0.4226393 0.3114271 -1.128357 0.4767576 -0.4001308 -0.09234235 0.5156094 -0.4777682 0.2594559 0.8170394 -0.4497348 0.06897925 
  -0.6275097 0.1003842 -0.3102878 0.3479147 0.6981207 -0.1964971 0.1980202 -0.8896511 -0.3100598 0.4320858 1.458694 -0.14725 -0.4528533 0.5875744 0.846653 -0.2398262 0.4715638 -0.3170831 0.2840348 -0.8625244 -0.177091 -0.5600096 1.596476 -0.003242426 
  -0.8208095 0.69995 0.3082161 0.8859617 -1.335265 1.358845 -0.2890669 0.5056347 0.1728258 0.006840498 0.3961349 -0.2744392 0.4193085 -0.2058286 0.388113 0.6221271 -0.9902263 0.160693 0.02313325 0.6864737 0.5203317 -0.4220555 0.8897874 0.26305 
  0.9510453 -0.34812 -0.7490048 -0.4048352 -0.2480246 0.4875569 0.6211271 -0.3418794 -0.437299 0.5183837 0.2564343 0.6797898 0.6766679 -0.9515951 -0.5669591 -0.182759 0.2131907 0.3140347 0.8706627 0.3368048 -0.3851917 -0.3996729 0.5135562 1.712726 
  -0.2334668 -0.3423774 0.09386958 0.1376911 -0.8812869 0.0403456 -0.07073425 -1.467124 0.586824 -0.6579756 -0.2795516 1.330978 -1.02512 -0.111695 -0.05168401 0.4966238 -0.6554887 0.2186637 -0.9935358 -0.713748 -0.7370563 0.02546876 -0.03393948 0.4944775 
  -0.6375327 -0.2339202 -1.032815 0.548696 0.7885232 1.86138 0.2776735 -0.2072334 0.2788815 -0.2806213 -1.002053 -0.4386507 -0.04205899 -0.05230397 0.4999506 -0.4484461 0.6028197 0.5991725 0.03081101 -0.8363541 0.1722875 -0.09122718 -0.6701569 0.1901878 
  0.5718154 0.5448944 -0.01893062 -0.9775246 0.2087733 0.6004012 0.04643388 -0.2442039 -0.3466654 0.8223622 0.9973991 -0.02038561 0.2283458 0.8626944 0.2967483 -0.3595136 -0.7616273 1.483051 -1.11214 -0.04060252 0.2946821 0.8126535 -0.4256985 0.1281052 
  -0.1357395 0.001559515 0.9682954 0.1347403 -0.04258397 -0.09163158 0.1639296 1.000493 0.0504197 0.7802104 -0.1478618 0.6276337 0.08185846 -0.4649435 1.505751 0.2887415 0.7034348 -0.6457999 -0.4164513 -0.7053651 0.063282 1.079063 -0.1748616 1.183513 
  0.3753115 -0.4404063 -1.688232 0.1133372 -0.3127892 -0.560518 0.01096423 0.3543648 0.4107574 -0.8263232 0.5117617 -0.592463 0.8673072 -0.8035901 0.2801381 0.4794616 0.2393295 -0.1005483 -1.329436 -0.1874121 0.1320644 0.7451003 0.6497647 -0.246041 
  -0.3106571 0.008450274 -0.2816284 -0.8127435 0.2808926 -0.05125598 1.421598 0.2294994 1.482465 -0.1523811 -0.2170208 0.3417478 -0.8644543 0.03732541 0.03089802 -0.5760199 -0.6283058 -0.255922 0.4771507 0.5596941 1.10197 0.7261568 0.7524983 0.01185172 ]
<OrthonormalConstraint> -1 <UseNaturalGradient> T <RankInOut> 12 6 <Alpha> 4 <NumSamplesHistory> 2000 <UpdatePeriod> 4 </LinearComponent> 
<ComponentName> tdnn7.affine <NaturalGradientAffineComponent> <MaxChange> 0.75 <L2Regularize> 0.00015 <LearningRate> 0.001763691 <LinearParams>  [
  0.3087104 -0.07884806 -0.9655439 0.2412468 0.6588218 -0.1999022 -0.08786484 0.8373298 -0.1486768 -0.4099151 -0.360615 -0.07356672 -0.07973284 -0.2172545 0.1297324 0.9491141 0.8980853 0.6568224 0.1184435 -0.03274033 -0.6217849 -1.212415 -1.125669 0.6259158 1.086491 -0.2178243 0.241146 -0.1265417 -1.045328 0.7782612 -0.03194132 0.3967738 -0.5278463 -0.2331161 -0.01592605 -0.001699524 0.1450167 -0.1046919 0.5129356 0.06757034 1.609795 -0.6681144 0.1047387 -0.1192223 -1.421981 -0.06343908 -0.6749439 -0.9824964 0.5564867 0.4668648 -0.05287824 0.2226168 -1.912008 -0.204026 -0.3134824 -0.3414591 -0.6368958 -0.7134011 1.481584 -0.08493157 
  -0.1045822 -0.3983173 -0.6946242 -0.5686787 0.1064867 -1.059177 0.3910277 0.134371 -0.8072695 0.1972498 -0.2508117 0.3296316 0.8941576 -0.446342 -0.220586 0.2758394 0.09085336 0.003818242 0.8290825 -0.3015164 -0.4402385 -0.1889358 0.2743864 0.2546004 0.04932404 -0.0935742 0.02805038 -0.4094336 -0.5442815 0.7156399 0.4677469 0.03104027 -0.9297229 0.5482677 0.1724179 0.2428728 0.03439276 0.0441943 -0.2894296 -0.3658781 -0.524539 0.5525354 0.1581892 0.08212654 0.4374709 -0.289415 0.01602685 0.2885824 -0.1318541 -0.9516467 0.0666002 -0.4040585 0.6247081 -0.05973986 -0.3163225 0.1783065 0.5543245 -0.2444768 0.358617 -0.4826516 
  -0.2324644 1.061694 -0.3453562 0.05661037 -0.09571937 0.4380178 0.180952 0.7860236 0.5260133 -0.611277 -1.314778 0.1367008 -0.3201605 1.324803 -0.7111375 -0.301169 -0.1011119 -0.4439902 -0.3079191 0.7922347 -0.243096 -0.3057462 -0.4519841 0.01844483 0.4997358 -1.282984 -0.004365779 -0.8507755 -0.2186026 0.0886767 -0.08963123 -0.02953419 0.7573389 0.1509514 -0.7527577 -0.1126971 0.3284454 -0.5123066 0.09493296 -0.02909353 -0.4617815 -0.04437023 0.633854 -0.1477768 0.8484917 0.2915491 -0.2400806 -0.683526 -0.300608 -0.9437139 0.161213 -0.9440363 -0.4678092 -0.749814 -1.648312 0.2125656 -1.493765 -0.1990921 -0.5853176 0.437353 
  0.6208767 -0.0421572 0.4530812 -0.01694215 -0.4582593 0.3087106 0.2706203 0.3638332 0.6662838 -0.06502284 0.03412432 0.3115261 0.4367113 0.7068199 0.2953389 -0.1716465 -0.3226847 0.7920614 -0.1502025 1.003659 0.1613277 0.4797091 0.9691947 0.7563137 -0.9307471 -0.5232987 0.2105605 -1.24026 0.7675098 -0.1862233 0.1137765 0.8486701 -0.005941228 -0.3654893 0.005302963 -0.3064816 -0.07535178 1.035596 0.5848221 -0.1239794 0.4865308 -0.9344363 -0.4955226 0.1526264 0.6555626 0.3910521 0.4807555 0.7796699 0.8829383 0.8358446 2.220238 -0.2420852 0.2665283 0.522296 -2.706378 1.949983 -0.6379688 -0.2609811 0.7923893 -1.071835 
  0.0623517 -1.281976 0.1165676 -0.8636341 0.4147449 0.3020932 0.1374919 0.5954533 -1.242661 0.5397552 0.8456765 0.1149923 -0.290562 0.485269 -0.4297024 0.4077057 -0.4988972 -0.154905 -0.1079471 0.3377818 -0.3746486 0.426627 -0.6085099 0.7286502 -1.174683 0.5057519 0.5272882 0.296511 0.666162 -0.695058 -0.4472678 0.07018265 -0.3107086 -0.2409216 0.1116415 0.8286011 0.337975 -0.14611 0.2815854 -0.4287773 -0.07202003 -1.018291 0.2874537 -0.2390716 -0.06647348 1.24057 0.1250952 0.1813479 0.05738091 0.07347615 1.375163 -0.9294552 -0.5646543 -0.1116784 -2.016387 1.319422 -1.42862 0.3589673 -1.112354 1.211669 
  0.3517329 0.2842052 -0.201 -0.2245432 0.3819817 0.199606 1.143408 -0.28633 0.646921 -0.03252033 0.6241167 0.1772598 -0.5539979 0.8701875 -0.04462788 1.061415 0.2955932 -0.5173645 0.2594187 0.1455379 -0.2605932 -0.9387023 -0.09505701 -0.2760466 -0.8548784 -0.2628469 -0.6123329 -0.06149524 -0.6007259 -0.9351669 0.1371597 -0.7991582 0.5217847 -0.6230814 -0.1447539 0.4266982 0.2509875 1.061912 0.5948613 0.2329568 0.3809295 -0.5682923 0.1854387 -0.234495 0.0376088 -0.508055 0.7157155 -0.9392483 0.1234129 0.3715625 -0.5590357 0.7606111 -1.33311 1.250211 -1.274257 -0.8346297 -0.1796015 0.3600858 -0.4846485 -0.4605069 
  0.1932701 0.3157817 -0.5515467 0.4909127 0.2997908 0.5294659 -0.1398295 0.07790989 -0.4717196 -0.42716 0.06705048 0.2973405 -0.02560272 0.6520417 -0.2893701 0.01774573 -0.1303972 0.08296676 -0.139165 -0.2478677 0.119192 -0.3900499 -0.1527402 0.387334 0.0464243 0.08302423 0.06463565 0.8024565 -0.3301638 -0.2293722 0.1062034 -0.1965035 0.7952725 -1.149293 -0.1768286 0.6651726 0.6671872 0.9949074 -0.1120241 0.7652577 -0.4896488 -0.113197 -0.709271 1.431992 -0.2815891 0.1904058 0.6427096 -0.1778558 -0.3060558 0.4716815 0.8301152 -0.6033495 0.09537142 0.3865962 0.5398365 -1.160614 -0.10398 0.1256093 0.9193867 0.5390097 
  -0.4196335 0.3879232 -0.3099137 0.9242569 0.5841969 1.146626 -0.1502053 0.9874327 -0.2926127 -0.1302567 -0.1061656 0.2084876 -0.06353748 -0.7440643 -0.6543476 0.9847535 0.8499889 0.6730806 -0.4337032 -0.2112778 -0.9501203 0.921645 -0.1010702 0.6218873 -0.03364959 0.3478929 0.7239642 0.7241629 -0.2385844 -0.08673876 -0.9115813 -0.8628827 -0.8540864 0.4894766 -0.7953901 -0.592309 0.2703797 -0.06978782 0.7050481 0.6877719 -0.6515898 0.6517726 0.05196037 0.6913046 0.09000435 0.5898584 -0.04870778 -0.1869621 0.3129701 0.5267054 -0.3394291 -0.35598 1.160269 0.7193554 -0.8419844 0.7103248 0.1975268 0.9365564 -0.2060173 0.2547812 
  -0.6929194 -0.5896833 -0.468431 -0.3344001 0.955027 0.3824491 0.1743225 0.1549656 1.178231 0.06197801 0.4427786 -0.3977742 0.4960837 0.5072098 -0.1764855 0.3457653 -0.6745573 0.4174517 0.0790053 0.05353082 -0.3720128 0.8714327 -0.5208299 -0.026693 -0.6348144 -0.2549756 -0.2414003 0.04573477 0.002312823 -0.1859232 0.1949765 0.2210771 -0.5845398 0.3469687 -0.305583 0.9276809 0.889776 0.1981361 0.369352 0.1231143 0.3308266 -0.1297857 0.04171911 0.9647006 -0.2647356 0.1255662 0.4728547 0.5853777 0.5067475 1.2628 1.75293 -0.2446864 1.353497 0.4588799 0.2176657 -0.01027775 0.4271948 0.4971706 -1.154216 1.255066 
  0.6025943 0.05741036 -1.213831 0.6760021 0.8377119 -0.5574495 -0.07986558 -0.8931811 0.9847654 0.477018 0.1275209 -0.2177649 0.911914 -1.515188 1.265988 0.610045 -0.09511963 0.2515035 1.556497 0.9672126 1.720376 -0.06471351 0.165758 0.4667775 -0.3183238 -0.9469382 -1.056515 0.3423912 -0.07744348 0.5222255 -0.06189331 0.6172176 -0.6084002 1.286389 0.3268839 1.371727 0.1978445 0.2705151 -2.342362 -0.6448531 0.142062 0.5157151 -0.4886079 -1.796777 1.236723 -1.389186 -0.6156293 0.6612884 0.7056232 0.1885288 -0.3124632 0.1057631 1.117738 0.03198422 -0.4689695 0.9874755 -0.2187432 -0.1812985 1.428807 0.07548355 
  0.2497085 -0.4590968 0.3513173 0.3749598 -0.7568855 0.5045058 -0.4443365 -1.636021 0.002074805 0.3966075 -0.1584252 0.06670981 0.9890265 -1.006943 -0.1778567 0.4518714 0.1103315 0.1494238 0.568462 -0.09539241 -0.6589777 -0.6833037 0.3443441 0.2209077 0.09813898 -0.6778496 -0.7189184 -0.03948866 0.3101104 -0.06447181 0.2260884 -0.6286535 -1.219739 -0.596311 -0.2124654 -0.003986309 0.006448226 0.236577 -0.1999245 0.273115 0.2432127 -0.4043231 -0.002329721 0.3340498 0.02489145 0.01609783 -0.4851884 -0.1314294 0.3004903 0.2764899 0.1018662 -0.2345825 -0.08782557 -0.13569 -0.1905288 -0.1052619 -0.1417925 0.6061227 0.3310565 0.1202136 
  -0.2771944 0.8351358 -0.6586349 0.342034 0.4346533 0.5409122 0.06308348 -0.4823377 -0.2675674 0.4501439 -0.334195 0.5369939 0.4550077 0.4268053 0.6569073 -0.1447567 0.1747129 0.5425159 -0.3462397 -0.7457857 0.8343546 -0.1856512 -0.652755 0.3721185 -0.06838822 -0.5011941 -0.4564521 0.06163253 -0.5334351 0.7570852 -0.3916326 0.06525842 0.4190792 -0.6122239 0.4933735 -0.06722017 0.3200671 -0.3191155 0.1362129 0.3953204 0.04506319 -0.1095712 -0.3631428 0.1406128 -0.3134058 -1.195037 -0.572522 0.2622586 -0.7832355 1.709049 -1.311808 0.2502055 0.1232514 -0.5047023 1.066526 -0.1480691 -0.2517322 0.3785284 1.692973 -0.1771196 
  1.965615 0.0102979 -0.5391558 -1.165655 0.3258295 -0.04281041 0.7585146 1.007931 -1.446382 -0.9045125 -0.2500706 0.2134133 1.461197 0.6627538 -1.082044 -0.2472726 -0.3000547 -0.1312154 0.5766231 -0.3274565 -1.223705 -0.0316584 -0.534875 0.2894692 0.5138438 0.1625069 0.06577049 0.8533269 0.346584 -0.4481607 -0.04222328 0.2207262 0.180167 -0.4338763 -0.3503711 0.03943729 0.2611192 0.06738395 0.1816579 -0.006772487 0.2343242 0.4640347 0.1387876 0.2743441 -0.2433543 -0.2739996 -0.0001834407 0.5286367 -0.3637655 -0.7603129 0.2998669 -0.4050772 0.07763843 0.9856002 0.1320444 -0.1055602 -0.1371876 0.1498137 0.1762899 0.3201257 
  0.6497216 -0.2398321 -0.2641393 0.2202522 -0.1146664 0.6014971 -0.6247895 -0.8545321 0.3303393 0.4181212 0.5664461 0.5924202 0.4639483 0.1411391 0.8851175 -0.2305562 -0.1453956 0.6082041 -0.3435032 -0.2476776 0.2440225 0.555752 0.5381503 1.086664 -0.08195546 -0.3129929 0.3164175 -0.6948316 0.4567303 0.8787068 -0.3447308 -0.1918253 0.3434215 0.1568103 -0.4248891 -0.6674514 1.112806 0.572322 0.245349 -0.1124722 -0.07789417 -0.1125461 0.489835 -1.257858 0.4690332 -0.3441457 -0.4549491 -0.2330113 -0.1833954 -0.5351161 2.343338 -1.547297 -0.04225249 0.2500058 -2.812186 2.49052 -2.632869 -1.054511 -0.1345453 0.5154862 
  -1.124266 -0.8379859 -0.3057875 -0.1030304 2.095339 1.205257 -0.7860107 0.9941571 -0.7627027 0.7255149 -0.257028 0.2670171 -0.2389502 -0.9755141 -0.7545378 0.4461333 -1.479033 -0.6371341 0.06900024 0.1765747 -0.6406749 1.669638 0.3137475 -0.3090916 -0.2743011 0.2673151 -0.04075582 0.8946754 0.08605558 -0.2397677 -0.8358111 -0.05814526 -0.4768829 0.4527476 -0.7955417 -0.03829291 0.2534787 0.395666 -0.862138 -0.3376862 -1.035213 -0.1551524 -0.2092579 0.3423402 -0.182375 1.688708 0.5197635 0.7746251 0.353219 1.261668 0.06779827 -0.3062425 1.160035 -0.2484817 0.5343069 0.6582264 0.03410741 1.077407 -0.9254223 0.807523 
  -0.6382599 0.0815422 0.07251362 0.9776075 -0.09689203 -0.4671254 0.6500426 0.4585935 0.06322137 -0.9239024 0.2313816 -0.5221605 -0.008616517 0.1831018 -0.02568809 0.2145423 -0.07487583 -0.2266802 0.4880534 0.33122 0.1084583 0.006556605 -0.100927 -0.344335 0.372945 0.547724 -1.06273 0.1040662 -0.5611144 0.106077 0.01145448 0.5182018 0.2454223 0.2378338 -0.05016674 -0.3257519 -1.517418 -0.4295864 0.6654341 -0.5963247 -0.09451983 0.3589858 -0.3543339 -0.1452489 -0.4107055 0.7882021 0.08443773 0.4103719 0.2875686 -0.3046401 -1.353449 0.2801932 0.08182843 0.1796931 0.5055813 0.5426016 0.06466651 0.3230048 1.067307 0.8240218 
  0.2875494 0.1198765 0.05869522 0.02167072 0.3630703 0.475414 0.620005 -0.4163759 0.2905524 0.2217881 0.1505965 0.7656541 0.08076288 0.1775581 -0.418332 -0.1059563 -0.5751081 0.4114875 -0.04074 -0.1217482 -0.0003759138 -0.1771106 0.0775947 -0.03872969 -0.202199 -0.1769714 0.1850883 0.1145445 -1.078205 -0.2072615 -0.6554497 -0.1088928 0.377636 -0.5536227 -0.4666457 -0.1161092 0.4588443 -1.13927 -0.4399419 0.3861554 -0.3065253 1.245909 0.7528747 -0.2558759 -0.2622009 0.1495827 0.3394434 -1.572779 0.7620119 -2.132326 -2.01494 -0.1359357 -2.042734 -0.341734 -0.6958376 -1.386775 -0.8705731 -1.607708 -1.036696 1.05953 
  1.127536 -0.3144779 -0.1556864 0.1536116 -0.2268771 -0.208946 -0.001104387 -1.183243 -0.5010762 0.5017447 -0.9042265 0.3624826 0.3592827 0.6795088 -0.2506877 -0.9405271 0.4446802 0.2090524 0.2690166 -0.7032676 -0.8736802 0.4192098 -1.016274 -0.1105689 -0.05270582 -1.088892 -0.05090897 -0.8441979 -0.7945101 -0.2477991 0.389655 -0.5384843 -0.297177 0.3412976 1.18393 0.2760685 0.7120199 -0.1690808 -0.1275505 0.2907933 -0.2682929 0.1257481 0.1585922 -0.0412108 0.3694468 -0.05850196 0.1432613 -0.1651975 0.1844572 -0.4907759 0.4424782 0.0383045 0.634127 -0.3663842 0.1308082 -0.2276339 -0.2493784 -0.7130522 -0.4174779 -0.8337435 ]
<BiasParams>  [ -0.7457424 -0.6562899 -0.4396383 -0.6874707 -0.2081892 0.7949789 1.777258 -0.8466091 1.282842 -1.318877 -0.3632602 0.484854 0.5036981 -0.117877 -1.039433 0.775358 0.1064741 1.407878 ]
<RankIn> 20 <RankOut> 9 <UpdatePeriod> 4 <NumSamplesHistory> 2000 <Alpha> 4 </NaturalGradientAffineComponent> 
<ComponentName> tdnn7.relu <RectifiedLinearComponent> <Dim> 18 <ValueAvg>  [ 27.88192 25.1552 29.68514 45.4495 28.47734 32.3091 32.29199 33.27608 40.10509 46.46688 25.96819 35.05481 42.9032 38.34325 25.51965 26.27751 57.46607 27.26028 ]
<DerivAvg>  [ 0.4836644 0.5202007 0.4822629 0.4427214 0.50195 0.5142016 0.5756807 0.5698224 0.6142738 0.4796113 0.4421513 0.5645556 0.5675027 0.4959698 0.5167732 0.4841157 0.5001074 0.5514652 ]
<Count> 830912 <OderivRms>  [ 0.002797605 0.003204759 0.001881832 0.002171617 0.001673813 0.002524859 0.003340197 0.00236201 0.002490124 0.002037762 0.003372544 0.001908796 0.002111921 0.001674166 0.002707668 0.002564619 0.002104606 0.003633577 ]
<OderivCount> 1244080 <NumDimsSelfRepaired> 0 <NumDimsProcessed> 4153.5 <SelfRepairScale> 1e-05 </RectifiedLinearComponent> 
<ComponentName> tdnn7.batchnorm <BatchNormComponent> <Dim> 18 <BlockDim> 18 <Epsilon> 0.001 <TargetRms> 1 <TestMode> T <Count> 13742.78 <StatsMean>  [ 27.76747 25.65481 30.56592 46.91513 29.31275 32.74695 32.45086 34.10857 40.94664 47.14245 26.49067 36.41872 43.4824 39.01353 26.17511 26.99895 58.7354 27.49804 ]
<StatsVar>  [ 1675.185 1216.008 2144.896 6056.731 1778.386 2410.924 1468.112 1723.612 2122.818 6292.404 1694.182 2116.005 2970.971 3523.078 1377.702 1804.597 7396.991 1257.847 ]
</BatchNormComponent> 
<ComponentName> tdnn7.dropout <GeneralDropoutComponent> <Dim> 18 <BlockDim> 18 <TimePeriod> 0 <DropoutProportion> 0 <TestMode> <Continuous> </GeneralDropoutComponent> 
<ComponentName> tdnn8l0 <LinearComponent> <MaxChange> 0.75 <L2Regularize> 0.00015 <LearningRate> 0.001763691 <Params>  [
  -0.08932965 0.6161328 0.8007546 -0.1554446 0.1178912 0.6873288 -0.144031 -0.433259 -0.7568803 -0.9849438 0.1787203 0.1619735 0.9949284 0.1656102 -0.04955329 0.7453189 0.3832875 -0.02956348 0.1452589 0.868659 -0.7559395 -0.7730943 -0.01751353 0.2147478 0.5315752 0.05968456 0.24924 -0.4317808 0.5225192 0.3616829 0.1217546 -1.344731 1.284232 -0.8462101 0.09667258 0.4804155 
  0.3226775 -0.831439 -0.502004 -0.3326999 0.2386353 -0.1201236 1.075583 -0.6594054 0.2215629 -0.7722594 0.8363435 0.4033436 -0.6964121 -0.2099264 -1.760533 0.195177 0.3333278 0.05677303 -0.7119176 -0.3016772 0.2107933 0.08829332 -0.5607923 -0.5738443 -0.8314458 -0.1126932 -0.1459406 -0.6575359 0.8933349 0.02447529 0.2081999 -0.0427099 -0.1876993 -0.7707994 0.05740998 0.612914 
  -0.9216167 -0.9052545 0.7067078 0.03541386 -0.2899104 -1.154101 -0.1666 -0.4190837 -0.9353983 0.4111111 0.6635282 0.6999767 -0.9371938 0.1933095 0.446117 0.6299196 0.7270439 0.02235316 -0.2349847 -0.0582289 0.01501186 -0.690029 -0.7648748 0.05206271 0.3384094 0.4106258 0.8413831 1.008911 -0.2816839 0.1251959 0.4414118 0.1562035 -0.02315697 0.05963763 1.076358 -0.041225 
  0.7445664 0.1832964 -0.3928612 0.8036438 -0.1261411 -1.509059 0.6406407 -0.01517245 -0.1819661 -0.2688323 -0.7225778 -0.1244038 0.9292992 0.2444855 0.01073033 0.2184891 0.8214812 -0.488626 -0.1761038 0.7985082 -0.5641328 0.3282701 0.1131392 -0.794906 -1.381336 0.1162524 0.6375626 0.942804 -0.2845619 0.1987768 -0.4709466 0.08991351 0.4166583 0.1212266 -0.5633085 -0.02267559 
  0.3064745 -0.3196872 -0.9612337 -0.05548248 0.2405871 -0.2507356 -0.1109341 -0.722541 -0.5414521 -1.239697 0.1358281 -0.3542957 0.2414582 -1.197833 0.4415023 -0.08022162 -0.7419692 -0.7872454 1.376056 0.3576648 0.52701 0.2107432 0.1631443 0.005853343 0.02156764 -0.3006769 -0.2714716 0.7291968 -0.176679 0.2851287 1.369833 -0.1962743 -0.4949818 -0.02540901 0.6711002 0.1189375 
  -0.8292288 -0.08889259 -0.6146202 0.5045177 0.2030249 -0.6434102 0.282529 1.435819 -0.2936822 -0.973626 -0.1726307 0.5119974 0.07825256 0.2241473 0.4896004 -0.1414813 0.5170445 -1.279879 -0.5022753 -0.6797755 0.2549173 -0.3129795 -0.2100188 -0.2717526 0.3093662 0.1693032 -0.8925122 -1.387289 -0.7525594 0.0128087 0.2016126 -0.4172376 0.3027121 0.4326947 0.1743407 0.1246307 
