<Nnet3> 
input-node name=ivector dim=100
input-node name=input dim=80
component-node name=tdnn1.affine component=lda.tdnn1.affine input=Append(Offset(input, -1), input, Offset(input, 1), ReplaceIndex(ivector, t, 0))
component-node name=tdnn1.relu component=tdnn1.relu input=tdnn1.affine
component-node name=tdnn1.batchnorm component=tdnn1.batchnorm input=tdnn1.relu
component-node name=tdnn1.dropout component=tdnn1.dropout input=tdnn1.batchnorm
component-node name=tdnnf2.linear component=tdnnf2.linear input=tdnn1.dropout
component-node name=tdnnf2.affine component=tdnnf2.affine input=tdnnf2.linear
component-node name=tdnnf2.relu component=tdnnf2.relu input=tdnnf2.affine
component-node name=tdnnf2.batchnorm component=tdnnf2.batchnorm input=tdnnf2.relu
component-node name=tdnnf2.dropout component=tdnnf2.dropout input=tdnnf2.batchnorm
component-node name=tdnnf2.noop component=tdnnf2.noop input=Sum(Scale(0.66, tdnn1.dropout), tdnnf2.dropout)
component-node name=tdnnf3.linear component=tdnnf3.linear input=tdnnf2.noop
component-node name=tdnnf3.affine component=tdnnf3.affine input=tdnnf3.linear
component-node name=tdnnf3.relu component=tdnnf3.relu input=tdnnf3.affine
component-node name=tdnnf3.batchnorm component=tdnnf3.batchnorm input=tdnnf3.relu
component-node name=tdnnf3.dropout component=tdnnf3.dropout input=tdnnf3.batchnorm
component-node name=tdnnf3.noop component=tdnnf3.noop input=Sum(Scale(0.66, tdnnf2.noop), tdnnf3.dropout)
component-node name=tdnnf4.linear component=tdnnf4.linear input=tdnnf3.noop
component-node name=tdnnf4.affine component=tdnnf4.affine input=tdnnf4.linear
component-node name=tdnnf4.relu component=tdnnf4.relu input=tdnnf4.affine
component-node name=tdnnf4.batchnorm component=tdnnf4.batchnorm input=tdnnf4.relu
component-node name=tdnnf4.dropout component=tdnnf4.dropout input=tdnnf4.batchnorm
component-node name=tdnnf4.noop component=tdnnf4.noop input=Sum(Scale(0.66, tdnnf3.noop), tdnnf4.dropout)
component-node name=tdnnf5.linear component=tdnnf5.linear input=tdnnf4.noop
component-node name=tdnnf5.affine component=tdnnf5.affine input=tdnnf5.linear
component-node name=tdnnf5.relu component=tdnnf5.relu input=tdnnf5.affine
component-node name=tdnnf5.batchnorm component=tdnnf5.batchnorm input=tdnnf5.relu
component-node name=tdnnf5.dropout component=tdnnf5.dropout input=tdnnf5.batchnorm
component-node name=tdnnf5.noop component=tdnnf5.noop input=Sum(Scale(0.66, tdnnf4.noop), tdnnf5.dropout)
component-node name=tdnnf6.linear component=tdnnf6.linear input=tdnnf5.noop
component-node name=tdnnf6.affine component=tdnnf6.affine input=tdnnf6.linear
component-node name=tdnnf6.relu component=tdnnf6.relu input=tdnnf6.affine
component-node name=tdnnf6.batchnorm component=tdnnf6.batchnorm input=tdnnf6.relu
component-node name=tdnnf6.dropout component=tdnnf6.dropout input=tdnnf6.batchnorm
component-node name=tdnnf6.noop component=tdnnf6.noop input=Sum(Scale(0.66, tdnnf5.noop), tdnnf6.dropout)
component-node name=tdnnf7.linear component=tdnnf7.linear input=tdnnf6.noop
component-node name=tdnnf7.affine component=tdnnf7.affine input=tdnnf7.linear
component-node name=tdnnf7.relu component=tdnnf7.relu input=tdnnf7.affine
component-node name=tdnnf7.batchnorm component=tdnnf7.batchnorm input=tdnnf7.relu
component-node name=tdnnf7.dropout component=tdnnf7.dropout input=tdnnf7.batchnorm
component-node name=tdnnf7.noop component=tdnnf7.noop input=Sum(Scale(0.66, tdnnf6.noop), tdnnf7.dropout)
component-node name=tdnnf8.linear component=tdnnf8.linear input=tdnnf7.noop
component-node name=tdnnf8.affine component=tdnnf8.affine input=tdnnf8.linear
component-node name=tdnnf8.relu component=tdnnf8.relu input=tdnnf8.affine
component-node name=tdnnf8.batchnorm component=tdnnf8.batchnorm input=tdnnf8.relu
component-node name=tdnnf8.dropout component=tdnnf8.dropout input=tdnnf8.batchnorm
component-node name=tdnnf8.noop component=tdnnf8.noop input=Sum(Scale(0.66, tdnnf7.noop), tdnnf8.dropout)
component-node name=tdnnf9.linear component=tdnnf9.linear input=tdnnf8.noop
component-node name=tdnnf9.affine component=tdnnf9.affine input=tdnnf9.linear
component-node name=tdnnf9.relu component=tdnnf9.relu input=tdnnf9.affine
component-node name=tdnnf9.batchnorm component=tdnnf9.batchnorm input=tdnnf9.relu
component-node name=tdnnf9.dropout component=tdnnf9.dropout input=tdnnf9.batchnorm
component-node name=tdnnf9.noop component=tdnnf9.noop input=Sum(Scale(0.66, tdnnf8.noop), tdnnf9.dropout)
component-node name=tdnnf10.linear component=tdnnf10.linear input=tdnnf9.noop
component-node name=tdnnf10.affine component=tdnnf10.affine input=tdnnf10.linear
component-node name=tdnnf10.relu component=tdnnf10.relu input=tdnnf10.affine
component-node name=tdnnf10.batchnorm component=tdnnf10.batchnorm input=tdnnf10.relu
component-node name=tdnnf10.dropout component=tdnnf10.dropout input=tdnnf10.batchnorm
component-node name=tdnnf10.noop component=tdnnf10.noop input=Sum(Scale(0.66, tdnnf9.noop), tdnnf10.dropout)
component-node name=tdnnf11.linear component=tdnnf11.linear input=tdnnf10.noop
component-node name=tdnnf11.affine component=tdnnf11.affine input=tdnnf11.linear
component-node name=tdnnf11.relu component=tdnnf11.relu input=tdnnf11.affine
component-node name=tdnnf11.batchnorm component=tdnnf11.batchnorm input=tdnnf11.relu
component-node name=tdnnf11.dropout component=tdnnf11.dropout input=tdnnf11.batchnorm
component-node name=tdnnf11.noop component=tdnnf11.noop input=Sum(Scale(0.66, tdnnf10.noop), tdnnf11.dropout)
component-node name=tdnnf12.linear component=tdnnf12.linear input=tdnnf11.noop
component-node name=tdnnf12.affine component=tdnnf12.affine input=tdnnf12.linear
component-node name=tdnnf12.relu component=tdnnf12.relu input=tdnnf12.affine
component-node name=tdnnf12.batchnorm component=tdnnf12.batchnorm input=tdnnf12.relu
component-node name=tdnnf12.dropout component=tdnnf12.dropout input=tdnnf12.batchnorm
component-node name=tdnnf12.noop component=tdnnf12.noop input=Sum(Scale(0.66, tdnnf11.noop), tdnnf12.dropout)
component-node name=tdnnf13.linear component=tdnnf13.linear input=tdnnf12.noop
component-node name=tdnnf13.affine component=tdnnf13.affine input=tdnnf13.linear
component-node name=tdnnf13.relu component=tdnnf13.relu input=tdnnf13.affine
component-node name=tdnnf13.batchnorm component=tdnnf13.batchnorm input=tdnnf13.relu
component-node name=tdnnf13.dropout component=tdnnf13.dropout input=tdnnf13.batchnorm
component-node name=tdnnf13.noop component=tdnnf13.noop input=Sum(Scale(0.66, tdnnf12.noop), tdnnf13.dropout)
component-node name=tdnnf14.linear component=tdnnf14.linear input=tdnnf13.noop
component-node name=tdnnf14.affine component=tdnnf14.affine input=tdnnf14.linear
component-node name=tdnnf14.relu component=tdnnf14.relu input=tdnnf14.affine
component-node name=tdnnf14.batchnorm component=tdnnf14.batchnorm input=tdnnf14.relu
component-node name=tdnnf14.dropout component=tdnnf14.dropout input=tdnnf14.batchnorm
component-node name=tdnnf14.noop component=tdnnf14.noop input=Sum(Scale(0.66, tdnnf13.noop), tdnnf14.dropout)
component-node name=tdnnf15.linear component=tdnnf15.linear input=tdnnf14.noop
component-node name=tdnnf15.affine component=tdnnf15.affine input=tdnnf15.linear
component-node name=tdnnf15.relu component=tdnnf15.relu input=tdnnf15.affine
component-node name=tdnnf15.batchnorm component=tdnnf15.batchnorm input=tdnnf15.relu
component-node name=tdnnf15.dropout component=tdnnf15.dropout input=tdnnf15.batchnorm
component-node name=tdnnf15.noop component=tdnnf15.noop input=Sum(Scale(0.66, tdnnf14.noop), tdnnf15.dropout)
component-node name=prefinal-l component=prefinal-l input=tdnnf15.noop
component-node name=prefinal-chain.affine component=prefinal-chain.affine input=prefinal-l
component-node name=prefinal-chain.relu component=prefinal-chain.relu input=prefinal-chain.affine
component-node name=prefinal-chain.batchnorm1 component=prefinal-chain.batchnorm1 input=prefinal-chain.relu
component-node name=prefinal-chain.linear component=prefinal-chain.linear input=prefinal-chain.batchnorm1
component-node name=prefinal-chain.batchnorm2 component=prefinal-chain.batchnorm2 input=prefinal-chain.linear
component-node name=output.affine component=output.affine input=prefinal-chain.batchnorm2
output-node name=output input=output.affine objective=linear
component-node name=prefinal-xent.affine component=prefinal-xent.affine input=prefinal-l
component-node name=prefinal-xent.relu component=prefinal-xent.relu input=prefinal-xent.affine
component-node name=prefinal-xent.batchnorm1 component=prefinal-xent.batchnorm1 input=prefinal-xent.relu
component-node name=prefinal-xent.linear component=prefinal-xent.linear input=prefinal-xent.batchnorm1
component-node name=prefinal-xent.batchnorm2 component=prefinal-xent.batchnorm2 input=prefinal-xent.linear
component-node name=output-xent.affine component=output-xent.affine input=prefinal-xent.batchnorm2
component-node name=output-xent.log-softmax component=output-xent.log-softmax input=output-xent.affine
output-node name=output-xent input=output-xent.log-softmax objective=linear

<NumComponents> 102 
<ComponentName> tdnn1.relu <RectifiedLinearComponent> <Dim> 18 <ValueAvg>  [ 0.6796675 0.4108673 0.5380192 0.6965938 0.3026094 0.604791 4.670989e-05 2.104265e-05 0 0.6126526 0.7555309 0.5646487 3.380029e-06 0.0001096146 0.02585147 0.06353753 0.08781412 0.01920651 ]
<DerivAvg>  [ 0.8214305 0.6623614 0.8297535 0.9133328 0.6181087 0.9386868 0.001434965 0.0002620961 0 0.8005479 0.9312283 0.7481977 8.682215e-05 0.002541382 0.1542508 0.3173973 0.4492987 0.1681459 ]
<Count> 2761392 <OderivRms>  [ 0.2265443 0.2391254 0.299038 0.2366248 0.2111326 0.4531659 1.144633 2.186639 1.285429 0.1919285 0.2612105 0.1842738 1.183871 1.173351 0.7039327 0.3790381 0.2992465 0.8014191 ]
<OderivCount> 4125072 <NumDimsSelfRepaired> 1294 <NumDimsProcessed> 4117.5 <SelfRepairScale> 1e-05 </RectifiedLinearComponent> 
<ComponentName> tdnn1.batchnorm <BatchNormComponent> <Dim> 18 <BlockDim> 18 <Epsilon> 0.001 <TargetRms> 1 <TestMode> T <Count> 49003.7 <StatsMean>  [ 0.6742462 0.3941884 0.5490752 0.6875719 0.3285012 0.6285759 8.040166e-06 3.062061e-05 0 0.604236 0.7554712 0.5523911 2.554519e-05 0.0009532475 0.05843838 0.06940023 0.1639431 0.03629555 ]
<StatsVar>  [ 0.3110715 0.2075725 0.2498378 0.2889222 0.1399087 0.1435555 2.949257e-07 2.098029e-06 0 0.3338156 0.2211759 0.3288527 2.378073e-06 9.045877e-05 0.02106357 0.02101139 0.04012625 0.007582599 ]
</BatchNormComponent> 
<ComponentName> tdnn1.dropout <GeneralDropoutComponent> <Dim> 18 <BlockDim> 18 <TimePeriod> 0 <DropoutProportion> 0 <TestMode> <Continuous> </GeneralDropoutComponent> 
<ComponentName> tdnnf2.linear <TdnnComponent> <MaxChange> 0.75 <L2Regularize> 0.01 <LearningRate> 0.001927981 <TimeOffsets> [ -1 0 ]
<LinearParams>  [
  -0.1938454 -0.2454396 -0.1521855 -0.556733 0.5876843 -0.5794913 -0.2204969 -0.1228573 0.01280953 0.08293739 0.5673553 0.4274696 -0.05913032 0.03031672 -0.08634834 0.124066 0.1862943 0.1383598 -0.8707258 -0.2380558 0.2734446 -0.05201585 -0.2556234 0.1150754 0.009146554 0.002971454 0.1030092 0.1267955 0.458711 -0.2387689 -0.4351295 -0.009353934 -0.2719043 0.2733191 0.002647052 0.1025021 
  0.5163161 -0.6500827 0.3111184 -0.4326489 0.5094944 -0.2209141 -0.1471943 -0.1107026 -0.3645874 0.1153377 -0.2539248 0.01586489 0.1833629 -0.1091651 0.02204087 -0.01584578 -0.1851848 -0.4681454 -0.1972513 -0.2472635 -0.3831119 0.0835225 0.12717 -0.1472946 0.243276 -0.4374753 0.1058119 0.02756863 -0.09828644 0.1281877 0.6774112 -0.02968075 0.2041601 -0.5116002 0.465718 0.06766593 
  0.2275394 -0.2067083 -0.5339664 0.149125 -0.2223641 -0.3933823 -0.06695428 -0.09197142 -0.0105929 0.01206371 0.866865 -0.6426805 -0.009140165 -0.03408529 -0.03313129 0.08618768 -0.1660493 0.1074171 0.4355099 -0.1797431 0.5939963 0.4889014 0.09078859 0.3929778 0.2308985 -0.1625717 0.02988854 -0.1427777 0.3055813 0.3009752 0.3842527 0.1246744 0.2228702 -0.01594455 0.1349146 0.07343547 
  -0.1847285 0.1571076 -0.130679 0.1206399 0.8152978 0.170431 0.1545873 -0.1774146 0.2006516 -0.1523792 0.2741759 -0.4485429 0.02029639 0.597041 -0.10386 -0.08816446 0.1702713 -0.1920582 0.1656454 0.3482913 -0.1767772 0.1270986 -0.1117501 -0.4914499 0.3393072 -0.4452212 0.047111 0.1271323 -0.3600891 -0.3351692 -0.03228864 -0.2408766 0.4263148 0.635862 0.02499167 0.3190435 
  -0.3479563 0.8914105 -0.8968049 -0.3721876 0.08689928 0.1552029 0.03530848 0.09948478 -0.1569336 -0.4081686 0.01173691 0.06480892 0.06038853 -0.2012006 0.1194737 -0.309825 -0.1007594 -0.137263 -0.5005977 -0.235244 -0.05314159 0.2087678 -0.05587175 -0.3209099 0.0008497452 -0.03864844 0.06923717 -0.4503489 -0.1674463 0.3105195 0.3156088 0.05651303 0.1023273 -0.4032812 -0.02549775 0.06029146 
  0.3620909 0.1566704 -0.7373964 0.04152474 -0.2879287 -0.7846276 -0.2074792 -0.1592637 0.1292794 0.402423 -0.1599856 -0.3241283 0.1047318 -0.1201873 -0.1459633 0.1429552 -0.139784 0.2323143 -0.1224766 0.4284469 -0.5103771 -0.1253774 0.3808948 -0.390966 0.05937489 0.01288536 -0.06412821 0.6207033 -0.2568771 -0.08307312 -0.2129161 -0.1527123 -0.2924002 -0.1284544 -0.02852204 0.004717354 
  -0.2581298 -0.4208306 0.4331506 -0.1052208 -0.3895985 -0.5608657 -0.07976474 -0.103606 -0.06056433 -0.6462211 0.3914648 0.3094919 0.01045324 -0.02833933 0.0879537 -0.1106184 0.112032 -0.0135928 0.2452325 0.1710693 0.06232893 0.1367083 0.004663262 -1.041911 -0.02277136 0.04038948 -0.05514187 -0.240674 -0.242379 0.5680537 -0.1025852 -0.0484607 -0.1857463 0.06832404 -0.2170673 0.002265152 
  -0.1302447 0.6783321 0.5671444 0.5719208 0.02706028 -1.1092 -0.03194401 -0.09108458 -0.01656703 -0.1584578 -0.5546483 -0.05480191 -0.006951911 0.09560087 0.05491427 -0.1206822 -0.02182643 0.1034644 -0.1866832 -0.09720378 0.2486185 -0.0600304 0.03801779 0.2412922 0.2079434 -0.2004783 0.1109422 -0.4357939 -0.02915105 -0.2146088 0.1208698 0.04943813 0.1314194 0.05701265 0.2778639 0.1510317 
  -0.5295815 -0.1826593 -0.2197741 0.331973 0.453308 -0.2887792 -0.1946133 0.2854834 0.2418388 0.7001026 -0.004355086 0.5811247 -0.06350054 -0.2069403 0.1365998 0.006254708 -0.09026222 0.2063956 0.5030364 -0.04111874 -0.5507984 0.5037165 -0.5119902 0.1554309 -0.05135657 0.1724188 0.1239232 -0.1266689 -0.2903883 0.3815691 0.01075337 0.2297721 0.1458258 0.04689331 0.1682177 0.03099823 
  -0.94919 -0.2391397 0.3034942 0.2354732 -0.2497154 0.282525 -0.4640283 -0.02219444 -0.228097 0.3719473 0.02595652 -0.7098432 0.2271877 -0.320491 0.03314138 -0.06438351 -0.315456 -0.1721648 -0.6477768 0.3718981 0.2401397 0.1756597 -0.08853373 -0.05329784 -0.01687455 -0.09341601 0.06543457 0.1635228 -0.205768 0.0658956 0.08428031 -0.01187373 -0.2341904 0.092388 0.3116286 -0.09036456 
  0.4680288 -0.4469705 -0.4173865 0.7572813 0.3791929 0.09609359 0.0420895 -0.1772093 -0.2395498 -0.3397883 -0.5412393 0.02585882 0.03991007 -0.06672141 0.1131134 -0.3396565 -0.04311617 -0.05216042 -0.2082805 -0.1008774 0.4825975 0.7397331 -0.3351685 -0.1212335 -0.1403791 0.101803 -0.02301346 0.07307957 -0.1358948 -0.156235 -0.2973695 -0.1864959 -0.3956109 -0.1021153 -0.2592402 -0.1477323 
  0.2789643 0.4588434 0.3376735 0.159839 -0.2325013 0.2237195 0.2395418 -0.1941202 0.03095461 0.9773358 0.2257326 0.54357 -0.009143002 0.294903 -0.1130886 -0.415063 -0.04523307 -0.04846859 -0.2080128 -0.1069846 0.4190229 0.5017632 0.2616282 -0.6133024 0.1147218 -0.05582446 -0.0863563 0.2733792 0.2939691 0.07060052 0.1386965 0.07062346 0.05237385 -0.009121264 0.1069816 0.1300816 ]
<BiasParams>  [ ]
<OrthonormalConstraint> -1 <UseNaturalGradient> T <NumSamplesHistory> 2000 <AlphaInOut> 4 4 <RankInOut> 18 6 </TdnnComponent> 
<ComponentName> tdnnf2.affine <TdnnComponent> <MaxChange> 0.75 <L2Regularize> 0.01 <LearningRate> 0.001927981 <TimeOffsets> [ 0 1 ]
<LinearParams>  [
  -0.1166002 0.4229711 0.5187709 -0.2988085 -0.6540332 0.2811587 -0.126985 -0.5789037 0.2626149 0.03459489 0.4580455 0.2759031 -0.382597 0.102512 -0.05207512 0.005686069 -0.346285 0.433143 0.04666322 -0.3189864 0.3008187 -0.07878526 0.3139201 0.004530429 
  -0.5066116 -0.2071209 0.04497849 -0.04478927 0.00599476 0.1977234 -0.4885381 -0.3257278 0.2145925 -0.3568442 -0.2603808 0.507645 -0.1709351 -0.1051592 0.1204166 0.01512422 -0.2490968 0.3579124 -0.1703251 -0.3135761 0.1526739 -0.2903943 0.1271302 0.6006634 
  -0.3493338 0.08734921 -0.323234 -0.4754945 -0.5836038 0.04430984 0.4263659 0.7242953 -0.537875 -0.2747654 0.1614372 0.3056805 -0.2128278 0.2129988 -0.2079587 -0.001114152 -0.2413242 0.1961082 -0.2810504 -0.2322059 -0.3570675 -0.08856583 -0.4316463 -0.2104008 
  0.3259068 -0.1773293 0.4000255 0.1354325 0.5513493 -0.3054335 -0.001029719 -0.5182922 0.2435419 0.5006133 0.3953586 0.4268691 -0.2790093 -0.2254987 -0.07593324 -0.462765 -0.8422049 -0.370975 0.4638184 0.7252632 -0.4282252 -0.01084078 -0.3498148 -0.04094469 
  0.08902815 -0.2217843 0.3525963 -0.1213888 0.2292548 0.2888359 -0.419057 0.2107804 0.3912708 -0.01060563 0.1166031 -0.1423265 -0.01140317 -0.1589922 0.06137541 -0.03922664 0.09541425 -0.4865965 0.124372 -0.3451873 -0.4237962 0.177938 -0.02027943 -0.09409507 
  0.1006057 -0.5885586 -0.4734739 -0.6274754 0.1854604 -0.2260351 0.4200619 -0.07429916 0.1317246 0.1720708 -0.2651145 0.4000713 -0.118122 -0.09030177 -0.2366207 -0.3131419 0.3855406 0.1870685 0.3677692 0.1182895 1.026278 0.06497141 -0.2382558 -0.07156454 
  0.1978483 0.1901536 -0.24181 -0.4245338 -0.2854643 -0.3670112 -0.005295927 -0.07139426 0.1385157 0.5338463 -0.1065517 0.4406598 0.1465298 0.3116901 -0.532641 -0.03460608 -0.1515034 -0.06536056 -0.2093602 -0.2502007 -0.2317351 0.151852 -0.3319031 0.2469093 
  0.008970749 -0.3051883 0.05430313 -0.04090884 -0.233778 -0.3002134 -0.2142541 -0.6531076 -0.2502374 0.2311987 -0.352696 -0.09100412 -0.06676199 -0.1169984 0.1761782 -0.2119112 -0.2549112 -0.3249213 0.1022894 -0.438562 -0.1843051 -0.02497303 -0.07549705 -0.2489395 
  0.04438097 0.4834757 -0.4843324 -0.5851135 -0.02852198 0.1608763 0.1843799 0.1414538 0.1752626 -0.1451305 0.142249 0.1336 0.01472955 0.2715515 -0.2972213 0.2647311 0.0651639 0.2177629 0.3212485 -0.2836712 0.3206601 -0.1515042 -0.1163712 0.2097581 
  0.5534517 -0.155717 0.005774039 0.1520572 0.3666295 0.335337 0.09674736 0.1815702 -0.3309332 -0.163887 -0.6375386 0.5481156 0.6081746 0.2974794 -0.3935463 0.1384068 0.5816859 0.06090914 0.526284 0.278772 -0.2942463 0.1022229 -0.3940136 0.06701023 
  0.214316 -0.1367123 0.01309551 0.2222378 0.5651833 0.1100291 -0.259271 -0.8269492 0.04732152 0.2925695 0.1263242 0.0810191 -0.1411373 -0.3963583 0.2221492 0.03432496 -0.1893904 -0.05982531 0.119352 0.2861186 0.2824683 0.2585528 0.3781582 0.3040388 
  0.2701842 0.3637533 0.3538092 -0.2558665 -0.2950034 -0.1653323 0.590846 -0.2456238 -0.08975386 -0.6122282 -0.1884696 -0.3154674 0.3620201 0.1255087 0.6177874 -0.2485501 -0.02762906 -0.5052685 0.06541867 -0.3270164 0.07641745 -0.3926835 0.05389284 0.2084039 
  0.2674413 0.03263903 0.2172513 -0.4898424 0.3788144 0.6700721 -0.5573202 0.4170347 0.08871677 -0.4094327 0.5026352 -0.2324843 -0.3071319 -0.1767394 -0.1337332 -0.007755881 0.009477741 -0.7168001 0.03636284 -0.37818 -0.2442197 0.4084296 -0.2245415 0.2412537 
  -0.4469751 -0.2903346 0.1147792 -0.2965162 0.3283538 0.03292061 0.3237107 0.2290388 -0.2145871 -0.5056511 0.1827892 0.2037453 -0.4143609 0.1844603 -0.150029 0.1253196 0.3651777 0.2118433 0.205375 0.3279004 0.1030701 -0.4421246 0.3131366 -0.1552929 
  0.1451951 -0.169008 0.1504691 0.2603985 0.15802 0.1496032 -0.1122737 -0.1291957 0.200346 -0.1829578 0.2299614 0.02332158 0.1155185 -0.328444 0.1850941 0.04610121 -0.08769568 -0.1536803 -0.1442325 0.05012627 0.0843175 -0.08602263 0.1739669 -0.3245204 
  -0.5818021 -0.3029868 -0.2800063 0.05091905 0.2934405 0.3429576 -0.0498132 0.5436708 -0.3244386 0.4916558 0.113834 -0.2829939 -0.105561 -0.002511193 -0.3182693 0.04935369 0.1348314 0.3151604 0.1779374 -0.1320139 0.197747 0.2101019 0.09525673 -0.2813442 
  0.1184828 0.03039768 0.4078608 0.02998106 0.383324 0.3267573 0.3132623 -0.4466526 -0.3971168 -0.314311 -0.1780869 -0.7007887 -0.09448157 0.02811751 -0.2211312 0.007603844 0.1343053 0.6029919 0.27819 -0.1643774 -0.3087802 -0.1807517 -0.222517 -0.04447208 
  0.06140399 0.5982472 -0.1482211 -0.05434666 -0.2752967 -0.616989 0.1009107 -0.2113647 0.4817786 -0.7111731 0.3826191 0.1168218 0.458662 0.2094842 -0.4655644 -0.02041702 0.193386 -0.1945656 -0.2501008 -0.1258353 0.03008732 -0.00469538 0.2129378 -0.1576777 ]
<BiasParams>  [ 0.7912743 -0.7178106 1.260304 -0.1585924 -0.6983877 -0.3110745 0.2995715 0.5515368 0.6566833 0.1514454 -0.1637872 -0.564283 0.1981006 -0.1311957 -0.446714 0.9739251 0.513443 -0.7132721 ]
<OrthonormalConstraint> 0 <UseNaturalGradient> T <NumSamplesHistory> 2000 <AlphaInOut> 4 4 <RankInOut> 12 9 </TdnnComponent> 
<ComponentName> tdnnf2.relu <RectifiedLinearComponent> <Dim> 18 <ValueAvg>  [ 1.754085 1.16574 2.313057 1.28184 0.6238977 1.512815 1.28776 1.654414 2.017691 1.698329 1.258561 1.417537 0.9367802 1.862176 0.569629 1.817848 1.883419 1.039989 ]
<DerivAvg>  [ 0.5608882 0.3686526 0.6601639 0.4344407 0.3423324 0.4254141 0.5022277 0.5523332 0.5874037 0.5070487 0.426759 0.4140812 0.5427913 0.5001001 0.325449 0.6355334 0.5579124 0.3997925 ]
<Count> 2827888 <OderivRms>  [ 0.02299286 0.02864113 0.02767034 0.03347074 0.05913024 0.02845295 0.02420607 0.02698819 0.02169286 0.0226633 0.02686432 0.02525564 0.03981348 0.02212683 0.0348359 0.02519945 0.02549147 0.02722038 ]
<OderivCount> 4213584 <NumDimsSelfRepaired> 0 <NumDimsProcessed> 3991.5 <SelfRepairScale> 1e-05 </RectifiedLinearComponent> 
<ComponentName> tdnnf2.batchnorm <BatchNormComponent> <Dim> 18 <BlockDim> 18 <Epsilon> 0.001 <TargetRms> 1 <TestMode> T <Count> 48491.7 <StatsMean>  [ 1.776093 1.182591 2.386467 1.279797 0.6806625 1.509417 1.35267 1.614986 2.013114 1.810112 1.291733 1.454358 0.9302121 1.747449 0.626317 1.813693 2.000033 1.023994 ]
<StatsVar>  [ 6.719328 5.275707 5.82915 6.555412 1.70759 6.473797 4.607258 4.948964 5.998287 6.655646 4.808567 6.90289 2.244265 5.859302 1.583514 4.466133 5.95792 2.982075 ]
</BatchNormComponent> 
<ComponentName> tdnnf2.dropout <GeneralDropoutComponent> <Dim> 18 <BlockDim> 18 <TimePeriod> 0 <DropoutProportion> 0 <TestMode> <Continuous> </GeneralDropoutComponent> 
<ComponentName> tdnnf2.noop <NoOpComponent> <Dim> 18 <BackpropScale> 1 </NoOpComponent> 
<ComponentName> tdnnf3.linear <TdnnComponent> <MaxChange> 0.75 <L2Regularize> 0.01 <LearningRate> 0.001927981 <TimeOffsets> [ -1 0 ]
<LinearParams>  [
  -0.06401733 0.6396047 0.5930835 0.1683538 0.4208479 0.1449398 0.1841111 0.1624109 0.02406867 0.1161295 -0.4795841 -0.3614025 -0.5455662 0.02842551 -0.07899092 -0.2803857 -0.4918386 0.1830049 -0.07116485 0.3300009 -0.4151167 0.1312963 0.3339074 -0.3490057 -0.007259059 -0.04761215 -0.2020476 0.3068605 0.1534971 -0.5291341 -0.05647657 -0.2156 0.1531372 0.2948455 -0.2192979 -0.1010108 
  0.2604768 -0.1889531 -0.4048506 0.3598582 0.3365032 -0.3367918 0.6763217 -0.03169902 0.002611534 0.7216301 -0.04296399 -0.2343628 0.13595 -0.5959001 0.2871043 0.07626873 -0.4911214 -0.2555712 0.1890247 -0.2987763 0.1042171 -0.3214517 0.3874911 0.2112193 0.2556993 0.2598633 0.06716729 0.4209985 0.0526302 0.04264266 0.05451569 -0.1101068 -0.1592821 -0.143232 0.04753043 0.2076974 
  -0.2835412 0.1211165 -0.07790209 -0.05411359 0.1537944 -0.4030261 -0.009534003 -0.1434056 0.7111167 0.1432763 0.4163486 0.272789 -0.3436151 0.1540501 -0.1030564 0.02219181 -0.7510123 0.0899516 -0.07727217 0.2268503 0.369393 0.03723183 -0.4277717 0.01192956 -0.3330653 -0.2583601 0.5782697 0.1064659 0.2982419 0.2698231 -0.1829768 0.03171351 -0.3842426 0.3780784 0.07740521 -0.1357768 
  -0.1513544 -0.143438 0.5773073 -0.2156685 0.3362362 -0.4002926 -0.07449021 0.09950928 0.2687686 0.240195 0.2776736 0.3586614 0.7012388 -0.02584825 -0.2136421 -0.2844219 0.1841422 0.1581761 -0.2464306 -0.07054009 -0.1286734 -0.5702524 0.5656497 -0.611345 0.009382851 -0.1199076 -0.09599845 0.1101365 -0.1973835 0.3853261 -0.146023 -0.1764149 0.2000857 0.05911079 0.123086 -0.2649688 
  0.02306629 0.06833898 0.0136627 -0.7580584 -0.06542717 0.07042757 -0.1764365 0.2469885 -0.4268012 0.1913091 0.4306394 -0.333445 -0.2251026 0.09121194 -0.1847079 -0.2076356 -0.1558834 -0.5325242 0.5301996 -0.1064953 -0.308158 -0.1123577 -0.0330779 -0.15659 -0.3181282 0.01792891 -0.09244929 0.4610692 0.3498277 0.3356071 0.0913785 0.2377179 -0.2284624 -0.5018843 -0.2803379 -0.405509 
  -0.4237481 0.4667648 0.02304392 0.4225756 -0.2687975 0.3314813 0.2632846 0.2890631 -0.3166086 0.3369437 0.6201018 0.4959003 0.2369704 -0.3537854 0.1201584 -0.5647718 -0.03014785 -0.1326123 -0.2046691 0.1930531 0.2370999 0.4201964 0.08604537 0.2567764 -0.2216195 0.1629758 -0.2028578 -0.2811749 0.3764288 0.07862709 0.2514658 -0.1049487 0.2856666 0.003254934 -0.03437273 -0.1736911 
  0.181343 0.4539559 0.1822031 0.1590179 0.09146029 0.0576995 -0.5293892 -0.4667625 0.1774685 0.303801 0.1300841 -0.2451955 0.5598351 0.1881956 0.1024582 0.5155462 0.05850619 -0.007424285 -0.01729624 0.03029654 0.2688739 0.5490184 0.05842063 0.2789079 0.344782 -0.3128825 0.1524775 0.3902649 0.17668 -0.02617564 -0.1852906 -0.4558014 0.2213663 -0.5118583 -0.3443049 -0.3115206 
  -0.06647901 -0.09023762 -0.6519889 0.1951613 0.3834436 -0.2110624 -0.05671708 -0.1798286 -0.4688332 -0.1526119 0.5776095 -0.2677957 -0.3494251 -0.1575709 -0.3017645 0.1761385 0.175308 0.2218955 -0.0300473 0.02613431 -0.03619585 0.4833842 0.3871221 -0.5581348 -0.28081 -0.4772669 -0.2218739 -0.05645362 0.01707109 0.17432 -0.2163612 -0.4262105 0.02513525 0.03080574 0.1356999 0.4474566 
  -0.4619286 -0.4071975 -0.2080577 0.02377801 -0.236322 0.6465009 0.3553643 -0.1307339 0.3956432 0.1822394 -0.4981095 0.3422916 -0.03572133 -0.1763978 -0.1303153 0.2189961 0.0808847 -0.2623972 0.2019833 -0.1553683 -0.4696947 0.1622566 0.01669435 -0.3712472 -0.111243 -0.1950268 0.3492602 -0.05140467 0.1089316 0.4272535 -0.1027167 -0.3592202 0.2743757 0.01064576 -0.6864234 0.05165233 
  0.1603639 -0.4785755 0.7013989 0.1512062 -0.0009188969 -0.01317095 0.1593779 0.02359967 0.04936381 -0.1405602 -0.2095305 -0.07533883 -0.2764535 0.05674653 0.2861168 -0.02927515 -0.08435051 -0.03570604 -0.1048798 -0.5218473 0.6986938 0.2659112 -0.3980038 -0.399458 -0.1888583 0.01379351 -0.4565246 0.2504899 0.5673307 0.3351098 0.02661374 -0.09555571 0.3519858 -0.2553336 0.2420202 0.2186824 
  -0.9032575 0.3015383 -0.1853809 0.1952943 0.3703413 0.09266704 -0.0526447 0.0993929 0.1649562 -0.3589605 -0.3282027 -0.4501325 0.1181042 0.1557504 0.1697347 0.3493621 0.0001890324 -0.2820171 -0.1238648 0.2316849 0.304676 -0.1970656 0.3358232 -0.302694 -0.1005383 0.461137 0.1331936 -0.3121948 0.1439091 0.2115715 0.1267859 0.233309 -0.1970751 -0.6176791 0.2852318 -0.04418094 
  0.2538452 -0.3054343 0.2672216 0.05139765 0.8158988 0.2506773 0.1081523 0.2357048 -0.1402247 -0.2447616 0.05324661 0.3139091 0.2426943 0.3434386 -0.09119616 0.3031935 -0.4083584 -0.1117826 -0.02797341 -0.2073201 -0.1898418 0.2658204 0.05476884 0.380383 -0.2920666 -0.1064039 -0.1986627 -0.3651188 -0.1850857 0.09406732 0.6669587 -0.3279992 -0.5627781 -0.02282684 -0.2094575 -0.1420498 ]
<BiasParams>  [ ]
<OrthonormalConstraint> -1 <UseNaturalGradient> T <NumSamplesHistory> 2000 <AlphaInOut> 4 4 <RankInOut> 18 6 </TdnnComponent> 
<ComponentName> tdnnf3.affine <TdnnComponent> <MaxChange> 0.75 <L2Regularize> 0.01 <LearningRate> 0.001927981 <TimeOffsets> [ 0 1 ]
<LinearParams>  [
  0.1849175 0.3741021 0.1871541 -0.2070446 0.2296412 -0.03384631 0.2008815 0.4428803 -0.225104 -0.1112618 -0.4400932 -0.1399016 0.3418981 0.3214889 0.2701392 0.1180535 0.2961027 -0.2644586 0.34619 0.2423291 0.1863403 -0.002841901 -0.05742593 -0.08945702 
  0.7088743 0.5529733 0.2719259 0.5368843 -0.1241811 -0.01603092 -0.4998578 -0.1755641 0.2154829 0.2601249 -0.06278147 0.1849872 0.3369434 0.06977918 -0.02303118 0.4675706 0.3356118 -0.4934472 -0.1275895 0.2544597 0.01263891 -0.4235001 -0.04418335 0.08089404 
  0.6147243 -0.4587286 -0.01178331 -0.07665432 0.03789375 -0.615818 0.1314659 -0.2457472 -0.1275151 -0.05612079 0.3859964 0.1081535 0.1066489 -0.03355474 -0.04219935 -0.187227 -0.02751628 -0.4382874 -0.006303823 -0.04291065 -0.2768424 -0.240945 0.2559266 0.0617328 
  -0.07866912 -0.2218904 -0.01645936 -0.158769 0.3324186 -0.3487596 -0.4195811 -0.07666034 0.481163 -0.6856713 -0.03340087 -0.06800787 0.1433243 0.001803423 -0.08912542 -0.1980492 -0.2633695 0.6817021 0.4345733 0.8679622 0.1245004 0.6550125 -0.3453503 -0.06247649 
  0.2761058 -0.1828678 -0.3506029 -0.1974253 0.236529 -0.3686486 -0.2180424 0.4575986 -0.5748814 -0.008124756 0.1714319 0.0283795 -0.6592174 -0.2696357 -0.156297 -0.6655172 0.03330624 -0.01635831 -0.01360317 -0.3144892 -0.1421209 -0.4039962 -0.07081728 -0.2142707 
  0.2521744 -0.5290935 0.3327134 -0.1446004 0.02026554 0.1401672 0.1853627 -0.1721109 0.04791341 -0.2603066 0.2314433 0.3908458 0.1019361 -0.1938436 0.5471674 -0.4761412 0.2586614 0.4042107 0.1294135 -0.1646135 0.0790047 -0.3657031 -0.09065546 0.4267183 
  0.1095647 0.3026085 -0.06405826 -0.3412349 0.2877499 0.02458804 0.0229734 -0.2704292 -0.1195881 0.2606404 -0.5682911 -0.121111 -0.03460308 0.402508 -0.2063372 -0.2621962 -0.1162741 0.1936592 0.2418785 -0.3403893 -0.2045833 0.1251843 -0.2416626 0.1164719 
  -0.08638781 0.372978 -0.04413883 0.1055824 0.2215902 0.293936 -0.03142626 -0.08430068 -0.07869983 0.001432222 0.2645286 0.5733032 0.05518093 0.1299251 -0.1014641 0.2374095 0.2066143 -0.07189617 -0.1215457 0.1719361 0.2325895 0.06254438 0.006633403 0.5556876 
  0.0529391 0.1312677 0.006414214 0.1311831 0.44914 -0.4449749 -0.4460229 -0.07795054 -0.03287147 0.2369624 -0.4404736 0.1097481 -0.219416 -0.03458364 -0.07138374 0.0767872 0.2876038 -0.3558041 -0.1996658 -0.04106567 -0.1670624 -0.216854 -0.2763988 -0.02726784 
  0.3118074 -0.003164355 -0.08376937 -0.2146699 0.2943484 -0.2758189 -0.1774738 -0.5787857 -0.1048733 0.3551141 -0.3164525 0.07613814 0.08102126 -0.08438113 0.03365612 -0.2584364 0.2366132 0.005684447 -0.06247597 -0.5522007 -0.1368564 0.1035504 -0.1240823 0.1267527 
  -0.4771609 -0.6898406 0.1535621 0.2116422 0.2977777 0.2949474 0.1329074 -0.2642208 -0.2586417 0.5349505 -0.2597672 0.1859118 -0.3656662 0.06100028 -0.2995521 0.1183372 0.4326299 0.1443115 0.1197657 -0.08481603 -0.03116436 0.4164567 0.03367007 0.09926955 
  -0.3085098 -0.1103306 -0.3531784 -0.585319 -0.3527281 -0.2019159 -0.2417802 0.04872562 0.3448489 -0.10655 -0.1795645 0.4906113 0.2208607 -0.2144372 -0.01900425 -0.6618583 -0.6058042 -0.3377665 0.07585561 -0.1626408 -0.1564427 -0.2999161 -0.3495513 0.1118323 
  -0.3751027 0.4455815 0.07635605 0.3095611 0.2064947 0.1939525 0.1618297 0.1284485 0.1129234 -0.3636375 -0.1371666 -0.2760658 -0.09310062 0.3226807 -0.1163684 0.2343362 0.2029708 0.1969862 -0.492108 0.2679982 0.4257947 -0.04115224 -0.2293895 0.3851003 
  0.04586878 0.4869453 -0.04687527 0.1867322 -0.07184982 -0.1717927 -0.5708367 0.469418 0.2544048 0.3141162 0.06173029 0.2592998 -0.02825759 -0.03034825 -0.02581911 0.5693423 -0.2657021 -0.5019528 -0.4069076 0.4768319 -0.1704237 -0.04950317 0.1204523 0.07685438 
  0.06533612 -0.09714033 0.1729843 -0.2165524 -0.03559743 -0.314935 -0.08811015 0.2013116 0.1711529 0.01209551 0.07051598 -0.2594673 0.09617046 0.2395799 -0.4682662 0.2406545 0.2271117 0.1872241 -0.1842599 -0.1361338 -0.1284646 -0.2601196 0.4406316 0.3281756 
  -0.2125071 0.1221544 0.03402503 -0.2090686 -0.2838044 -0.5511628 0.3480234 0.02595558 0.7693528 -0.03453091 0.1287216 0.003574217 -0.3289092 0.4162802 0.3831682 0.4241095 -0.02381054 -0.02228075 0.005833992 0.06107232 0.4677256 0.3084184 -0.1740939 0.08871336 
  -0.5225818 -0.2484636 -0.1248555 -0.6172459 0.3632765 0.2578924 -0.1201969 -0.3464253 0.3828924 -0.3715111 -0.1231764 -0.7377041 -0.2893003 -0.2714555 0.2530535 -0.04850876 -0.05559839 -0.2771111 -0.2349658 -0.4743946 -0.1194555 -0.4310027 0.03358689 -0.1786872 
  -0.2296779 -0.1280545 0.03072694 0.2743264 0.1141927 -0.6120196 -0.1667967 -0.5460342 0.2198061 0.3678581 0.08388957 0.2332375 0.01693526 0.2149623 -0.1697953 0.1048743 -0.237188 -0.06299337 -0.5307267 -0.3864345 0.3131638 0.1798334 -0.1481689 0.09305607 ]
<BiasParams>  [ 0.5046199 0.3564492 0.242597 -0.2989522 -0.2724756 -0.009582838 0.3030463 0.8528091 0.5264248 -0.06929962 -0.7363287 -0.2408525 0.1135543 -0.106599 0.2031853 -0.06619353 0.03328792 0.3565225 ]
<OrthonormalConstraint> 0 <UseNaturalGradient> T <NumSamplesHistory> 2000 <AlphaInOut> 4 4 <RankInOut> 12 9 </TdnnComponent> 
<ComponentName> tdnnf3.relu <RectifiedLinearComponent> <Dim> 18 <ValueAvg>  [ 2.061993 1.851148 2.093656 1.467212 1.29506 1.723425 1.749641 1.939349 2.374963 1.594395 1.038341 1.82962 1.36949 1.822948 0.8212498 1.794165 2.543241 2.708756 ]
<DerivAvg>  [ 0.5055128 0.4969577 0.5292571 0.4171758 0.4822694 0.4887644 0.4790456 0.579863 0.6221751 0.5008636 0.3533525 0.4533694 0.5291141 0.5085966 0.5649633 0.4685997 0.4546303 0.5655524 ]
<Count> 2956752 <OderivRms>  [ 0.01690776 0.01651602 0.01747899 0.02254653 0.02008068 0.01873778 0.01619893 0.01790714 0.0183934 0.01380315 0.01855451 0.01850683 0.02193085 0.02001036 0.03286632 0.019873 0.01808714 0.01696543 ]
<OderivCount> 4040640 <NumDimsSelfRepaired> 0 <NumDimsProcessed> 4563 <SelfRepairScale> 1e-05 </RectifiedLinearComponent> 
<ComponentName> tdnnf3.batchnorm <BatchNormComponent> <Dim> 18 <BlockDim> 18 <Epsilon> 0.001 <TargetRms> 1 <TestMode> T <Count> 47979.7 <StatsMean>  [ 2.116266 1.921231 2.093316 1.487314 1.295294 1.781083 1.759822 1.982307 2.389891 1.589398 1.069234 1.901575 1.393956 1.847824 0.8212138 1.739697 2.581193 2.655993 ]
<StatsVar>  [ 10.65385 8.237188 7.580813 7.167636 4.108369 7.83379 7.8373 7.688334 6.519893 5.318673 4.846208 9.962988 3.783159 7.313415 1.630627 7.124341 16.50647 10.12438 ]
</BatchNormComponent> 
<ComponentName> tdnnf3.dropout <GeneralDropoutComponent> <Dim> 18 <BlockDim> 18 <TimePeriod> 0 <DropoutProportion> 0 <TestMode> <Continuous> </GeneralDropoutComponent> 
<ComponentName> tdnnf3.noop <NoOpComponent> <Dim> 18 <BackpropScale> 1 </NoOpComponent> 
<ComponentName> tdnnf4.linear <TdnnComponent> <MaxChange> 0.75 <L2Regularize> 0.01 <LearningRate> 0.001927981 <TimeOffsets> [ -1 0 ]
<LinearParams>  [
  0.1928141 0.1722553 0.4283509 -0.3520455 -0.1379008 -0.5237539 0.2414659 -0.3112516 -0.1701593 -0.1555452 0.5338361 0.1604854 -0.1432989 -0.09012423 0.09871835 0.3089183 -0.2514308 -0.03252637 0.1553328 0.06520516 -0.02503155 0.1965877 0.09511519 -0.2873315 0.2475716 0.08170941 -0.1397495 -0.07813216 0.3816189 0.226943 0.2171812 -0.3631666 -0.5239283 -0.02912716 -0.6270711 0.3395792 
  -0.4117626 0.1613015 0.3259991 -0.06727751 -0.06591656 0.0867898 -0.3404314 -0.1104973 0.178967 0.1285937 0.071684 -0.2903533 -0.4561183 0.5449687 0.02678338 0.194259 0.6424593 -0.09107383 0.2293551 0.5105755 0.02083618 0.4423572 0.04823884 -0.2140163 0.1277354 -0.3351561 -0.07257465 0.07051647 -0.1265655 -0.4857481 -0.3088008 0.2818759 -0.3345907 0.1409762 -0.06819507 -0.1348529 
  0.01111339 -0.2067726 0.3385122 0.06816091 -0.1019309 -0.3492211 0.05646963 -0.2076737 0.8588449 0.2037025 -0.2084727 0.6782786 -0.1909309 0.1152172 0.07166997 0.04393201 0.5500653 0.4795502 -0.1277533 -0.147135 -0.05916332 0.03637893 0.06096935 0.05515715 0.2750852 0.2084389 0.156082 0.06941506 -0.2283711 0.3436295 0.2508957 -0.1199501 0.2353044 -0.08996568 0.0875877 0.09421821 
  0.0808581 -0.1729546 -0.1502958 0.2050738 -0.140614 0.09180799 -0.08635613 -0.2393798 -0.1749941 -0.4152797 0.4161187 0.3669094 -0.2231059 0.2617458 -0.3400427 0.0688506 -0.2042595 0.1869678 0.08792371 0.4344401 0.3762038 -0.4550731 0.5167359 -0.4930169 -0.2097804 -0.03802373 0.02966764 -0.03928231 -0.4260469 0.1285792 0.2696848 0.4138429 0.2493556 0.2840959 0.0803181 0.1043065 
  0.4144191 0.3343232 0.04180396 -0.1208019 0.7118949 -0.02667046 -0.04839694 0.3154877 0.3212385 -0.2374801 -0.06666987 -0.1515347 -0.06986273 0.05418785 -0.2142104 -0.05347537 -0.3162355 0.5168306 -0.4360083 -0.01494689 -0.0128958 0.333182 0.03854002 -0.06569847 0.2403241 0.2263045 -0.4515735 -0.150188 -0.1973808 -0.4610954 0.2875844 0.09902503 -0.004818967 0.4086335 -0.1622236 -0.2504382 
  0.4867685 0.03931612 -0.2771577 0.7260472 0.06488106 -0.1634228 0.3775119 -0.1796524 0.01542652 0.0392172 0.03143733 0.05913179 -0.4356921 -0.4942027 -0.1071703 -0.1194624 0.1820688 -0.4067019 -0.1979695 0.06810319 -0.01700019 0.5529904 0.139622 -0.06174942 0.05241507 0.1058057 0.1065267 -0.2448939 0.003462327 -0.1203142 -0.5452381 0.3053242 0.1673465 0.05224115 -0.06393774 0.4139134 
  0.342591 0.06085891 -0.4707048 -0.0157253 0.1866623 -0.1809218 -0.3426417 -0.3898144 -0.1939915 -0.201283 0.4529553 -0.1829465 -0.0313635 0.5717995 0.0503675 -0.1162402 0.4650403 -0.3442163 -0.1920685 -0.2531595 -0.2024727 0.044609 -0.2003419 0.4483739 0.08105034 0.2891575 -0.4167249 0.232339 -0.1986491 0.4628711 0.22821 0.177328 -0.1339983 -0.02912107 0.1192176 0.09279364 
  0.3805222 0.3424839 0.02384047 -0.2849911 -0.1224891 0.1513847 -0.2522171 -0.1281351 0.2334124 0.2233481 0.4053347 0.1787558 0.101308 -0.1949719 -0.1229684 -0.4450352 0.1231368 0.06178848 0.01123841 0.5315604 0.1884988 -0.4280535 -0.413869 -0.1197724 0.2305326 0.2757081 -0.1785168 -0.04576293 0.4191739 -0.4069605 -0.09458621 0.1680318 0.2441515 -0.6437742 0.1245172 0.07730613 
  0.2524942 0.3936442 -0.1686464 0.01094017 -0.1166928 -0.5406058 0.1948001 -0.1449269 0.1621097 -0.05149036 -0.4376249 -0.004601582 0.3109758 0.3436732 -0.03022893 0.2963067 -0.07194652 -0.5870116 0.09732 0.2987062 -0.1764874 -0.2598728 0.4044925 -0.1783779 -0.09098251 0.2406513 -0.09039836 -0.04160549 -0.4339206 -0.3600161 -0.1451323 -0.5170528 0.1126751 -0.3003957 0.08958016 -0.3613263 
  0.07535157 -0.3281085 -0.4516367 0.3590177 -0.2255016 -0.0862944 -0.09278326 0.2565815 -0.03661134 -0.4256642 0.3206396 0.5280025 0.5454267 0.08785813 0.1880962 -0.0469783 0.0418408 0.3651342 0.3726048 0.07067504 0.07661024 0.7317981 -0.01203503 0.003493579 0.09736469 -0.1834945 -0.2118412 0.04387957 0.1309481 -0.2071797 -0.1234189 -0.2022371 -0.1485673 -0.2555999 0.1639523 -0.4304958 
  0.08596288 0.3503203 -0.06054967 -0.0595816 0.5773269 -0.2124361 -0.2915122 0.4773521 0.17308 -0.3252022 0.003777879 0.3187408 -0.4051879 -0.1048108 -0.0224109 -0.4147159 0.04312466 -0.2642748 0.6119473 0.01140539 -0.1344062 -0.1626224 -0.4318238 -0.3817768 -0.1583675 -0.2113293 0.216273 0.1173205 -0.07388747 0.4722342 -0.2571256 -0.2930609 0.04586331 0.1860527 -0.05903871 -0.1442295 
  0.1112149 0.003754638 0.2393827 -0.2339744 -0.07144816 -0.2831795 0.01811771 0.375438 -0.08703863 0.2498094 -0.07942328 -0.1571561 -0.1353871 0.107669 0.2688169 -0.3097647 -0.2281187 0.2210472 -0.04710012 0.1085582 -0.321938 0.1756184 0.4560264 -0.2986615 -0.2799904 0.1071834 -0.2664898 -0.3755122 0.01441918 0.518718 -0.1933829 0.4536866 -0.3574583 -0.4127954 0.7037218 -0.003573132 ]
<BiasParams>  [ ]
<OrthonormalConstraint> -1 <UseNaturalGradient> T <NumSamplesHistory> 2000 <AlphaInOut> 4 4 <RankInOut> 18 6 </TdnnComponent> 
<ComponentName> tdnnf4.affine <TdnnComponent> <MaxChange> 0.75 <L2Regularize> 0.01 <LearningRate> 0.001927981 <TimeOffsets> [ 0 1 ]
<LinearParams>  [
  0.09536266 -0.1090623 0.05619486 0.3664235 -0.1139382 0.4069915 0.1998657 0.1682596 -0.07359829 -0.1781284 0.1954216 0.09269002 0.2162091 0.1412668 0.01164693 0.4918069 -0.0858437 -0.1320047 -0.5452056 0.1300406 -0.09830423 -0.259727 0.3999659 0.4317252 
  0.2417862 -0.4983048 -0.3084851 -0.09137243 -0.01223164 -0.2313691 -0.5307627 0.07462196 -0.2185057 0.1831178 -0.3675681 -0.1190253 -0.3442253 0.3051367 -0.2197073 0.7254515 -0.01042314 -0.01264334 -0.4292561 -0.2283928 0.362258 -0.1842582 0.01440047 0.195463 
  0.2151547 0.1531504 -0.1622404 -0.06132673 0.200718 -0.2282632 -0.3082269 -0.1107521 0.1213009 -0.481086 0.3329518 0.1562574 0.2319812 -0.06967816 -0.4053478 0.1509426 -0.007817935 -0.2099325 -0.2462442 -0.004818122 0.08348031 -0.116779 0.1470953 -0.5113112 
  -0.05580688 -0.4514673 -0.446485 0.7104946 -0.3352742 0.3701453 0.4287483 -0.1045465 0.3497202 0.4686241 0.07562355 -0.3868859 0.07101898 0.05333889 -0.01465458 -0.2669869 -0.07252769 -0.02601526 -0.1824476 -0.1902291 -0.1334836 0.04946499 -0.114025 -0.02668459 
  0.1556763 0.2567126 -0.4571517 -0.1229569 0.5808146 -0.1440333 -0.06689958 -0.03234889 0.3942029 -0.3167597 0.4229722 0.2739031 -0.2860752 -0.00905179 0.2875608 0.01129043 -0.5047662 -0.168524 0.4057052 0.0403802 0.2777201 0.1267783 0.3220559 0.3417053 
  -0.1416599 -0.1588925 0.2079421 -0.251563 -0.0680307 -0.3845527 -0.1844523 -0.03212165 0.06285691 -0.1811222 0.05342374 0.0155335 0.04819734 -0.1783548 -0.3414656 -0.4021749 0.1473319 -0.2146701 -0.01589695 -0.1069312 0.2295451 0.5413246 -0.05321414 0.4116224 
  -0.2080753 -0.09877369 -0.3853644 -0.4377402 0.01632353 -0.448679 0.2144004 -0.1006438 -0.01819203 0.2729242 0.2428392 0.3141767 0.2128062 0.2271276 -0.008848796 0.01730418 0.1109921 0.0943239 -0.0896156 -0.135904 -0.2804853 0.2988517 0.3691711 -0.09049221 
  0.2375271 -0.2584244 -0.230264 -0.07212232 -0.2760697 -0.175815 -0.4020748 0.04253208 -0.3544322 -0.1292332 -0.2067698 -0.1207283 0.2234649 -0.425193 0.28941 0.4147693 -0.4958003 -0.1741479 0.1507951 0.2635567 -0.257555 -0.442314 0.1232155 0.4284647 
  0.319313 0.005501947 0.132333 0.06180339 0.3677787 -0.3125253 0.3450589 0.499457 0.1776596 0.2098939 0.5359245 0.3422916 -0.1332119 -0.2617548 0.1232428 0.1077546 -0.5976636 -0.3064482 0.5486932 0.01065756 -0.2689549 -0.002608145 -0.001086654 0.2033514 
  0.1167161 -0.2542124 0.2711813 -0.4335318 -0.01511782 0.623246 -0.2864529 0.1045997 0.3603504 -0.0962301 0.2183719 0.1010816 -0.0972073 -0.1113283 0.1116448 -0.1323985 -0.215824 -0.2214983 -0.03972355 0.2809386 0.5809399 0.289245 0.3051028 -0.1456081 
  -0.1851356 0.7180552 0.4798836 -0.1938963 -0.1033038 -0.3434274 0.32783 0.1965916 -0.01554341 -0.2872444 0.1475505 0.02347328 0.3160276 0.05403357 -0.3582672 -0.2327561 0.129513 0.06070602 -0.003303772 -0.4323918 -0.04989562 0.4573538 0.2781956 -0.1850356 
  -0.2487145 -0.2092295 0.2931187 -0.03478447 -0.2857095 -0.1232887 -0.02478832 0.1070447 -0.08600631 0.4370762 0.08138029 -0.3199242 -0.3312868 -0.4478703 0.1175332 -0.2776995 -0.3641772 -0.1349991 0.0576705 -0.3962944 -0.2999799 -0.2202758 -0.01560865 -0.1899818 
  -0.07441615 0.04183655 -0.5476251 -0.1910674 0.07321101 0.5114515 0.2427699 0.5184883 0.4426323 -0.3488191 0.3631842 -0.00718724 -0.1450703 0.1267591 -0.02260089 0.1820244 0.4473404 0.1225916 0.1840305 -0.5596221 -0.1730091 -0.4097039 -0.2405977 -0.007527483 
  -0.465334 -0.203463 0.3863235 -0.04491074 0.3015574 -0.2193797 -0.1799699 -0.4928238 0.09570175 0.3557119 0.04585233 0.02874399 -0.3798558 -0.0854861 0.1998727 0.5166284 0.1174895 0.0315147 -0.1595943 -0.2538438 -0.09073068 0.03694578 0.07750579 0.354885 
  0.2732484 0.4009195 0.307813 -0.09522241 0.06431147 -0.08795424 -0.01183671 -0.08460134 0.09178913 -0.2220521 -0.04414776 -0.009470042 0.2732041 -0.3108001 -0.02376337 0.2300176 0.1336243 -0.09679392 -0.1597178 -0.01585982 0.42656 -0.2046224 -0.0208201 -0.3024935 
  0.1399964 0.08328511 -0.4866392 -0.1010107 -0.07425255 0.1890463 -0.2607298 -0.6476797 0.1126328 -0.5184072 -0.283454 0.003057266 -0.2415498 -0.07031191 0.4083383 -0.07894076 -0.3080666 -0.1234068 -0.01499404 -0.3902928 -0.4926946 -0.3927851 0.09970713 0.0810662 
  -0.6399924 0.6920967 -0.1122752 -0.2528383 -0.3977602 -0.006596268 0.415554 0.1342652 0.07100306 -0.3065295 -0.06120649 -0.1629682 -0.4592704 0.3332745 -0.1861846 0.3234054 -0.1370081 -0.1688595 -0.1068497 0.213698 0.1338354 -0.2333056 -0.04250486 0.003477849 
  0.3533826 0.03314902 0.4335558 -0.03874195 0.1895956 -0.473398 -0.2120341 0.1450635 0.05323092 -0.2987187 -0.02718236 0.03330131 0.1941708 -0.3559649 -0.1786106 0.1635154 0.1736718 -0.1871666 -0.177716 0.03805212 0.01376188 -0.3928539 -0.5334479 -0.2509047 ]
<BiasParams>  [ 0.4419846 0.1008952 -0.04309205 0.5774174 0.280752 -0.1072582 -0.4357421 0.2561637 0.2793131 -0.3182802 0.31079 -0.2595851 0.2426013 0.3656655 0.3079633 0.01727487 0.5054541 0.5042016 ]
<OrthonormalConstraint> 0 <UseNaturalGradient> T <NumSamplesHistory> 2000 <AlphaInOut> 4 4 <RankInOut> 12 9 </TdnnComponent> 
<ComponentName> tdnnf4.relu <RectifiedLinearComponent> <Dim> 18 <ValueAvg>  [ 2.318879 1.435277 1.888293 1.92575 1.710343 1.28822 1.062677 1.835534 1.740638 1.407254 1.266099 1.787324 1.585743 2.251529 1.716866 1.679266 2.550138 1.920274 ]
<DerivAvg>  [ 0.548466 0.5297147 0.4824567 0.4769642 0.5117329 0.4380217 0.3952611 0.4733509 0.4648061 0.4159521 0.5508225 0.466885 0.5887389 0.5449709 0.522414 0.47786 0.4930072 0.5328591 ]
<Count> 901456 <OderivRms>  [ 0.0381158 0.03576512 0.03197797 0.03374599 0.03396053 0.03508656 0.05411332 0.03800398 0.0362772 0.02986881 0.03327927 0.02856551 0.03580197 0.03299527 0.03768112 0.03482681 0.03211445 0.03416197 ]
<OderivCount> 1388816 <NumDimsSelfRepaired> 0 <NumDimsProcessed> 4338 <SelfRepairScale> 1e-05 </RectifiedLinearComponent> 
<ComponentName> tdnnf4.batchnorm <BatchNormComponent> <Dim> 18 <BlockDim> 18 <Epsilon> 0.001 <TargetRms> 1 <TestMode> T <Count> 15993.23 <StatsMean>  [ 2.401409 1.42838 1.952742 1.927291 1.745041 1.364895 1.094418 1.795205 1.736653 1.446225 1.24086 1.850414 1.700207 2.333833 1.717076 1.704988 2.613503 1.960696 ]
<StatsVar>  [ 9.116951 4.671402 8.18476 7.097363 6.521121 5.102609 3.871766 8.454296 8.822706 7.33972 2.791048 9.430515 4.602113 9.97176 5.442182 6.71027 14.55403 7.414523 ]
</BatchNormComponent> 
<ComponentName> tdnnf4.dropout <GeneralDropoutComponent> <Dim> 18 <BlockDim> 18 <TimePeriod> 0 <DropoutProportion> 0 <TestMode> <Continuous> </GeneralDropoutComponent> 
<ComponentName> tdnnf4.noop <NoOpComponent> <Dim> 18 <BackpropScale> 1 </NoOpComponent> 
<ComponentName> tdnnf5.linear <TdnnComponent> <MaxChange> 0.75 <L2Regularize> 0.01 <LearningRate> 0.001927981 <TimeOffsets> [ 0 ]
<LinearParams>  [
  0.09236716 -0.1869906 0.5582408 -0.2360643 -0.5446157 -0.3972506 0.138145 0.2093726 0.4752835 -0.1170579 0.2253948 -0.4780039 -0.1175445 -0.1036064 -0.04685356 0.09359266 -0.3386313 -0.1263116 
  0.4374174 -0.1579642 -0.3995292 0.1790514 -0.4103274 -0.07588837 -0.2056732 -0.5014814 -0.06280262 -0.2213418 0.466045 0.1414711 0.1743392 -0.6301142 0.003322788 0.002900043 0.04118538 -0.05099794 
  0.04263964 0.1579987 0.2259069 -0.3678538 0.2727384 -0.0926476 0.3580667 -0.2509618 0.5060891 -0.3034921 -0.08037269 0.3546212 0.0860941 -0.2508243 0.0386739 0.2158163 0.3226829 0.6581984 
  0.1119576 0.1234633 -0.03211977 -0.2288475 -0.2915685 -0.1614024 0.1485496 0.1951971 -0.1839232 -0.3092014 0.2677138 0.5066679 -0.1367366 0.4792088 -0.3219582 0.4190331 0.457682 -0.4304015 
  -0.03929295 -0.06392074 -0.3811588 -0.6652975 -0.1954227 0.6211202 0.2587603 -0.2448848 0.2357693 0.1031936 -0.1187075 -0.1130852 0.4416325 0.1673031 -0.1296381 0.06642772 -0.2734669 -0.239411 
  -0.1157501 0.0542225 0.153466 0.3122731 -0.1802869 -0.008578951 -0.1782079 -0.1948223 0.1422071 -0.5758097 0.08343137 0.2709346 0.4454722 0.6165349 0.2249519 -0.3838172 -0.3489415 0.1572627 
  -0.1246335 -0.004784332 0.509445 0.1327076 -0.1995446 0.09621409 0.6697277 -0.4201103 -0.3609036 0.08117177 -0.05932992 -0.05537766 0.1276805 -0.1119498 0.1011181 -0.4622948 0.3872654 -0.300326 
  0.05700345 0.2737043 0.1889757 0.3863714 -0.06759796 -0.1240876 0.09478243 -0.05286369 0.03183506 0.3469962 -0.2429506 0.19042 0.5208457 -0.0728037 0.3552836 0.7582507 -0.2180623 -0.2370106 
  -0.1666172 -0.004386384 0.0165013 0.1004003 0.1018172 0.1507293 0.2160156 -0.3305184 -0.5520437 -0.4343944 0.1914433 -0.5384423 -0.1808809 0.1527731 -0.09786698 0.578732 -0.2415788 0.3341236 
  -0.08146952 -0.538479 0.1139945 -0.4559403 0.04941926 0.04419434 -0.2993589 0.2020645 -0.3130094 -0.3067463 -0.1164007 -0.01805723 0.1399795 -0.1223615 0.7938774 0.1256138 0.234435 -0.1251352 
  0.4178789 -0.1567681 0.3851689 -0.08319908 -0.1628781 0.1836316 -0.5501598 -0.5176739 0.05066342 0.4090601 -0.1280451 -0.1323733 -0.1290448 0.4577883 -0.07419137 0.1346408 0.320743 0.2244955 
  -0.6537729 -0.1339388 -0.01893383 0.1769031 -0.7627101 0.3382301 -0.09233065 0.2120333 -0.0347775 0.1493838 -0.09067723 0.2434882 -0.09114689 -0.1724562 -0.07216706 0.1270181 0.1280346 0.4613575 ]
<BiasParams>  [ ]
<OrthonormalConstraint> -1 <UseNaturalGradient> T <NumSamplesHistory> 2000 <AlphaInOut> 4 4 <RankInOut> 9 6 </TdnnComponent> 
<ComponentName> tdnnf5.affine <TdnnComponent> <MaxChange> 0.75 <L2Regularize> 0.01 <LearningRate> 0.001927981 <TimeOffsets> [ 0 ]
<LinearParams>  [
  0.2760931 0.6165549 -0.2361369 -0.1947809 -0.2377403 -0.05341288 -0.03293545 -0.3480242 -0.1373898 -0.3755125 -0.2367879 -0.221275 
  -0.01962381 0.1470211 -0.3002697 -0.2107934 0.1841084 0.2604919 0.1169548 -0.2306126 0.1914654 -0.157395 -0.1992838 0.250342 
  0.002672007 -0.05889681 0.2531627 0.2624217 -0.06423602 0.2700684 -0.02918608 0.09270617 0.3690013 0.371897 0.5892527 -0.5650705 
  -0.3302467 0.1382424 -0.4486032 -0.04280756 0.3378236 0.3847067 0.04750216 -0.2212199 -0.02045666 -0.01978344 -0.4114116 -0.166674 
  0.2251849 -0.5570918 -0.08519979 0.02478002 0.3646834 0.1653217 0.1570889 -0.2016903 0.07577708 -0.1452963 -0.6524445 -0.04485323 
  -0.2188985 0.4693162 -0.1469866 -0.3191405 0.1277158 -0.4641913 0.3148621 -0.2438138 -0.1881502 -0.02296845 0.1140258 -0.3552546 
  0.4083843 0.05373915 -0.1269769 -0.346624 0.03591388 -0.2652187 0.5783894 0.1325683 0.09617725 -0.2202145 0.1245361 0.3104464 
  -0.1890575 -0.1630268 -0.4215581 -0.3135525 -0.0978851 0.3061578 0.09374643 0.1288886 -0.004089522 0.4041858 -0.2511289 0.1877859 
  -0.1312146 -0.056128 0.3082848 -0.2913167 0.02759904 -0.246673 -0.1822861 -0.05843423 -0.3187793 0.007880701 0.3255758 -0.5532283 
  0.7881879 0.1985431 0.1727311 -0.09695238 0.02244595 -0.1788294 -0.6002331 -0.0932912 -0.1488079 0.1945899 0.2069488 0.1889576 
  -0.08539107 0.1727567 -0.236903 -0.4455842 -0.1097086 0.3196194 -0.1239771 -0.06941735 -0.1365498 0.5905574 0.1883542 0.2023027 
  0.4435539 0.4026347 0.127639 0.1897943 0.06269034 0.2262073 -0.2132615 0.001800241 -0.5030471 0.15011 -0.4991115 -0.03426105 
  -0.1011529 0.1373367 -0.1943935 -0.5450523 0.2091024 -0.0954655 0.1210543 0.3851774 -0.2604961 -0.09762403 0.1067617 -0.3711622 
  0.2138208 0.1276765 0.3050897 0.2921415 0.1772452 0.5188801 -0.6305162 -0.01710878 -0.2086722 -0.2379186 0.09157333 0.08326457 
  0.138273 -0.3239938 0.009030234 -0.2053269 -0.222279 -0.334982 0.4988651 -0.1686515 -0.3881062 -0.0409564 0.2454979 -0.1584442 
  -0.00879004 0.7170811 -0.3335682 -0.02680482 -0.07889682 0.2581436 0.1976593 -0.007156988 0.3427715 -0.1771626 0.3131507 0.09503637 
  -0.312852 0.06253722 0.1367645 0.6765736 0.4345397 -0.1393443 0.1650854 -0.04525921 -0.1376918 0.1667519 0.3731685 0.6353075 
  0.0923534 0.1813619 0.2772923 -0.5840886 0.4240168 0.03383366 0.0179317 -0.2413636 0.2056834 0.2450178 -0.2603632 0.3930763 ]
<BiasParams>  [ 0.405295 0.04791579 0.4063033 0.3302344 0.1988451 0.1429726 0.4291405 -0.1686883 0.5318653 -0.1094119 -0.3090629 -0.7986297 0.1157365 -0.1278675 0.1827991 -0.2986324 0.0504256 0.3202583 ]
<OrthonormalConstraint> 0 <UseNaturalGradient> T <NumSamplesHistory> 2000 <AlphaInOut> 4 4 <RankInOut> 6 9 </TdnnComponent> 
<ComponentName> tdnnf5.relu <RectifiedLinearComponent> <Dim> 18 <ValueAvg>  [ 1.191072 1.088549 1.456091 1.350889 0.9861086 1.089332 1.381199 0.9592935 1.510126 0.9303998 0.5141343 0.3417413 1.118287 1.208356 1.099212 0.7019454 1.334128 1.04103 ]
<DerivAvg>  [ 0.593063 0.4666822 0.5073064 0.4702113 0.5025756 0.5564448 0.5943548 0.4411987 0.5379971 0.4396225 0.4112257 0.2126983 0.5168349 0.35945 0.4415328 0.3958436 0.3825228 0.5415536 ]
<Count> 912688 <OderivRms>  [ 0.0572384 0.06615014 0.04562513 0.04826034 0.05659835 0.0554256 0.0561154 0.07422971 0.04946094 0.04792979 0.07581935 0.08302307 0.04769147 0.04008196 0.04264606 0.0786622 0.04977592 0.06079563 ]
<OderivCount> 1401808 <NumDimsSelfRepaired> 0 <NumDimsProcessed> 4162.5 <SelfRepairScale> 1e-05 </RectifiedLinearComponent> 
<ComponentName> tdnnf5.batchnorm <BatchNormComponent> <Dim> 18 <BlockDim> 18 <Epsilon> 0.001 <TargetRms> 1 <TestMode> T <Count> 15993.23 <StatsMean>  [ 1.17797 1.120944 1.502549 1.365926 0.9613498 1.093865 1.363396 0.9817315 1.5157 1.009117 0.5306816 0.3628445 1.129339 1.232129 1.131633 0.736797 1.321172 1.106694 ]
<StatsVar>  [ 1.986365 2.128655 4.049823 3.236826 2.172103 2.286643 2.778207 2.055251 4.391371 2.591172 0.9299061 1.143871 3.182712 5.231811 3.55784 1.594481 6.440823 2.165098 ]
</BatchNormComponent> 
<ComponentName> tdnnf5.dropout <GeneralDropoutComponent> <Dim> 18 <BlockDim> 18 <TimePeriod> 0 <DropoutProportion> 0 <TestMode> <Continuous> </GeneralDropoutComponent> 
<ComponentName> tdnnf5.noop <NoOpComponent> <Dim> 18 <BackpropScale> 1 </NoOpComponent> 
<ComponentName> tdnnf6.linear <TdnnComponent> <MaxChange> 0.75 <L2Regularize> 0.01 <LearningRate> 0.001927981 <TimeOffsets> [ -3 0 ]
<LinearParams>  [
  -0.5624143 -0.2017604 0.09270285 0.3476615 -0.3553816 0.3429534 0.1404705 -0.3082626 0.07620826 -0.2624751 0.1777116 -0.06151851 0.03965285 0.07272656 -0.2820839 0.3775899 -0.04342003 0.6273795 0.4636627 0.05004461 -0.0991249 0.1088712 -0.5283421 0.1180893 -0.2206258 0.115253 -0.5744004 0.2438014 0.1326978 -0.3493568 0.1876586 -0.2633116 0.09007426 0.230643 -0.1460308 -0.3348476 
  0.1045542 0.5680304 0.1818026 0.07820857 0.2708526 -0.5019021 -0.2181456 -0.2292918 0.5316894 0.2050846 -0.2858641 -0.01599934 0.03349672 0.1229196 -0.5608915 0.3830647 0.1709913 -0.2695263 0.218298 -0.2051513 -0.357281 0.1765179 0.01241861 0.5328458 -0.06834458 -0.1575467 -0.3707827 0.1079847 -0.1670653 0.05364389 0.1625737 -0.2077207 0.1658819 -0.5034317 0.1941728 0.1822522 
  0.175772 -0.2417725 0.1931989 0.1358838 0.06739569 0.4815186 -0.07622297 -0.1043247 0.2751461 0.02672675 0.04538634 -0.1383255 -0.405289 -0.08214895 0.2270598 0.1238923 1.037984 -0.3406262 0.2093174 0.01903549 0.09743853 0.03005916 -0.1052219 -0.160908 0.2337038 0.3800771 0.12669 0.4016042 -0.160934 -0.1543718 -0.3081041 -0.276153 -0.1131435 -0.2442575 -0.4387081 0.324367 
  -0.2920798 0.05804527 -0.06823265 0.000748273 0.00269738 0.227892 0.224887 0.4185883 0.2069283 0.2112578 -0.3908795 0.5845824 0.3581225 0.05878923 -0.6577451 0.1135133 0.2187373 -0.0519186 0.02226257 0.2969851 0.3394765 0.04264259 0.5844536 -0.4246516 0.1892166 -0.4565234 -0.09079761 0.2203118 0.09181554 -0.2687228 -0.03817869 -0.1602367 -0.02716729 0.4346072 -0.08828362 0.263076 
  -0.2368351 -0.3248045 -0.06342971 0.3679218 0.3084876 -0.1645041 -0.1081393 -0.1577574 -0.4523953 -0.1343104 -0.3798742 0.0830382 -0.297602 -0.09952159 0.0363799 0.08013673 -0.3590764 -0.005605143 0.3554486 0.1941703 -0.4494325 0.01008994 0.3195989 0.247567 0.6746469 0.1699056 0.5595167 0.4208087 -0.2705689 -0.08915193 0.1053611 -0.3562088 0.1397089 0.2236789 0.3120891 -0.03238344 
  -0.2001224 -0.0501637 -0.2589201 0.09775481 0.1033558 -0.1647134 0.06398482 -0.1421673 -0.2094431 0.3934127 0.03905073 0.3987114 -0.01932878 0.1708435 0.2756343 0.7239779 -0.02041943 0.1533969 -0.3718862 -0.02977718 0.2328707 -0.03655194 0.1516387 0.5508687 -0.4558501 0.1382414 0.2160426 0.1242692 0.2737841 0.4736548 -0.5420107 -0.3351647 0.2545431 0.1574472 -0.4547337 0.07578102 
  0.1694679 0.1876699 -0.02258522 0.01545914 -0.002670109 -0.3045602 -0.1747476 -0.5505344 -0.403122 0.008685831 -0.09608039 -0.4310318 0.1258345 0.2180529 -0.02129668 0.2125769 0.4447559 -0.083166 -0.4464623 0.6102562 -0.2752846 -0.1135961 0.378885 -0.278286 -0.3018065 0.1404462 -0.03356641 0.1974551 0.08678004 -0.3852068 0.4558926 0.3926488 0.2420812 0.315964 -0.2791775 -0.1909295 
  -0.1422599 -0.08845328 0.2711537 0.08929954 -0.4218115 -0.3804938 0.05690173 0.3040401 0.2128633 0.2070754 0.3384814 0.0817622 -0.3758363 0.3571138 0.2724876 -0.2044403 0.0927543 0.5082396 -0.3020338 0.4657875 -0.2900759 0.00308808 0.5261917 0.08876199 0.3699723 -0.134144 -0.2137735 -0.2339687 0.1284114 -0.1089841 0.1237333 -0.4476936 -0.3069178 -0.5166757 -0.1767663 -0.1613012 
  -0.2539205 0.1725868 0.8960499 0.1222685 -0.4818767 0.06871402 0.2270748 0.507272 -0.3055502 0.06570014 -0.3862471 -0.2907408 0.274546 -0.1328746 0.1823976 0.2669751 0.1504613 -0.0215474 -0.1114844 -0.03722214 -0.2824382 -0.424234 -0.06550908 0.08039445 -0.335866 -0.03487128 0.2879479 0.2063845 0.06871878 -0.1709027 -0.3656898 0.1012833 -0.03209575 -0.1635748 0.4818198 0.06079494 
  0.0764005 0.3183532 0.05215994 -0.0275761 -0.2739322 0.2987244 -0.0602484 -0.4152997 0.3752927 0.5483524 -0.2650186 -0.248845 0.2738789 -0.3055004 0.2961207 -0.1662093 -0.2024242 0.1595803 -0.1819037 -0.08100601 -0.06196278 0.4590187 0.3763463 -0.0129262 0.2792617 0.6870986 -0.3840875 0.01232203 0.04468764 0.0495433 -0.3673407 -0.09122477 -0.1845345 0.4585754 0.3730786 -0.05025311 
  0.1187794 0.3600493 -0.374448 -0.2267584 0.0563393 0.2514485 -0.1181675 0.2571858 -0.1014537 0.1991481 -0.0861879 -0.3903067 -0.642923 0.1855478 -0.04919051 -0.3309383 0.2155355 0.2917155 0.085853 -0.3608905 0.5096741 -0.3098179 0.2920753 0.4718527 -0.2002374 -0.1128293 0.05756957 0.3392885 0.3935485 -0.3628057 0.1949649 -0.1802526 0.1284048 0.1548905 0.4042652 -0.22524 
  0.09141083 -0.3867436 -0.3656396 0.07912184 -0.5142729 -0.08601817 -0.07909145 -0.1961579 -0.0334054 -0.4722334 -0.3875231 0.2471787 0.1159398 -0.1149549 -0.5120734 -0.2942205 -0.1046484 0.02773223 -0.4751164 0.1184667 0.3331725 -0.3240719 0.06020539 0.1652388 -0.01330444 0.5814092 -0.1538151 0.1741813 -0.02124272 -0.1466354 -0.1848915 -0.0004034517 0.2685214 -0.6977155 0.1594672 0.1794403 ]
<BiasParams>  [ ]
<OrthonormalConstraint> -1 <UseNaturalGradient> T <NumSamplesHistory> 2000 <AlphaInOut> 4 4 <RankInOut> 18 6 </TdnnComponent> 
<ComponentName> tdnnf6.affine <TdnnComponent> <MaxChange> 0.75 <L2Regularize> 0.01 <LearningRate> 0.001927981 <TimeOffsets> [ 0 3 ]
<LinearParams>  [
  0.09457761 -0.007006916 0.7343348 -0.03456648 -0.02971139 0.07480454 0.1850071 0.2613624 0.09201429 -0.5877548 0.3401319 0.07812142 -0.3883714 0.004644659 -0.09881479 -0.3490888 -0.201626 -0.1304502 -0.05442945 0.07671638 -0.5342099 -0.3629443 -0.1532851 0.2027012 
  0.0704881 -0.7767343 -0.4028023 0.1889609 -0.2481899 -0.2733082 0.05832711 0.5801034 0.2319766 -0.1999201 -0.1216041 0.1759402 0.09939156 0.4959745 0.1588853 -0.1443097 0.1540652 0.02393336 -0.1643718 -0.5670571 -0.1457697 -0.08236881 0.2801349 -0.1717706 
  0.5898985 -0.1012251 0.3014165 -0.18277 0.3149447 -0.4058434 -0.05894257 0.1177104 -0.3077165 -0.09221509 0.1244575 -0.1617295 -0.006747684 -0.01501157 -0.01332558 0.2516585 -0.1214521 -0.1449982 0.3205974 0.05891812 -0.176372 -0.08280727 -0.03976938 -0.109847 
  0.1499299 0.3258687 -0.1738232 -0.1699236 -0.1950085 0.3686492 0.03693512 0.239622 0.115381 -0.02589816 0.1600288 -0.04700441 0.4022603 0.02506001 -0.1417824 -0.0751461 -0.01131903 -0.2192084 0.06354775 0.02672724 -0.6866652 0.02768754 -0.2016131 0.06726232 
  0.4810694 -0.08291281 -0.1176793 -0.3372175 -0.4234537 0.02696129 0.2377787 -0.2046055 0.502396 -0.4706998 -0.1163691 -0.3565757 -0.4048663 0.3428127 0.1349789 0.1452963 0.426821 -0.09613577 -0.3091728 0.4145398 -0.3346781 0.2912048 -0.07410811 0.3433889 
  -0.1496002 0.2468462 0.03563763 -0.2645864 -0.1887629 -0.2388967 0.1831482 0.6708016 0.2613244 0.5039472 0.3581311 -0.5460435 0.08275738 0.06016825 -0.08978629 -0.2309928 -0.1053586 -0.142741 0.2350639 0.02617848 -0.09895349 -0.1695026 -0.1289099 0.1090256 
  0.2608305 -0.07951817 -0.0769226 0.09258552 0.4017821 -0.2082506 -0.4534179 -0.2990659 -0.2374057 -0.07307935 -0.04370439 -0.3000411 0.2699787 -0.3115262 0.02277269 0.08530356 0.3236535 -0.1093569 0.3540398 0.05985105 -0.1486479 -0.2307475 -0.09050416 0.04886948 
  0.2124372 -0.1774516 -0.1495918 -0.1970301 0.5941055 0.09266717 0.1161159 0.2011312 0.1144274 0.4063864 -0.1205253 0.6540395 -0.2909138 -0.08677785 -0.1625252 0.1259238 -0.1718827 0.04184788 -0.3056042 0.126616 -0.3144776 -0.1138954 0.06114678 -0.3011027 
  -0.4985975 -0.02935429 -0.7841247 -0.045529 0.2839012 -0.1677333 0.143935 -0.1446164 0.2723458 -0.1230455 0.1842974 -0.04576981 -0.4030727 0.2305688 0.003625679 -0.1988069 -0.1620987 -0.2396953 -0.1361179 -0.1218112 -0.2179187 -0.3034639 0.1003448 0.0416545 
  -0.1798357 0.2631334 0.1823152 -0.2736776 0.3275896 -0.09365381 -0.3170647 0.3247251 0.03510679 -0.2205507 0.3019855 0.2231378 0.1326509 -0.4061678 -0.3979375 -0.08320697 -0.6497771 -0.1294639 0.1255154 -0.5604877 0.03473177 0.6889508 -0.4369423 -0.08073004 
  -0.4072869 0.5313433 -0.02774489 0.09142982 -0.1892968 -0.2776633 0.04410478 -0.2566305 -0.2103271 0.2069996 0.4537975 -0.2824942 0.04998595 -0.1206575 0.2100973 -0.04284628 -0.07047404 0.1753056 -0.1139427 -0.1396087 -0.08033845 -0.2549176 0.1021032 0.08619616 
  0.3135649 -0.0169347 -0.5057562 -0.07571278 0.1477726 0.2838306 0.02838374 0.2711203 -0.08082296 -0.2940435 0.2500951 0.1219979 0.1065653 0.06007211 0.6243317 -0.05279383 0.2377249 -0.2130379 -0.01496112 0.04472384 0.07538771 -0.4274224 0.349664 -0.08025174 
  0.1352179 -0.05977716 -0.1189532 0.078349 -0.1505929 0.2160875 0.5868053 -0.6296635 -0.04970159 0.1362973 -0.4204194 -0.01529946 0.2287815 -0.111968 0.2427335 -0.01281696 0.153947 0.2066592 -0.05275331 0.02513862 0.05209455 -0.2763706 -0.3653615 -0.07629819 
  -0.1228788 -0.1040969 -0.2064397 0.2593121 -0.1086163 0.09778438 -0.4082888 -0.5335119 0.2098035 -0.5081089 -0.4440918 -0.06079952 -0.08847232 -0.0288822 -0.073434 0.1588619 -0.2398673 0.2777407 -0.01284012 0.2521979 -0.4848559 -0.1558704 0.005602102 0.2446698 
  -0.0513692 0.1389136 -0.3693739 0.5140607 -0.05816657 -0.06262152 0.1014216 0.1446645 0.08178824 -0.5672855 0.04660627 0.6587747 0.01146873 0.002276608 -0.140767 -0.1554132 0.117863 -0.04038806 0.3981041 0.08035229 0.2312827 -0.2105886 0.5132447 -0.1205754 
  0.2907343 0.1402196 0.3238772 0.2377902 0.1218062 -0.1171629 0.1142944 -0.1247092 -0.5710548 0.1961038 -0.4984768 -0.1843875 -0.1278823 -0.2010172 -0.3034651 -0.4153145 -0.1558519 0.07202666 -0.1949477 0.02040725 0.603735 -0.2099203 0.4526109 0.4303491 
  0.1006544 -0.2648699 0.2948093 0.01127065 -0.206305 -0.2054675 0.2833479 -0.1689487 -0.05809442 0.07563675 0.1211156 0.1731147 -0.07364899 -0.2147756 0.2592295 -0.1957766 0.1060681 -0.05228091 0.262611 0.7303946 -0.03394175 0.2863358 -0.4590966 0.0884933 
  -0.5323551 -0.2960426 0.2608882 0.2635577 -0.225872 -0.425808 0.336332 -0.3926214 0.3882393 0.1930497 0.1327025 -0.121428 -0.1161586 0.183646 -0.3713534 -0.1201649 -0.07463732 -0.01975099 0.003585509 0.01268175 0.09536298 -0.1530797 -0.059912 -0.1033274 ]
<BiasParams>  [ 0.2177471 -0.0446239 -0.3021626 0.3853582 -0.2397352 -0.06873234 -0.03081071 0.4275883 0.2395441 -0.3296618 0.02741575 -0.2597578 0.02306801 0.02252221 0.03262794 -0.4317029 0.07405347 0.1669908 ]
<OrthonormalConstraint> 0 <UseNaturalGradient> T <NumSamplesHistory> 2000 <AlphaInOut> 4 4 <RankInOut> 12 9 </TdnnComponent> 
<ComponentName> tdnnf6.relu <RectifiedLinearComponent> <Dim> 18 <ValueAvg>  [ 1.57038 1.294098 1.243786 1.718293 0.9689606 1.229772 1.493082 1.629315 2.036181 1.099006 1.486403 0.999669 1.372574 1.716872 1.63861 1.089057 1.662036 1.814314 ]
<DerivAvg>  [ 0.5043958 0.4801487 0.4353444 0.4909454 0.4600835 0.5007507 0.4331368 0.5247586 0.4889382 0.4464814 0.4822806 0.4407998 0.5104769 0.4307906 0.5015174 0.4345687 0.4896274 0.5017064 ]
<Count> 870272 <OderivRms>  [ 0.03277965 0.03407725 0.04137563 0.03120033 0.05852233 0.03092035 0.03399559 0.03229922 0.03210881 0.04217799 0.0327034 0.03111042 0.04036717 0.03167529 0.03132741 0.05377278 0.0406076 0.03372233 ]
<OderivCount> 1366112 <NumDimsSelfRepaired> 0 <NumDimsProcessed> 4194 <SelfRepairScale> 1e-05 </RectifiedLinearComponent> 
<ComponentName> tdnnf6.batchnorm <BatchNormComponent> <Dim> 18 <BlockDim> 18 <Epsilon> 0.001 <TargetRms> 1 <TestMode> T <Count> 15481.23 <StatsMean>  [ 1.627316 1.287444 1.299705 1.77201 1.038392 1.270117 1.459101 1.668133 2.081589 1.137897 1.497672 1.032764 1.429378 1.744877 1.663749 1.11613 1.710155 1.811655 ]
<StatsVar>  [ 5.868227 6.029599 4.752882 6.136653 3.932358 4.293596 6.306288 6.077693 10.00869 4.544958 4.843349 3.467863 4.410058 9.234623 5.549598 4.813149 7.966129 6.59662 ]
</BatchNormComponent> 
<ComponentName> tdnnf6.dropout <GeneralDropoutComponent> <Dim> 18 <BlockDim> 18 <TimePeriod> 0 <DropoutProportion> 0 <TestMode> <Continuous> </GeneralDropoutComponent> 
<ComponentName> tdnnf6.noop <NoOpComponent> <Dim> 18 <BackpropScale> 1 </NoOpComponent> 
<ComponentName> tdnnf7.linear <TdnnComponent> <MaxChange> 0.75 <L2Regularize> 0.01 <LearningRate> 0.001927981 <TimeOffsets> [ -3 0 ]
<LinearParams>  [
  -0.03895406 0.3658117 0.115039 -0.361553 -0.1856752 -0.1073172 -0.1110077 -0.2102758 -0.02598872 0.08985307 0.304121 -0.1137043 0.2189988 0.6268148 -0.3712652 -0.2571853 0.7082447 0.08921794 -0.1610221 -0.02516757 0.5103232 -0.04699535 -0.1300521 0.02900389 -0.1266159 -0.08522134 -0.3523281 -0.1527338 -0.09496598 0.0674773 0.1083293 -0.06172381 0.03932402 0.4580308 -0.1503019 0.3972915 
  -0.2473369 0.2127835 0.5494451 -0.08096897 0.03531708 0.1725356 -0.2041475 -0.1358753 -0.5319546 0.02079689 -0.4689251 -0.100836 -0.6998761 0.07759679 0.1426751 0.06024984 -0.03775592 0.06374327 0.3312198 0.205559 0.3134772 0.1658962 0.01065177 0.06843153 -0.2752956 -0.02151111 0.3469888 0.1222135 0.5080364 0.08743004 0.3380532 0.05250277 -0.01773712 0.3238353 -0.08856168 -0.1130534 
  0.06561753 -0.1875174 -0.1428727 -0.2666553 0.1372266 -0.0878102 0.2297653 -0.3755065 -0.2229237 0.09445956 0.2465147 -0.2423566 0.09613216 0.1746634 0.06107292 -0.2498351 -0.2532739 -0.0323219 -0.228944 0.8540375 0.02789445 0.1549075 0.2220726 -0.07873125 0.3463683 0.5551926 0.2490854 0.3278805 -0.07911111 -0.159067 -0.1449761 -0.3994265 -0.1394897 0.2445978 -0.2671053 -0.1436377 
  0.7063024 0.1785503 -0.5215685 -0.03181745 0.07980059 0.1563075 -0.2937031 0.04995714 -0.2774435 -0.07983862 -0.08378001 0.007753131 0.05057864 -0.5465391 0.2088758 0.1665009 0.3895776 0.2524703 0.09660584 0.033756 0.0937454 0.1936677 0.2948147 0.1295312 0.3379942 -0.01267067 -0.3794254 0.2479926 0.5012583 0.2220211 0.03208013 -0.1805326 0.0107104 0.01627733 -0.1743594 0.3172719 
  -0.08797739 0.414241 -0.3387764 0.4818571 0.03997665 -0.06863923 0.1807686 -0.2718633 0.288016 0.3593165 0.134996 -0.1003635 -0.388289 -0.2267827 -0.04401591 0.004702218 -0.02644817 0.1016911 -0.42766 -0.02978608 -0.1545191 -0.1093794 -0.08034521 0.1133005 -0.3795919 0.1922886 -0.1434929 0.2904599 -0.05252376 0.3039587 0.400787 -0.4183841 0.00638883 0.3370452 0.6067754 -0.1116512 
  0.1922995 -0.06085451 -0.2395664 -0.1647948 0.3749771 -0.1919063 0.07234687 0.5533725 0.0176194 -0.2882545 -0.0555132 0.2598845 -0.2426057 0.5706551 -0.1984103 0.503275 -0.4511387 0.1431567 -0.5632452 0.1882232 0.2992379 -0.1262882 -0.1312922 0.1087525 0.1471853 -0.3410938 0.03734877 0.0446834 0.2463291 0.1690061 -0.07562535 -0.05324021 0.3113279 0.1770379 0.1107919 -0.02132823 
  0.05611316 -0.186135 -0.416448 -0.2555771 0.02788836 0.1553218 0.3138166 -0.2484621 0.114015 -0.2374883 -0.2262906 0.2313006 0.1038377 0.08687878 -0.2976079 0.2514234 0.3223927 -0.7521663 0.2327043 0.1207796 -0.1017372 0.2251558 -0.1681811 -0.2799511 -0.2443803 0.227273 0.3022611 0.0224916 0.3161892 -0.1766961 0.3261269 -0.07996165 0.4095601 -0.1320796 0.3094721 0.3203819 
  0.1375857 -0.3766379 0.501045 -0.4231368 0.4154589 0.09281339 -0.06044529 -0.2052062 0.6969507 0.004891042 0.05016717 -0.06347382 -0.1288168 -0.2656279 -0.2854657 0.4187326 -0.0008622564 0.2592485 -0.1440992 0.1758801 -0.246154 0.1907618 0.08753563 0.1004393 -0.3636798 0.2606792 -0.3800815 0.1404026 0.0252777 0.07206732 0.05311882 0.3979574 -0.1843518 0.1189152 -0.2025013 0.1896377 
  0.195583 0.0979671 -0.1668047 -0.159058 -0.5715501 -0.1489177 0.4696321 -0.007837078 -0.3416005 -0.01995258 -0.1841494 -0.0719814 -0.05269935 -0.3929447 -0.282351 -0.2752153 -0.5884328 0.08551827 -0.2942072 -0.05628786 0.2283286 -0.05841515 0.05339216 0.3616867 -0.4720594 0.1607229 -0.1007404 -0.0472016 0.003226901 -0.2795862 -0.03748779 0.3827348 0.2119693 -0.06116193 -0.1932734 0.4580088 
  -0.03828875 0.1579701 -0.1288463 0.00522333 -0.174076 -0.4343174 0.02200666 0.3215609 0.6002085 0.1180174 -0.4703268 -0.3837219 0.2142336 0.004353324 -0.1279116 -0.4012356 0.06330533 -0.2167059 0.2604718 0.3413401 -0.1622891 -0.2476009 0.2968495 -0.008267524 0.06347606 -0.2129213 0.008345913 0.1285599 0.5650971 0.004815742 -0.3088046 0.2966596 -0.07354754 0.4145214 0.1695964 -0.1523611 
  0.5254287 0.04230226 0.645872 0.28843 0.3069168 -0.2494249 0.3567047 0.2674477 -0.2670539 0.2128797 0.3400338 0.1004419 0.2842126 -0.09507588 0.2780713 -0.0285163 -0.02525463 -0.3645886 -0.03803323 -0.03793694 0.003174119 -0.2371249 0.02609446 -0.3888072 -0.1764105 -0.1119026 0.2954511 0.2933 0.03197898 0.2102195 0.03998273 0.07807859 -0.1774889 0.1837759 0.1050574 0.5589628 
  0.6367352 -0.3740973 0.3026295 -0.03952125 -0.4345188 -0.4356918 -0.2381886 -0.2350341 0.04536366 0.215812 -0.1147844 -0.007242301 -0.3620301 0.4957469 0.4142644 -0.1919291 -0.09392022 -0.2628972 -0.1375719 -0.0741446 -0.3050913 0.06323421 -0.01712478 -0.004192049 0.1316445 0.02377382 -0.5182211 -0.05663993 0.1097394 -0.1667637 0.3269423 -0.0590452 0.2440913 -0.2185279 0.1249972 -0.1577792 ]
<BiasParams>  [ ]
<OrthonormalConstraint> -1 <UseNaturalGradient> T <NumSamplesHistory> 2000 <AlphaInOut> 4 4 <RankInOut> 18 6 </TdnnComponent> 
<ComponentName> tdnnf7.affine <TdnnComponent> <MaxChange> 0.75 <L2Regularize> 0.01 <LearningRate> 0.001927981 <TimeOffsets> [ 0 3 ]
<LinearParams>  [
  -0.05572915 -0.145201 -0.2834424 -0.1836893 -0.396887 -0.1865172 -0.0277117 -0.03427872 0.2554735 0.2419343 -0.1174981 -0.3790053 -0.2357416 -0.070481 -0.02887079 -0.3823853 -0.3742891 0.5140843 0.03502911 0.08693538 0.07493157 0.05130549 0.1348841 0.3603978 
  -0.1442161 0.3598124 -0.1576698 0.1517196 0.07379379 0.5058491 -0.3141395 -0.4281232 0.2199532 0.2386775 -0.05538331 -0.5761399 0.09128087 -0.1953277 0.05111671 -0.3135721 -0.05475552 -0.4790849 0.01529529 0.2616242 -0.2877427 -0.3138714 0.1744241 0.3872334 
  -0.04709693 0.02018214 0.05781917 0.003145566 -0.09443182 -0.03936708 0.1582876 0.01002738 0.2043028 -0.07934935 -0.08202396 0.1671899 0.002569456 -0.3799365 0.0724538 0.007450854 -0.1922167 -0.1334078 -0.2781532 -0.3731934 0.07223506 -0.396016 -0.4547594 -0.150156 
  0.4554546 -0.03720417 -0.08594696 -0.2651798 -0.0633577 0.5030606 -0.09641874 0.2396853 0.1212833 0.3910823 -0.3135873 0.4094025 0.08933664 -0.1951984 0.1277053 -0.1436354 -0.07923286 0.1588934 -0.170998 -0.2220379 0.3099663 -0.4130431 0.005711442 0.3277941 
  0.02366973 0.2168036 -0.336837 0.1374115 0.3503736 -0.1755477 0.1838296 0.2913042 0.360319 -0.1894882 -0.1466828 0.189364 -0.03020982 -0.4005598 0.2259762 -0.2081313 -0.4538282 0.00622405 -0.4285132 -0.3364504 -0.4457426 0.1685793 0.1618232 -0.2534894 
  -0.8590369 -0.1666461 -0.02446923 0.1070641 0.275801 -0.1108398 0.1815816 -0.291256 -0.3309489 -0.00866129 0.3066217 -0.08123315 0.4649633 -0.07114987 -0.1538354 0.2207218 0.2777526 -0.1008151 0.1980356 -0.08658515 -0.2378251 0.3104501 -0.2854687 0.0186578 
  0.0167201 0.4472799 -0.1895021 0.3221973 -0.1391231 -0.6068467 -0.4764992 0.1155275 -0.2221326 -0.3895945 -0.5324025 0.4297946 -0.1059224 -0.1065339 0.2548299 0.08144569 -0.05023776 -0.1280012 0.2845979 0.04372933 -0.03481012 0.003112333 -0.2290001 0.02747232 
  -0.2146703 -0.3006876 0.167718 0.01908878 -0.1383963 0.08986437 -0.08351412 -0.3922827 -0.05067346 0.1876363 0.04391754 0.3042452 -0.5671298 -0.1575804 0.1734187 0.1130456 -0.04047425 -0.6158456 0.1716585 0.2325518 0.3175752 0.2452679 0.2390593 -0.05595326 
  -0.03993372 0.2933421 -0.01039718 -0.1430165 -0.2679871 0.3364331 -0.2409901 0.3967384 0.4594226 0.495164 -0.4208377 0.1814246 0.3312575 0.09325405 -0.01959303 -0.2072993 0.1709586 0.1130936 -0.3588557 0.04779564 -0.1493999 -0.1591007 -0.2504874 0.3135705 
  0.2662179 -0.2439378 0.02276066 0.05258374 -0.1788371 -0.2570337 -0.03338261 0.2188085 -0.1126374 -0.08363813 0.5807745 0.6593803 -0.1996281 -0.01076535 0.04944638 0.08267108 0.1581844 0.1800478 0.1511418 0.1180992 0.3411647 -0.1347059 -0.632018 -0.4646398 
  0.1786736 -0.3445187 -0.07021499 -0.1022499 0.2981683 0.05704552 -0.09987652 0.3591011 -0.5046042 0.109845 -0.1239843 -0.1867691 -0.0406899 -0.3357188 -0.1940631 -0.05671592 0.4923784 0.02933917 -0.185295 0.07344311 0.01276889 -0.131513 -0.2444243 0.2964622 
  0.05469767 -0.367746 -0.2192598 -0.329953 0.2175121 0.311314 -0.2548595 0.04069673 0.1276861 -0.2873336 -0.1435275 -0.09331387 0.2411293 0.04244859 0.1954999 0.199251 0.1520859 0.4864215 -0.1310011 -0.346261 -0.1695711 0.119116 -0.7211212 0.05220234 
  -0.3131388 0.1577524 0.05492643 -0.3851915 -0.007096318 -0.03339851 0.154779 -0.4758183 0.7890007 -0.42904 0.3098071 0.1746012 0.08319311 0.08385234 -0.4044802 -0.1170515 -0.2057772 -0.3766277 -0.08639371 0.02708039 0.2368141 0.1449519 -0.07814001 -0.1019797 
  0.5151729 -0.09457867 -0.2894463 -0.2261612 0.0400012 -0.1364607 0.2254947 0.5999497 -0.558964 -0.05894436 -0.352008 -0.4262026 -0.09070945 -0.06881269 0.1017252 0.2319302 -0.2181029 -0.001806532 0.1571778 -0.1866535 -0.1544137 -0.02236576 0.05329143 0.2796126 
  0.1641557 -0.5716933 -0.07475641 -0.3865904 -0.09387985 0.3606718 -0.0007803943 -0.1267181 0.3299826 -0.09142733 -0.001097469 0.4335718 0.3493865 0.1432425 0.4690887 -0.1863762 -0.05882013 0.3824546 -0.06485177 0.2757157 0.3316184 0.227758 0.1495196 0.1720097 
  -0.4585259 -0.3354722 0.1649117 -0.05705 -0.02216873 -0.07197434 0.08433215 0.1420097 0.7193233 -0.1564585 0.2427628 -0.4917546 0.2336002 0.5119405 -0.481836 -0.00891685 -0.01743013 0.2486482 0.09800288 -0.416948 -0.3418317 0.1745145 -0.1653403 0.4253516 
  -0.3776633 -0.3435482 -0.3473975 -0.4404442 0.1391917 0.1373178 0.1338955 -0.2206797 -0.008324975 0.3559249 -0.2784287 -0.271989 0.1373651 0.1756179 -0.4719603 -0.02045162 -0.4870794 -0.2956414 0.4319748 -0.184158 -0.04258443 -0.06653772 -0.2021791 0.2140488 
  0.3046737 -0.04632607 -0.04531453 -0.1557743 -0.2053396 -0.4822124 -0.3105388 0.1530344 0.4678308 -0.3058711 -0.2509894 0.09780719 -0.03470069 -0.008572788 0.08688332 0.07218054 -0.1112116 -0.2697442 -0.001350157 -0.03738023 0.07544962 -0.2484904 -0.5188479 0.2393578 ]
<BiasParams>  [ 0.09937697 -0.07562091 -0.3055233 0.2832904 -0.3986019 -0.1286414 -0.0302796 0.2331254 0.1503013 -0.3212981 -0.2955358 0.2008002 -0.01727139 0.2013966 -0.4446736 -0.4398193 0.1704734 0.2405827 ]
<OrthonormalConstraint> 0 <UseNaturalGradient> T <NumSamplesHistory> 2000 <AlphaInOut> 4 4 <RankInOut> 12 9 </TdnnComponent> 
<ComponentName> tdnnf7.relu <RectifiedLinearComponent> <Dim> 18 <ValueAvg>  [ 1.582016 1.426692 1.152714 1.738026 1.002552 1.294353 1.623386 1.642556 1.718301 1.24881 1.122114 1.552099 1.632388 1.771818 1.199271 1.398726 2.076592 1.627178 ]
<DerivAvg>  [ 0.4706556 0.4779588 0.4611544 0.4696899 0.4075381 0.5007854 0.5514146 0.5502933 0.4822414 0.43839 0.4243464 0.5705684 0.5245712 0.444516 0.416404 0.4430164 0.5038378 0.5652012 ]
<Count> 852768 <OderivRms>  [ 0.02404051 0.03453001 0.05018949 0.03253184 0.05627629 0.0314367 0.03402647 0.03726814 0.03277717 0.04837594 0.03228646 0.03395591 0.02845549 0.02765172 0.03921749 0.04827636 0.02715082 0.03633875 ]
<OderivCount> 1388864 <NumDimsSelfRepaired> 0 <NumDimsProcessed> 4104 <SelfRepairScale> 1e-05 </RectifiedLinearComponent> 
<ComponentName> tdnnf7.batchnorm <BatchNormComponent> <Dim> 18 <BlockDim> 18 <Epsilon> 0.001 <TargetRms> 1 <TestMode> T <Count> 14969.23 <StatsMean>  [ 1.589765 1.438609 1.207443 1.738604 1.004838 1.298829 1.613196 1.648392 1.701927 1.28405 1.182035 1.576268 1.712441 1.786526 1.258874 1.421103 2.080133 1.658427 ]
<StatsVar>  [ 7.348019 7.015504 3.032814 7.962969 4.811234 4.607862 5.259165 4.49878 6.768641 5.726167 4.158503 4.190193 6.300236 8.417547 4.953803 7.445918 9.407858 4.110227 ]
</BatchNormComponent> 
<ComponentName> tdnnf7.dropout <GeneralDropoutComponent> <Dim> 18 <BlockDim> 18 <TimePeriod> 0 <DropoutProportion> 0 <TestMode> <Continuous> </GeneralDropoutComponent> 
<ComponentName> tdnnf7.noop <NoOpComponent> <Dim> 18 <BackpropScale> 1 </NoOpComponent> 
<ComponentName> tdnnf8.linear <TdnnComponent> <MaxChange> 0.75 <L2Regularize> 0.01 <LearningRate> 0.001927981 <TimeOffsets> [ -3 0 ]
<LinearParams>  [
  -0.2640498 0.2920257 -0.2695902 0.01166829 -0.2643318 -0.1797782 -0.02016291 -0.3620709 0.1681409 -0.4766324 -0.04037916 0.4438967 0.4143432 0.08769481 0.03834333 -0.2797557 -0.007073863 -0.2862099 0.436836 -0.3010566 0.1617976 -0.1259511 0.1591792 -0.1138152 -0.01453774 0.4835493 -0.4545058 0.01265301 -0.4539419 0.1443232 -0.04018202 0.1421045 -0.1835816 -0.3209904 -0.2359659 0.2038334 
  0.1064197 0.1118023 0.1642355 -0.08897987 -0.1850249 0.17783 0.1431757 0.3970724 -0.4530769 -0.05009639 -0.06338814 -0.02089338 -0.06175623 0.06469694 0.05656648 -0.2343408 0.2073587 -0.4023504 0.2743899 -0.1685101 0.6846005 -0.3003992 -0.2498864 0.2128744 -0.3658442 -0.5836987 0.1838617 -0.07460672 -0.2568128 0.06272296 0.2819057 0.1865653 0.09307861 -0.2488234 -0.3006366 -0.3514782 
  -0.1314339 -0.3108152 -0.2184061 -0.1389553 0.3199021 0.04333234 -0.4297866 0.1198642 -0.06479201 0.03214345 0.08267677 -0.04463562 -0.09208324 0.4437712 0.1113924 0.2286338 0.6404431 0.2864625 0.1716917 0.5766319 0.576984 0.1405492 0.1402199 -0.2586827 0.1305983 0.01778859 -0.2097425 0.04192891 -0.2833111 0.06578155 -0.4026516 0.1676909 0.178758 0.1861305 -0.2820764 0.1303985 
  0.07854767 0.0001016988 0.2284591 -0.3122759 0.2189965 -0.2900175 -0.489545 0.1417355 0.6300801 -0.2060701 -0.02279348 -0.1127999 0.3885715 -0.1244605 -0.3810401 -0.6519903 0.1240853 0.1755205 0.06610128 -0.02337245 0.2311504 0.2974276 0.03757371 0.2173396 0.1276604 -0.2884521 0.1224621 -0.1809292 0.366725 -0.09878644 0.0907581 0.1596008 -0.480226 0.1172412 -0.1060357 -0.1368871 
  -0.07015041 0.4672204 0.2927454 0.08519897 0.1328037 -0.7567511 0.1751635 -0.2288962 -0.4346449 -0.2239627 -0.05458001 -0.1914907 -0.08166106 0.3671736 -0.1511516 0.3386663 -0.4307991 0.3512801 -0.134896 -0.06684352 0.2274332 -0.04685416 0.1073658 -0.3693283 -0.1518143 -0.1091725 -0.1072039 -0.02773806 0.2957043 0.1695007 -0.1497921 0.2439606 -0.1711138 0.1260491 -0.2433002 -0.335753 
  0.1677607 0.2184662 0.298371 0.6047566 0.1195089 0.1964536 -0.4424306 -0.01722338 0.0027471 -0.3985128 0.09846017 -0.130585 0.05900571 0.2159287 0.6180761 -0.3506715 -0.0473013 0.08041553 -0.3276877 0.2596981 0.2056137 -0.4710305 -0.05029277 -0.01357666 -0.1547635 0.2399398 0.0001787012 -0.2238679 0.4045732 -0.1764491 0.1487551 -0.02475829 0.1505614 -0.2372032 0.1350864 0.3542914 
  -0.224322 -0.1672633 -0.5923963 0.3475114 -0.3527 -0.0463911 0.2017915 0.5041884 0.2222223 -0.6011698 0.09335941 0.2066702 -0.2265827 0.1401377 -0.2682534 -0.03855407 -0.3255796 0.2233807 -0.1036721 -0.148278 0.172769 0.263466 -0.2306892 -0.07465261 0.2115342 -0.3293962 0.07733606 -0.4065768 0.1370868 0.01265584 -0.2018152 0.06667276 0.4323737 0.02578779 0.0883146 0.1656266 
  0.00474845 0.2477816 -0.3515631 -0.3245635 0.06588925 0.39964 -0.6491499 0.138761 0.1268105 -0.2386753 -0.2230252 -0.1038643 0.3868569 -0.03418602 -0.4160926 0.5529602 -0.2072515 -0.04350189 -0.1166735 0.02369876 -0.02374431 -0.2924156 -0.3043846 -0.389843 -0.2920337 0.166426 0.335203 0.1728111 0.002495092 0.06567497 0.002475584 0.1032946 0.08883625 -0.256216 0.2774038 -0.3032047 
  0.06868989 -0.3399135 0.2290457 -0.1828394 -0.1289687 -0.2903315 -0.1172185 0.1425236 -0.5065046 -0.06094833 -0.1788016 -0.278244 0.1223033 0.3438989 -0.3162342 0.063865 0.4668502 -0.2555791 0.04769132 -0.2196641 -0.4173763 0.3233545 -0.401211 -0.1314659 -0.24032 0.17056 -0.1779136 -0.4782679 0.1940049 -0.1567129 -0.07279438 -0.03061448 -0.08407596 -0.3997573 0.1005569 0.4753131 
  -0.06767122 0.06927392 0.2727604 -0.3007649 -0.1549128 -0.3704254 -0.007205937 0.06539464 0.5615781 -0.284574 -0.4084146 0.1633956 -0.04912825 0.04410044 0.5799208 0.4969424 0.3300022 -0.4758583 0.01110785 -0.0928276 -0.07395269 -0.1439265 0.1501883 -0.2165632 0.09770102 -0.5875907 -0.126062 0.1489469 0.2395098 -0.06084872 -0.04830681 -0.1930549 0.2098631 0.06358197 0.2305408 0.1016622 
  0.1826259 -0.09769104 -0.1501715 -0.2237234 -0.03811451 -0.4016211 0.1032597 0.1581927 0.07336582 0.1700775 -0.1454545 0.03350853 0.04738654 -0.393046 0.6125479 0.1389989 -0.09381955 0.3428369 -0.2841579 0.1291489 0.2883522 0.1892086 -0.5065721 0.1762127 0.2167939 0.1839798 -0.04465241 -0.1238777 -0.1364773 0.2407671 -0.225719 -0.1069765 -0.3116362 -0.787043 0.05523474 -0.2439131 
  -0.2896855 -0.1954094 0.3436927 -0.2465301 -0.5746806 0.09265918 -0.002653329 -0.3096341 0.1533267 -0.2621664 0.3090941 -0.3525416 -0.114223 -0.271347 0.3169216 0.03990567 0.3031706 0.5663715 0.4334634 -0.1958249 -0.1246576 -0.1764636 -0.3704367 -0.1586325 -0.08184624 0.2407419 0.3372713 -0.2304944 -0.03010384 0.1767592 0.07469831 0.12029 0.1464786 0.3391564 -0.05259384 -0.1792039 ]
<BiasParams>  [ ]
<OrthonormalConstraint> -1 <UseNaturalGradient> T <NumSamplesHistory> 2000 <AlphaInOut> 4 4 <RankInOut> 18 6 </TdnnComponent> 
<ComponentName> tdnnf8.affine <TdnnComponent> <MaxChange> 0.75 <L2Regularize> 0.01 <LearningRate> 0.001927981 <TimeOffsets> [ 0 3 ]
<LinearParams>  [
  0.2852366 0.0531077 -0.1078386 0.01317929 0.1722802 0.2996034 0.2190158 0.2398117 0.6585283 -0.2805692 0.2950236 -0.1613951 0.2352579 0.2273423 -0.130491 0.1746399 -0.06175129 0.02530443 0.08356529 0.06714471 0.2667588 -0.3503869 -0.04174125 -0.09801546 
  -0.4527073 0.3776992 0.1682306 -0.6671985 0.3580481 0.3423657 -0.2789109 -0.2263516 -0.2511341 0.07430255 -0.1817988 -0.04123758 0.1705211 -0.1940178 -0.3757814 0.3326795 0.4192564 0.1416593 -0.02951657 0.5173751 0.1642613 0.2648002 0.1608102 0.1585888 
  0.1297069 0.5239301 -0.2083971 0.15231 -0.3214768 0.4077644 0.1387069 0.01724233 0.2850984 -0.1121433 0.6041353 0.5561504 0.05914165 0.1173835 -0.3823549 0.3729269 -0.241178 0.1479802 0.3375875 0.03933505 0.1778747 -0.008605518 -0.08078592 0.4712062 
  -0.07248046 -0.2650015 0.2676977 0.5122713 -0.2499873 -0.1029277 -0.2967593 -0.2984505 -0.05311125 0.05582483 0.439528 -0.07643313 -0.02068392 0.2738945 0.04441294 -0.1850986 0.1844986 -0.1339354 0.4223443 -0.05381583 -0.3841149 -0.1714246 -0.5974216 -0.4425247 
  0.2929451 0.2071768 0.320831 0.2651342 -0.155159 0.4681371 -0.6059978 0.02177594 0.2327955 0.4356756 -0.06302533 0.1900601 -0.1459247 0.1485236 -0.1514496 0.02995401 -0.1463555 0.19357 -0.4234128 0.09570785 -0.1531618 -0.3439722 -0.1332368 0.3058124 
  -0.2821361 -0.02578188 -0.1506889 -0.03557194 0.01400722 0.3128505 0.3229835 0.3304079 0.05109352 0.4270876 0.293332 -0.1319358 0.1473544 -0.1390756 0.1016353 0.2049812 -0.1752092 0.2062651 0.2099815 0.02876609 -0.1699256 0.1539052 -0.05244958 0.1990316 
  -0.15988 -0.007812595 -0.2080455 -0.2917237 -0.1468023 -0.2655011 0.02543166 -0.7939795 -0.4504029 0.2362361 0.4855342 0.3280743 -0.2059024 -0.1484545 -0.2357953 0.109738 0.007743111 -0.2286763 -0.2537338 0.08429388 -0.07904685 -0.2956956 0.2525412 0.00301451 
  -0.13031 -0.3809074 -0.04716218 -0.6195342 0.2118957 0.05244399 -0.4189989 -0.2605917 -0.1218106 -0.3627826 0.2033623 -0.3664037 0.1725982 -0.1679875 0.4058965 -0.2104978 -0.008704293 0.05895885 0.1322734 -0.09807525 -0.06624434 -0.3117047 0.3520181 -0.2198428 
  0.2337708 0.2009007 -0.01001564 -0.2813687 0.239818 -0.05858262 -0.07721014 0.09724022 -0.1489679 0.4251655 0.2540484 0.03016126 0.5605561 0.4109874 -0.3453034 0.2633706 -0.3228357 0.1489995 -0.5492309 0.02336637 -0.286789 0.002841716 0.3705961 -0.208937 
  0.161467 0.7034526 0.2226696 -0.3404297 -0.5149891 -0.0899835 0.02445273 0.06494704 0.4366017 0.2927906 -0.3008583 -0.0972873 -0.0534869 0.01723789 0.6584241 0.09624074 -0.1305103 -0.1284995 0.1555613 -0.08974861 -0.02360262 0.09367143 0.3829462 -0.04504126 
  -0.2490516 -0.1446084 -0.4347031 0.2347275 -0.4992504 0.1669108 -0.3135538 0.461596 -0.06051826 0.06336768 0.007013758 -0.251412 -0.08087708 0.01714921 0.1034763 0.03768286 -0.4267483 -0.03286213 -0.08291696 0.01833296 0.05713294 -0.2456685 -0.02533465 0.3625875 
  0.09702903 0.2323937 -0.1563473 0.02205158 -0.04158401 0.170435 0.1398711 0.008670043 0.2767238 -0.1961445 0.2261631 0.1604354 0.1393983 -0.08819815 -0.1707142 -0.03907977 0.04079565 -0.04586779 0.09324306 -0.08078614 0.05373493 0.02852129 0.01128107 0.01456903 
  9.346567e-05 0.5983735 -0.707451 -0.3081045 0.155488 -0.1101115 -0.2974124 -0.1961143 -0.1616021 0.2056741 0.05272242 -0.6688905 -0.317328 -0.167983 -0.1432464 -0.1114753 -0.3268854 0.1832062 -0.229142 -0.08119197 0.05741056 -0.137395 -0.0423911 -0.2039009 
  -0.1196684 -0.3848206 0.2984336 0.4674617 0.05206194 -0.2182383 -0.1449768 -0.2477758 -0.05470124 -0.4116513 -0.0107926 -0.2378479 0.07073912 0.08430514 -0.3196874 0.09134302 0.05999722 0.0377706 0.07774166 -0.1907716 -0.1400402 -0.09360264 -0.2195116 -0.2356586 
  -0.1074052 0.08892415 -0.2392609 0.4014808 0.08145953 -0.01964243 -0.02582103 0.5365956 -0.06836866 -0.002918012 0.3006806 -0.1951971 -0.304673 -0.2413717 -0.07904114 0.4857709 0.1720407 0.09027067 0.3880539 -0.09118831 -0.1014308 0.09647637 -0.140717 0.02733131 
  0.6342138 -0.07713348 -0.414804 -0.1876524 0.2554507 -0.06816396 -0.3079005 -0.2128012 -0.2203481 -0.3939356 -0.09602295 0.1444625 -0.3157853 0.1188521 -0.142262 -0.2064162 -0.112143 -0.482798 -0.05171602 0.5859027 0.04895316 -0.006345952 -0.3641921 0.5335202 
  -0.1216762 0.07656478 0.2521533 0.03301854 -0.1749841 -0.07505488 0.6786631 0.5246125 0.05724032 0.5345464 0.1376289 0.2301667 0.3676869 0.3225433 0.1831246 -0.03582079 -0.04279124 0.2381406 0.01914666 -0.05932953 0.1817789 0.2837482 -0.01800693 0.1530617 
  0.07451122 0.09392054 0.2171023 0.3626715 0.4658318 -0.26846 -0.4968196 0.5330288 0.4430351 0.3052889 -0.2753102 0.1758701 0.05008668 -0.2048595 0.2031112 0.06599396 0.1414516 0.1813873 0.1065526 0.1233121 -0.09840211 -0.05450147 -0.01468197 0.2080199 ]
<BiasParams>  [ -0.2934919 -0.2320614 -0.5209938 -0.2532693 -0.06436075 0.05127539 0.3931247 0.2378835 -0.2824285 0.05407967 0.4548211 -1.314122 -0.1022746 -0.17132 -0.5740936 -0.5539902 0.02536259 0.3094161 ]
<OrthonormalConstraint> 0 <UseNaturalGradient> T <NumSamplesHistory> 2000 <AlphaInOut> 4 4 <RankInOut> 12 9 </TdnnComponent> 
<ComponentName> tdnnf8.relu <RectifiedLinearComponent> <Dim> 18 <ValueAvg>  [ 1.184121 1.673442 1.386524 1.565392 1.649138 1.597682 2.144482 2.101254 1.522696 1.610352 1.721975 0.2207868 1.916715 1.534182 1.03985 1.610173 2.341256 1.957522 ]
<DerivAvg>  [ 0.3971696 0.3933834 0.4630712 0.3861872 0.4750682 0.4397246 0.5534558 0.5213335 0.4011872 0.4626084 0.4694471 0.1889836 0.4828968 0.4490423 0.3549963 0.4331526 0.4304372 0.4838441 ]
<Count> 913120 <OderivRms>  [ 0.0382196 0.0262951 0.03941875 0.03029749 0.0272596 0.02222138 0.02453146 0.0275756 0.02680729 0.03037016 0.02159453 0.1831461 0.02241145 0.03294611 0.0308097 0.02890608 0.02252191 0.02341292 ]
<OderivCount> 1265856 <NumDimsSelfRepaired> 0 <NumDimsProcessed> 4108.5 <SelfRepairScale> 1e-05 </RectifiedLinearComponent> 
<ComponentName> tdnnf8.batchnorm <BatchNormComponent> <Dim> 18 <BlockDim> 18 <Epsilon> 0.001 <TargetRms> 1 <TestMode> T <Count> 14457.23 <StatsMean>  [ 1.239483 1.680942 1.455773 1.624963 1.672377 1.656523 2.153889 2.182634 1.591746 1.684028 1.75074 0.2101201 1.875443 1.544435 1.101859 1.700311 2.39305 1.988957 ]
<StatsVar>  [ 4.490878 10.11287 4.365933 10.74972 6.05726 7.351228 8.503845 8.932875 8.946114 7.264619 8.793903 0.3222654 9.951795 7.05409 5.075397 8.261654 15.1533 8.831764 ]
</BatchNormComponent> 
<ComponentName> tdnnf8.dropout <GeneralDropoutComponent> <Dim> 18 <BlockDim> 18 <TimePeriod> 0 <DropoutProportion> 0 <TestMode> <Continuous> </GeneralDropoutComponent> 
<ComponentName> tdnnf8.noop <NoOpComponent> <Dim> 18 <BackpropScale> 1 </NoOpComponent> 
<ComponentName> tdnnf9.linear <TdnnComponent> <MaxChange> 0.75 <L2Regularize> 0.01 <LearningRate> 0.001927981 <TimeOffsets> [ -3 0 ]
<LinearParams>  [
  -0.1268617 -0.003205824 -0.1972177 0.3375757 -0.3127525 0.339377 0.2812698 -0.3920178 -0.2606781 -0.3925966 0.1252446 0.4183706 0.2825586 -0.1966579 -0.2858825 0.1553839 -0.2877029 -0.3850861 0.1512949 -0.2708196 0.06014135 0.4224903 -0.1083623 -0.2645276 -0.05516912 -0.3370639 0.2245879 -0.112425 0.04724431 0.003108171 -0.361049 0.2817518 0.004966236 0.4454034 0.3094224 -0.2795096 
  -0.3119319 0.07805142 -0.5257127 0.09910998 0.4225672 0.09660731 0.2412248 0.113392 0.04106391 0.2424979 -0.4162835 0.1507433 0.09369744 0.4825349 0.03981395 0.2135462 -0.04464271 -0.256523 0.136599 -0.1852794 0.3162074 0.09933454 -0.1390804 0.3504808 0.02570767 0.36262 0.4488929 -0.02022966 -0.1632088 0.28323 -0.5223857 -0.1003535 -0.3675918 -0.2085203 -0.260284 0.2511758 
  0.1074984 0.02512136 -0.1903926 0.3974497 -0.02811807 0.07309758 -0.1149255 -0.001852378 -0.1902449 -0.4734992 0.377645 -0.2367997 -0.1402938 0.2243723 -0.6858773 0.1611932 0.403556 0.3275058 0.1439233 -0.1677218 0.02816336 0.09242401 0.1107953 0.1634437 0.3187455 0.6419139 -0.4566465 -0.1021747 0.200097 0.3333569 -0.06873418 -0.05621805 -0.11299 -0.09152006 0.2404954 0.03713234 
  -0.0465276 0.3509426 -0.6400999 -0.2285334 -0.09246641 -0.2351234 -0.3577449 -0.131133 -0.4276064 -0.02286398 -0.3512673 -0.1743965 0.5674837 -0.3288504 0.2439831 0.3860234 -0.09990021 0.3766378 -0.02946102 0.06397644 0.2075907 -0.4550391 0.1716786 -0.1442899 0.03819619 0.1976911 0.004967291 0.09467284 0.2320475 -0.2368344 -0.09255687 -0.1550055 -0.009106144 0.1670832 0.3663099 -0.06776799 
  -0.1627291 -0.0795507 -0.3288828 0.0446425 0.4116933 0.1254817 0.5792954 0.2564704 -0.02967045 -0.06381794 -0.4539836 -0.2920531 -0.428897 -0.4085394 0.03298184 -0.2265562 -0.3822576 0.1989819 -0.2918428 0.1113567 -0.1244308 0.2611035 0.0573801 0.2499063 -0.1204906 0.1056269 -0.2142979 -0.4529821 0.390199 0.1057255 0.1060211 -0.02371515 0.3920799 0.2718102 0.118709 -0.1560761 
  -0.1923823 0.1060182 -0.4538779 0.2796451 0.7746266 0.2335188 -0.4182241 -0.1829334 0.0663463 0.1342995 0.402894 0.08944377 -0.06333095 0.398945 0.1400663 -0.095303 0.04298279 0.2889823 -0.1459011 0.09200007 -0.1832619 0.0244472 -0.180422 -0.36845 0.1150064 -0.3188605 -0.2819289 0.07676767 -0.2641985 -0.1932315 -0.126247 -0.1794917 0.2169867 0.3201386 -0.2147319 -0.3711471 
  -0.6016315 0.2705383 -0.2966688 -0.3128406 -0.06596731 0.2920372 -0.03805403 -0.00478086 0.374848 -0.2739566 -0.004932095 -0.1619177 0.1352396 -0.009953552 0.1683116 -0.1719817 0.4779974 -0.03699871 -0.09166917 -0.05231815 -0.241483 0.1297054 -0.04928964 0.09675117 -0.2925853 -0.1890353 0.02158296 -0.2001209 -0.1779953 0.2071725 0.5128492 0.1397843 -0.6218903 -0.2043769 0.4443071 -0.2793235 
  0.2147195 0.4406456 -0.01124949 0.1552357 0.1834365 0.4799801 -0.03103361 0.1584231 -0.1954298 0.06932646 0.3108477 0.2407052 -0.1593332 -0.2821952 -0.08463975 0.1023344 -0.3776314 -0.4388932 -0.2964899 -0.3442132 -0.4027424 -0.5442299 -0.1976794 0.07898472 -0.1984932 0.06704801 0.006828149 -0.02103336 0.1078362 -0.09014904 0.07390579 -0.4488848 0.005741503 -0.5754125 0.2241105 0.09097309 
  -0.4713496 -0.0982393 0.1285502 0.3793265 0.03652232 -0.155264 0.06945732 0.2635427 -0.6617013 0.5830503 0.3557324 -0.3240792 0.06402095 -0.2925431 -0.2354835 -0.156294 -0.2209987 0.4113334 0.2189625 0.09859651 0.04267272 0.03567848 0.02246795 -0.03603747 -0.4218144 -0.339242 -0.004765979 0.1633395 -0.1239946 0.2296032 -0.08230187 0.1488734 -0.3974947 -0.1852217 0.01741322 0.1022792 
  0.1652633 0.2883701 -0.02295414 -0.3872552 0.0440858 -0.2858014 -0.07736402 0.05141751 0.0576736 0.01930117 -0.01004174 0.09519444 0.1547699 0.5514331 -0.2663823 -0.2717547 -0.6099189 0.339059 -0.1039187 -0.4249493 -0.1017668 -0.07495352 -0.154116 -0.5604318 -0.1292867 0.07174794 0.0814907 -0.4049968 0.1244213 0.3887398 0.1798789 0.5489327 0.06250031 -0.1030096 -0.0009275968 0.1626453 
  0.1170165 0.1508353 0.04983557 0.1479028 0.09131655 0.2928077 0.04295814 -0.4456612 -0.229353 -0.03108446 -0.02204664 -0.7029998 0.1561814 0.2831178 -0.106044 -0.1196518 0.10678 -0.0270713 -0.1717066 -0.005342834 -0.3378614 0.06964216 0.1014874 0.2309471 -0.1382691 0.02917629 0.3089401 -0.2191788 0.004328426 -0.8420842 -0.03084785 0.4194213 0.001509985 -0.01392889 -0.1117626 0.5100765 
  -0.2244923 0.1510442 -0.08864046 -0.4326411 -0.02937568 -0.03556225 0.397339 0.3127086 0.1459224 -0.1211096 0.4800342 0.1586342 -0.1105012 0.04048131 -0.1762087 0.1404278 -0.02470701 0.2219159 -0.1707507 0.09904148 -0.5985122 -0.33141 0.375285 0.2201472 0.1615015 0.05451942 0.3911279 0.5111035 -0.07837734 0.08275627 -0.2412266 0.1316512 -0.007186585 0.6118954 0.03594303 0.2297066 ]
<BiasParams>  [ ]
<OrthonormalConstraint> -1 <UseNaturalGradient> T <NumSamplesHistory> 2000 <AlphaInOut> 4 4 <RankInOut> 18 6 </TdnnComponent> 
<ComponentName> tdnnf9.affine <TdnnComponent> <MaxChange> 0.75 <L2Regularize> 0.01 <LearningRate> 0.001927981 <TimeOffsets> [ 0 3 ]
<LinearParams>  [
  0.203086 0.08903814 0.2840139 -0.1238111 0.2316689 -0.1667783 -0.2099512 -0.1412334 -0.001265438 -0.1752505 -0.1486434 -0.201578 0.3038296 -0.3704353 -0.1030831 -0.2988301 -0.1150626 -0.4320365 -0.4679646 -0.0505299 0.1497923 0.03535998 0.1090409 0.2376356 
  -0.3565653 0.4465981 0.04959407 -0.1391215 0.4584455 0.4200427 0.05508814 -0.1372624 0.7516481 -0.2491191 -0.08608757 0.003568391 0.3174247 -0.1901861 -0.3321074 -0.03945563 -0.03653213 -0.1400227 0.0214681 0.02407071 -0.196236 0.1485613 -0.1383651 -0.08528852 
  0.3199411 -0.1511675 -0.2096341 0.1137892 0.3512115 0.02111499 -0.1036798 -0.1697742 -0.1453959 -0.3516754 0.2724086 -0.4303532 0.10977 -0.2183468 0.02189361 0.2268791 0.5918471 0.1525589 0.08855286 0.1318334 -0.05103469 -0.1909455 0.3767742 0.06470609 
  -0.295781 0.2828631 0.358673 0.02985217 0.2057313 -0.2740765 0.07326483 0.02553559 -0.1918 -0.08902699 0.3524531 0.1731182 0.2232936 0.08260132 0.2557465 -0.307056 0.5145895 0.3378367 0.167797 0.1308744 -0.01109141 0.3562638 -0.2004062 -0.1219483 
  -0.1513283 -0.06362823 0.08259749 0.2022362 -0.3759979 0.05402977 0.5359933 0.2406511 -0.2871309 -0.3228488 0.2399949 -0.1610363 -0.02043396 -0.2324149 0.1582552 -0.2978667 -0.03054811 -0.1951001 0.2873304 0.06659973 -0.04399314 -0.140702 0.01543356 -0.1038344 
  0.2039718 -0.3945485 -0.4465781 -0.1028816 -0.3825593 -0.1516437 -0.09104469 0.1934684 0.1554068 0.2303617 -0.2886751 -0.1330026 0.1913025 -0.1780817 -0.1239765 0.1271418 0.426832 0.1879132 -0.1437447 -0.3873403 0.02548402 -0.003175238 0.005618974 0.4197361 
  -0.5029303 -0.2342326 -0.3185742 0.08458391 -0.06949289 -0.05092724 0.1483784 -0.0007180292 -0.2358048 -0.5396256 -0.1153239 0.02938887 -0.1349078 -0.1749059 -0.2504341 0.5736448 0.247125 -0.128208 -0.01237155 0.05400028 0.3304069 -0.04183161 0.4968799 0.04462308 
  -0.4015592 -0.005089018 0.02580631 0.3471243 0.01681252 0.1215741 -0.2388119 -0.2301668 0.2121675 0.2115383 0.03124511 0.1186281 0.1624785 0.01030453 -0.3425992 -0.04853624 0.4155628 -0.4216968 0.02504386 -0.1219389 0.1537544 0.04683885 -0.2235711 0.4748277 
  -0.3494309 0.2487375 -0.5573475 0.4161646 0.08701579 -0.244819 -0.3214408 0.1252714 -0.2726376 0.07076331 -0.07744128 0.07428433 0.04193452 0.08427012 -0.2366254 0.1025624 0.05589428 -0.06065582 0.1628652 -0.08513257 -0.2303825 0.3531662 -0.2013437 0.04681945 
  -0.256142 0.2871724 -0.1066661 -0.368349 0.07094403 -0.06769857 0.1480361 -0.3397427 0.3666961 0.08810376 -0.03199899 0.1913659 0.3178724 -0.3019173 -0.1043176 -0.2878106 -0.0375846 0.3271269 -0.2005957 -0.008372579 0.08544422 -0.0394642 -0.04276002 0.0348141 
  -0.08292755 0.09657262 -0.1820268 0.02803416 0.3135109 -0.3321224 -0.2050038 0.3140166 -0.08552018 -0.385733 -0.031513 -0.08001467 0.09117361 -0.3572858 -0.3674313 0.02342753 -0.1188399 0.009743032 0.1109308 0.464938 0.1777496 0.1192375 0.2421624 -0.1208446 
  0.03642202 -0.1930654 -0.05935115 0.3051843 0.1819299 -0.08114099 0.3463984 0.3596667 -0.2229383 -0.04528015 -0.09445727 0.1049952 -0.02232712 0.2116334 0.0129551 0.1008038 0.2412074 0.1960464 0.330121 -0.002375163 0.1861525 -0.457131 -0.2022176 0.2040413 
  0.461333 0.1432645 0.17309 0.0511912 -0.03186023 -0.02799597 -0.1327907 -0.06174855 0.1370205 0.176625 -0.1175925 -0.1071784 -0.418909 0.1650877 -0.1536108 -0.1039196 0.1798519 -0.5564832 0.002047258 0.17043 0.1566222 -0.08479829 -0.4060737 -0.4533484 
  0.5133182 0.02675466 0.4501303 -0.03439737 0.05455798 0.3112166 0.6033231 0.07515418 -0.06809317 0.1045993 0.04742622 0.2212833 0.5057846 -0.2478532 0.06648482 0.1423348 -0.1529601 -0.2791022 0.3146101 -0.5204103 -0.04228745 -0.09147795 0.01880677 0.1016808 
  -0.2323215 0.06299811 0.3757281 0.6296434 -0.2999643 0.597245 -0.1469162 0.1456231 0.3352254 0.4086139 0.2579367 -0.06080182 0.2075797 -0.1282247 -0.04700783 0.3200781 0.02845972 -0.1442536 -0.3910868 -0.2144502 -0.110852 0.03756943 -0.2257164 0.1883012 
  0.5494139 0.2333401 0.03386187 0.7027787 -0.07343158 -0.3950086 -0.03888842 -0.04617323 -0.07760756 -0.2465573 0.09181072 0.3102603 -0.2115059 0.1212553 -0.2053976 0.09173885 -0.2326735 -0.1730331 0.182283 0.1925918 0.01887893 0.1048798 -0.08827528 -0.1467504 
  0.1700093 -0.2552761 -0.1556394 -0.2356662 -0.2292273 0.1627421 -0.1508112 -0.08524059 0.06827521 -0.2162767 0.009999276 -0.3741178 0.0004621688 0.1426857 0.3176108 -0.01182615 0.1153789 -0.3339837 0.02272397 0.2186835 0.3320298 0.3516266 -0.3665612 -0.4385642 
  0.1373412 -0.2763991 -0.3312086 0.2831451 -0.3262199 -0.1875592 0.3341954 -0.5149088 0.2900185 0.4798131 0.3587458 0.005350461 -0.1423255 0.260324 -0.1193263 0.1058262 -0.3081022 0.09671254 -0.006414976 -0.2804915 -0.2102863 0.002892805 0.07767393 -0.2344635 ]
<BiasParams>  [ -0.3569062 0.01683082 0.4996397 0.2387702 -0.02711689 0.1230816 0.3724864 0.3068132 0.327068 -0.3101453 -0.0165773 0.4749496 -0.1838914 0.1840087 -0.1554338 -0.3595739 0.1320147 0.3405894 ]
<OrthonormalConstraint> 0 <UseNaturalGradient> T <NumSamplesHistory> 2000 <AlphaInOut> 4 4 <RankInOut> 12 9 </TdnnComponent> 
<ComponentName> tdnnf9.relu <RectifiedLinearComponent> <Dim> 18 <ValueAvg>  [ 1.142689 1.626594 1.796549 1.599467 1.559414 0.9722292 2.290899 1.572942 1.921073 0.9900171 1.503941 1.593072 1.409703 1.842692 1.180902 1.404542 1.490112 1.804279 ]
<DerivAvg>  [ 0.4210383 0.4440573 0.5702144 0.4751046 0.4504854 0.5367606 0.5240455 0.520529 0.4890037 0.38867 0.4840324 0.5378202 0.4371925 0.4529168 0.4607424 0.4103019 0.4723426 0.5072328 ]
<Count> 775696 <OderivRms>  [ 0.04221972 0.03358907 0.0308107 0.03046207 0.02689994 0.02937631 0.02694536 0.02736251 0.02776099 0.03321429 0.02495926 0.02500481 0.03663516 0.02585851 0.03626309 0.03078296 0.03631216 0.02361814 ]
<OderivCount> 1264224 <NumDimsSelfRepaired> 0 <NumDimsProcessed> 4234.5 <SelfRepairScale> 1e-05 </RectifiedLinearComponent> 
<ComponentName> tdnnf9.batchnorm <BatchNormComponent> <Dim> 18 <BlockDim> 18 <Epsilon> 0.001 <TargetRms> 1 <TestMode> T <Count> 13945.23 <StatsMean>  [ 1.147599 1.618528 1.86094 1.609742 1.565726 0.9693483 2.348433 1.621288 1.962226 1.004025 1.532009 1.589812 1.455497 1.860421 1.214976 1.465839 1.524678 1.799569 ]
<StatsVar>  [ 3.476642 8.371542 5.633616 6.929541 6.337768 1.93917 10.56931 5.666586 8.031503 3.962667 5.66971 5.30934 5.955561 9.226966 4.269393 6.612829 6.232971 7.017449 ]
</BatchNormComponent> 
<ComponentName> tdnnf9.dropout <GeneralDropoutComponent> <Dim> 18 <BlockDim> 18 <TimePeriod> 0 <DropoutProportion> 0 <TestMode> <Continuous> </GeneralDropoutComponent> 
<ComponentName> tdnnf9.noop <NoOpComponent> <Dim> 18 <BackpropScale> 1 </NoOpComponent> 
<ComponentName> tdnnf10.linear <TdnnComponent> <MaxChange> 0.75 <L2Regularize> 0.01 <LearningRate> 0.001927981 <TimeOffsets> [ -3 0 ]
<LinearParams>  [
  0.08584648 0.2277642 0.04127986 0.2575795 0.3733574 -0.02976018 -0.4111274 -0.2335641 0.4196352 -0.4034002 0.1755322 0.06812221 -0.2746483 0.03574107 -0.3814596 0.7273704 0.1811694 0.02480004 0.351204 -0.09558499 -0.01126459 -0.01955597 -0.1827724 -0.1328461 0.08995555 -0.07362435 0.2383188 0.08927494 -0.1222136 -0.1668471 0.1605318 -0.1322965 -0.5072546 -0.03138866 0.2790233 0.03333645 
